nep4 5 C N H Pb I 
cutoff 8 4 115 19
n_max 4 4
basis_size 8 8
l_max 4 2 0
ANN 30 0
  3.1459454e-01
 -9.2593515e-01
 -1.8944889e-01
  6.0825574e-01
  6.2847179e-01
  1.8188180e-02
 -2.9098117e-01
 -6.1834234e-01
 -1.8044031e+00
 -1.4760210e-01
 -7.3893243e-01
 -1.2053709e+00
 -1.9521137e-01
 -2.5163269e+00
  4.7220272e-01
 -1.1833630e+00
 -5.6196982e-01
 -1.2756161e-01
  7.2341895e-01
  1.2518400e-01
  4.8783556e-02
  5.5740827e-01
 -5.0012600e-03
  2.0392017e-01
  1.1740196e+00
 -6.4933151e-01
  7.9784977e-01
  8.5354382e-01
  1.6215886e+00
  2.3640294e-02
  2.4531715e-01
  9.2450969e-02
 -7.3222029e-01
 -6.7364246e-01
 -2.6448257e-02
  1.4386482e+00
  1.5329555e-01
  2.0790680e-01
  4.9773138e-02
 -1.2229314e-01
  1.9394618e+00
  1.5882874e-01
 -5.1172018e-01
  2.9477442e-02
  1.0126715e+00
  1.2766963e+00
  1.7516100e-01
  4.1142210e-01
  3.2282002e-02
 -2.8771234e-01
  2.0869124e+00
  2.3244533e-01
  3.8365388e-01
 -2.3417905e-01
 -6.1814076e-01
 -2.8855705e-01
 -1.0990128e-01
 -7.4989788e-02
  1.4062786e-01
 -7.0511490e-01
 -4.4290401e-04
 -3.9325166e-02
  2.0050766e-02
  4.9928345e-02
  9.5945206e-03
 -5.0542995e-02
 -2.2520800e-01
  3.4432124e-02
  4.4985019e-02
 -6.8090758e-03
 -1.2755102e-01
 -3.2511510e-02
 -1.0843168e-02
  7.7491075e-02
  9.9712880e-03
 -3.1376321e-02
 -8.8397041e-03
  1.1972573e-02
 -5.6178006e-03
 -5.6521371e-03
  2.3027153e+00
  4.1514389e-02
 -6.9327676e-03
  2.6932593e-02
  5.1987585e-02
  7.6118767e-02
 -1.3431730e-02
 -1.7765523e-01
 -2.4423281e-02
  1.4127132e-02
 -9.8279510e-03
  2.1978711e-01
  6.7421101e-02
  6.1724663e-02
 -6.5888131e-01
  1.6809998e-01
  1.2261774e-01
 -1.8066946e+00
  3.5804331e-02
  6.8791732e-02
  6.0072865e-02
  5.6500387e-01
  3.9477374e-02
  1.5634723e-02
  3.2990944e-01
  1.0412993e-01
  8.0720214e-03
 -1.8718081e-02
  9.8917529e-02
  1.3730733e-01
  7.8596463e-03
  8.1115790e-02
 -1.8197061e+00
  7.7388781e-01
  5.1752318e-02
 -7.9269875e-03
  4.9299214e-02
  1.9719053e-02
 -5.5856012e-02
  3.2411280e-01
 -7.0768714e-01
 -4.8784211e-01
 -8.9376442e-02
  8.6945736e-01
  3.4359756e-01
 -1.0067948e+00
  3.0390966e-01
  2.0411205e-01
  3.4458280e-02
  1.1842204e+00
  2.6498091e-01
 -1.5115744e-01
  1.5245987e+00
  2.1718266e+00
 -2.6213686e+00
 -2.0076407e-03
  5.9659099e-03
 -5.2926350e-01
  1.2897091e-02
  2.6406670e-01
 -9.8247111e-02
  2.6161937e-02
 -1.4373055e-01
 -7.9421687e-01
 -3.7545142e-01
  1.3552937e-01
 -5.9757404e-02
 -1.2899120e-01
 -1.1298600e-01
  3.7283478e+00
 -2.2126736e-02
 -4.7110706e-03
  4.9267027e-01
  1.5621461e-01
 -5.7920682e-01
 -2.1112110e-02
 -3.3872128e-02
 -1.2717591e-02
 -2.3186758e-02
  3.3957113e-02
 -3.3788532e-02
 -1.0168354e-02
  1.7468518e-02
 -2.6725402e-02
 -6.3287175e-01
  6.1614159e-03
  2.0257540e+00
  5.0660707e-02
  9.1849886e-02
 -1.7381995e+00
 -1.5826622e-01
 -8.2742259e-02
  3.4771837e-02
  7.8530766e-02
  2.9651200e-02
 -4.7505051e-02
 -3.0571146e-02
  3.3061758e-02
 -3.5717055e-02
 -7.6401718e-03
 -4.9229104e-02
 -4.2792687e-01
 -8.1908172e-01
 -3.3521584e-01
 -4.1861743e-01
 -1.7249274e-01
  1.3151996e-01
  3.5686812e-01
  4.6279961e-01
 -1.1491598e+00
 -1.0716495e-02
  2.1081847e-01
 -2.4004098e-02
 -1.4589306e+00
 -4.6059483e-01
 -6.1540282e-03
  2.8697545e-02
 -3.1631288e-01
  1.8018212e-02
 -1.3775836e+00
  2.3975214e-03
  8.2794055e-02
 -4.1985649e-01
  1.3600314e+00
 -1.0305818e+00
  1.5327333e-01
 -2.4093033e-03
 -1.7653642e-02
 -1.2165278e-01
  2.0865386e+00
 -3.1226903e-02
 -1.0279956e-01
 -2.1695316e+00
 -2.3142314e-01
  4.8774909e-02
  3.9887704e-02
  4.4110116e-02
  7.7275843e-03
  1.2766635e-01
  6.5154649e-02
  6.8430535e-02
 -9.0123639e-03
 -5.9127070e-02
  5.6943607e-02
 -1.2490674e-01
 -1.4452936e-01
 -1.8580841e-01
  7.3172826e-01
  4.3240394e-03
  8.6266436e-02
 -7.1580462e-02
  8.8048577e-02
 -1.1348783e-03
  9.1188058e-02
  3.4650013e-02
 -4.4157609e-02
  1.3323429e-01
  6.9866641e-03
  2.7583800e-02
  2.8515447e-02
 -4.3100441e-05
 -2.3634210e-01
 -2.5405648e-01
 -4.7353372e-02
 -1.9353792e-01
  6.7558534e-02
  1.3789767e-01
  4.5417696e-01
  4.5001093e-01
 -3.8956401e-01
  3.0829912e-01
 -9.6953809e-02
  1.5482984e-02
 -4.1081753e-01
  3.3464459e-01
  6.1850897e-03
  2.2100700e-01
 -3.7142213e-02
  3.6302853e-02
  1.1845922e-01
 -9.9033862e-02
  1.4841397e-01
 -1.2219707e-02
  2.1834927e-02
  6.7983305e-01
  5.7653695e-02
 -1.8208646e-03
  4.2728089e-02
  1.0486242e-01
 -2.7821535e-02
  2.9849490e-02
  7.5356901e-02
  6.7312229e-01
  5.2753448e-01
 -9.4066006e-01
 -7.5725621e-01
 -7.8600711e-01
  9.9766600e-01
 -1.0154371e+00
 -9.7601813e-01
 -1.1229359e+00
  3.5805088e-01
 -1.0189843e+00
 -5.2091134e-01
  1.0122882e+00
 -1.3505565e+00
 -2.1635368e+00
 -2.3406582e-01
 -7.5771904e-01
  3.4129852e-01
 -1.8313557e-01
 -5.6667179e-01
  3.8422951e-01
 -7.6539189e-01
 -6.3661706e-01
  9.8636217e-02
  4.2279017e-01
  8.5573658e-02
 -2.8363532e-01
 -1.6272633e+00
  5.6826543e-02
  3.5088271e-02
  6.4903426e-01
  9.6584380e-02
 -1.6110154e+00
 -4.3639116e-02
 -8.5864544e-02
 -1.7082466e-02
  4.4299343e-01
  1.3950273e-01
  1.9485892e-01
 -1.8122607e+00
 -1.1979353e+00
 -4.9294565e-02
  1.6518224e+00
  3.7374295e-02
 -1.3806601e-01
  5.9043702e-02
  1.5583321e-01
  2.3483039e-01
  7.0619208e-01
  5.9835952e-02
 -1.3655360e-01
  6.9933556e-02
  4.0210393e-01
  1.0791637e-02
  1.0705127e-01
  1.7682390e-03
 -6.9741309e-02
 -5.9296590e-01
  2.7328376e-02
 -1.7972210e-02
 -2.6839203e-01
 -6.7350388e-02
 -1.3113433e-01
  4.6315037e-02
 -3.6955360e-01
  1.6440276e-02
 -3.9914638e-02
 -6.2099569e-03
  1.1598925e-01
 -4.7411662e-02
  1.1261220e-01
 -1.2078562e-02
 -6.2783778e-04
 -2.6165906e-02
  2.0638991e-02
  2.4014529e-02
 -1.1647364e-01
 -3.7312567e-02
 -8.5130483e-02
  1.0945761e+00
  3.0848864e-02
 -6.1076924e-02
 -6.6890647e-03
  8.1394212e-03
  1.4965286e-02
 -3.6355869e-03
 -2.6652863e-02
 -1.3111055e-02
  8.0090342e-03
 -7.8561431e-01
 -7.6013762e-03
 -6.9807395e-03
  4.5109853e-02
 -1.7688436e-03
 -8.3009703e-03
 -3.9372806e-02
 -6.1232008e-02
  5.8150932e-02
 -1.0229618e-01
  4.3714222e-02
 -3.3983514e-01
 -3.9473135e-02
 -1.2864299e-01
  1.8956805e-02
  9.1841379e-03
 -7.6600509e-03
 -5.2617259e-02
  6.9343122e-03
  2.6940025e-04
  5.8373541e-02
  2.0691106e+00
 -3.2423221e-02
  1.7139716e-02
 -9.5897447e-03
 -1.1330668e-02
  1.0034094e-02
 -1.4791809e-04
 -4.3043882e-02
 -3.3505313e-02
 -1.1519164e+00
 -1.1527208e+00
 -1.0885003e-01
 -2.3210159e-01
  2.1146104e-01
  7.5778808e-03
 -1.5098032e-01
 -1.2484002e-01
  7.8308970e-02
 -3.1373397e-01
  6.4447306e-02
 -6.1462387e-03
 -2.5866516e-03
  2.4068325e+00
  7.6966912e-02
  4.5960903e-02
 -4.7299483e-01
 -7.8563392e-02
  3.4792396e-01
  2.9256246e-03
  4.8146346e-01
 -1.3422468e-01
 -3.4009865e-01
 -4.5107666e-01
  2.2825247e-01
 -8.9950673e-02
 -1.3590811e-03
  2.8213394e-01
  1.4767227e+00
  3.3420300e-01
  1.7077337e-03
 -6.8404466e-01
  3.6161195e-02
 -4.1695482e-01
 -1.1886392e-02
 -1.0242549e-01
 -1.0859214e-01
  4.2564464e-01
  3.1725866e-01
 -4.6673886e-02
  1.6255866e-01
 -3.3739362e-02
 -1.8193401e-02
 -1.6800514e-01
 -5.0624660e-03
 -4.8092019e-02
 -4.2362269e-02
  1.9418578e-01
 -1.7290208e-01
 -2.7160080e-02
 -3.6873007e-01
 -1.5615612e-02
  8.3488561e-02
 -6.3030839e-02
 -9.4828114e-02
  4.4487328e-03
 -1.7054071e-01
 -1.7699644e-02
 -1.7786353e+00
  1.7673198e-02
  7.0165652e-01
 -1.8554266e-01
  6.7090750e-01
  1.0185277e+00
  9.9524498e-02
 -5.3973353e-01
 -3.0013126e-01
 -6.9404744e-02
  4.2669658e-02
  5.1990304e-02
 -7.8956950e-01
  7.2352296e-01
 -2.5105044e-02
  7.5939584e-01
 -3.6669862e-02
 -7.8082800e-01
  1.5360217e-01
 -7.0955724e-02
  7.7954376e-01
 -2.5086138e-02
 -7.9915160e-01
  3.7756896e+00
  9.7702786e-02
  2.4149750e-01
  6.4110681e-03
 -3.1058753e-02
  8.2916811e-02
 -1.2511876e-02
 -5.1806813e-01
 -7.7128500e-02
 -7.7943288e-02
 -2.1700639e-02
 -6.9534935e-02
  7.7053048e-03
  1.8446575e-01
 -1.3826224e-01
 -8.6472698e-02
  2.7994582e-02
 -1.0830379e-03
 -3.6280688e-02
 -4.8004687e-01
  9.5780864e-03
  1.5950929e-01
  1.9116214e-01
 -6.9289714e-02
 -2.8368315e-02
 -4.7363151e-02
  1.1734257e+00
  1.3225861e-01
 -2.7399334e-01
  5.4446951e-02
  4.8832875e-02
 -1.5076248e-01
  3.9792686e+00
  2.6225580e-02
 -8.5629872e-04
 -1.0693637e-01
  1.3931195e-01
 -1.1947788e-02
  1.1349392e-02
  1.0618288e-02
 -2.1228375e-02
  1.6243095e-02
  1.7668796e-01
  5.2537911e-02
  1.4902975e-02
 -3.4561213e-02
 -8.8441588e-02
  4.2081211e-02
 -5.2202947e-02
  6.9651571e-03
 -8.5405342e-02
  6.0868599e-02
  5.5831149e-02
 -3.2497761e-01
  2.2980610e-02
  3.9404370e-02
 -1.0519110e-01
  5.6797825e-03
  2.0126918e-02
 -2.7812431e-02
  5.9186555e-02
  1.9809709e-01
 -3.0699098e-02
 -3.8948208e-02
 -1.6094502e-02
 -1.6255995e-02
 -5.4082793e-01
  1.0130998e-02
 -1.7668693e-01
 -2.5173895e-02
  1.8525445e+00
 -6.3067502e-01
 -2.6227260e-01
 -8.0735929e-02
 -1.5972696e-01
 -1.3978210e-01
 -8.8576919e-01
 -3.8487476e-01
  2.0992301e-01
 -3.1096445e-02
  1.3162386e-01
  1.3136177e-01
 -1.1899510e-01
 -1.1446828e+00
 -3.4627584e-01
  5.2413845e-01
 -1.3203309e-01
 -1.3949569e-01
  9.2585891e-02
  2.1240551e-02
 -8.8542283e-01
 -5.7429820e-01
 -2.8583446e-01
 -9.7246528e-02
  1.0731457e+00
 -1.5071806e-01
 -6.1705846e-02
 -1.2135471e+00
  7.7612475e-03
  2.9950583e-02
 -6.5683329e-01
 -7.4000850e-02
 -3.0192187e-01
 -2.0060338e-01
  1.6714858e-01
  3.1364068e-02
  5.6383047e-02
 -5.7480145e-01
  1.8111520e-01
 -2.8371814e-01
 -4.0810262e-03
  1.0863660e-02
  4.6510130e-01
  1.4326687e-02
  2.3131187e-01
  2.7962239e-02
 -1.0950094e-01
 -3.4995887e-02
  2.5378606e-01
  3.3355287e-01
  1.8073641e-02
 -1.7017655e-02
 -1.8143810e-01
  1.0607010e+00
  7.7874780e-02
  1.9527769e-01
 -1.6626863e-02
  4.3609795e-01
 -9.3679810e-03
 -1.5957873e+00
  5.9421533e-01
 -4.0802378e-02
  4.7722843e-01
 -3.9991334e-01
  2.1941847e-01
  8.5329080e-01
  1.0958931e+00
 -6.3760197e-01
 -2.3778636e+00
  3.4421593e-02
 -2.0155352e-02
 -5.3104776e-01
 -6.5622145e-01
  1.0823692e+00
  5.1851165e-01
  7.0303279e-01
 -1.5623385e-01
 -4.5038766e-01
 -1.1954580e-01
  1.8517430e+00
  1.7870975e-01
  9.9713260e-01
  1.1835947e+00
  1.3014345e-01
 -4.5254249e-02
  4.3034185e-02
  2.2307839e-02
  1.2705674e+00
  1.2735228e-01
  8.5171580e-02
  2.2918597e-01
 -6.9639099e-01
  1.8858149e+00
  5.3573543e-01
  2.8874430e-01
  3.7275413e-01
  7.2729194e-01
 -4.6589157e-01
  8.6552823e-01
 -4.0204439e-02
 -3.5150972e-01
  1.1486295e-02
  2.0596963e-01
 -6.0422003e-02
  8.8743722e-01
 -1.0400083e+00
  2.8150973e+00
 -1.2579712e+00
 -6.1215416e-02
  9.2092401e-01
 -2.4643773e-02
 -9.3969330e-03
  8.8630122e-01
  6.0018901e-02
 -2.1151318e-01
  1.2234099e-01
 -3.3316799e-02
 -1.3704712e+00
  5.9753466e-02
 -2.8001809e-02
  3.0567454e-02
  1.3413475e+00
 -2.9247710e-01
  3.6849740e-01
  5.8512893e-02
  1.0497941e-01
  1.1866244e-02
 -1.5373821e+00
 -7.4316084e-02
 -5.4534260e-02
  2.0764858e-02
  1.9074415e-01
 -2.2405431e+00
  3.1354528e-02
  1.8833853e-01
 -6.9604293e-02
 -1.7395489e-02
 -1.5986675e-01
  1.1746370e-01
  1.2353861e+00
 -2.2419626e-01
  7.1645409e-01
  1.6886219e+00
  2.0885761e-01
 -7.9302400e-02
  5.1606349e-03
  2.5181714e-02
  1.6542882e+00
  8.9248404e-02
 -7.6541761e-03
  7.2705589e-02
 -3.6328949e-02
 -2.0605581e-02
 -3.3925548e-02
 -8.6056821e-02
 -6.8298704e-03
 -1.1450677e-01
 -8.4192589e-02
 -7.1174547e-02
 -1.0004060e-01
 -9.2198603e-02
  2.6382761e-02
 -5.5943549e-02
 -3.1048123e-02
  6.1102003e-02
  8.8988453e-02
 -1.2456809e-01
 -4.4510361e-02
  7.6541118e-02
 -4.8346002e-02
  2.4160326e-02
 -1.7458910e-01
 -1.7575180e-03
  2.2307927e-02
  4.8494685e-02
 -7.7796072e-02
 -9.5882555e-03
  6.1734729e-02
  4.2658184e-02
 -5.4616544e-02
 -6.8459427e-01
 -3.3402289e-03
 -1.5338008e-01
 -4.1486327e-02
  3.7293708e-01
 -1.8602651e-01
 -1.7334782e-01
 -7.4343361e-02
 -9.4080694e-02
  5.6256961e-02
 -1.8160801e-01
  1.8544074e-02
 -7.0836575e-04
 -1.8526819e-01
  8.7383397e-02
 -2.6841773e-02
  1.4134808e-01
 -2.3300190e-02
 -1.5025437e+00
 -6.5797769e-02
  9.3551233e-02
 -6.0742360e-02
 -4.9287081e-02
 -7.2945678e-01
  2.9310068e-02
 -3.2422230e-02
 -4.3229081e-02
  9.4375774e-02
 -7.4321933e-02
  2.9004151e-01
 -4.6144584e-01
 -4.7675219e-01
 -1.2083443e+00
 -4.2776191e-01
 -2.2369073e-01
  7.8680640e-01
  1.2206508e+00
  5.3708839e-01
  1.2971342e+00
 -1.4314753e-01
 -4.8300710e-02
 -5.0279963e-01
 -1.6504426e+00
 -8.0778532e-02
  2.6389062e-01
 -1.6308780e+00
  1.9702718e-01
 -8.5814136e-01
 -4.2545822e-01
  1.7131807e-01
  1.4019898e+00
 -7.2284663e-01
  1.5539841e-01
 -5.1427282e-02
  2.0546892e-03
 -1.6454443e-02
 -6.4531434e-01
 -3.3051804e-01
  3.1604427e-03
 -2.1317206e-02
 -2.8812033e-01
 -3.9305097e-01
 -3.9781738e-02
 -4.6955013e-01
 -3.0095667e-02
 -2.3247823e-01
 -9.1464557e-02
 -1.5916288e-01
 -1.9131331e-01
 -1.5064690e+00
  9.9210823e-01
  1.4189899e-01
  4.6817274e-03
  3.4218404e-02
  7.5309590e-02
  9.1747977e-03
  7.7377999e-04
 -5.2059835e-01
  7.4802965e-02
 -3.1924054e-02
 -1.3656500e-01
  2.0725410e-02
 -3.4394634e-01
 -1.5119445e-02
  3.2206863e-02
 -1.1599189e-02
 -7.6800430e-01
 -1.4800029e-01
  2.2577859e-01
 -1.6284073e-02
  4.2549339e-01
 -3.0962610e-01
  1.1672108e+00
  2.4960702e-02
 -1.3276218e-01
 -1.4674764e-02
 -2.5684270e-01
  1.0033581e-01
 -5.2041106e-02
  4.6051842e-01
 -3.0605650e-01
 -2.3302069e+00
  6.7771608e-01
  2.1743696e-02
 -1.0947371e-02
 -5.8512478e-03
  5.8286387e-01
  4.0881363e-01
 -3.2112256e-01
 -1.9342195e-02
  6.1478961e-01
 -3.3467740e-01
  2.4584569e-01
  3.3953771e-02
  4.3765150e-02
 -1.2896338e-01
 -3.0750414e-02
  1.5506139e+00
  6.4124451e-03
 -1.0367697e-01
 -6.2806629e-02
  4.0512728e-03
  3.4970450e-01
 -3.6880453e-03
 -1.4319184e-01
  3.1919949e-02
 -1.9931780e-01
 -7.0875250e-02
  5.4160289e-02
  2.9599531e-02
  2.1416943e+00
 -2.8311065e-03
 -4.3640118e-02
 -5.9820201e-02
  3.7574049e-02
  1.5404947e-02
 -1.2939591e-02
 -7.1142942e-02
 -2.3375580e-01
 -1.8162888e-02
 -2.5140034e-02
 -1.5955041e-01
  5.8426638e-03
 -4.7680657e-02
  3.2261420e-02
 -4.6598163e-02
  1.9070458e-02
 -1.0697874e-02
  5.8044112e-01
 -6.2811817e-04
  8.4261289e-03
  4.2859752e-02
  9.3898447e-03
  1.8437080e-03
  3.2696931e-03
  2.1398556e-03
  1.4671409e+00
  3.5297778e-02
 -5.0719243e-02
 -6.5247409e-02
 -1.6645988e-02
  9.3102835e-02
 -7.9164951e-05
 -9.0748839e-02
  1.6632989e-02
 -4.2404030e-05
 -8.5361503e-02
 -4.9661878e-01
  1.0649715e-01
 -1.6778307e-01
  3.8863935e-02
  3.5948274e-01
 -1.9117427e-03
  6.4667122e-04
  7.3971853e-02
  2.4015199e-01
  6.8865893e-03
  6.3895062e-03
 -1.2275384e-01
  1.0681770e+00
 -2.1710359e-01
 -7.5045061e-01
  6.9626361e-01
 -7.4133627e-02
 -5.2419257e-01
 -1.2025719e+00
 -8.0984600e-02
  2.6227820e-01
  2.3825386e+00
  9.2775661e-01
  4.0202193e-02
  1.3315110e+00
 -3.1632368e-02
 -5.3525150e-01
 -2.2047856e-03
  2.0251466e-02
  1.3261448e+00
  2.0837070e-02
 -4.0227816e-01
 -1.1766522e+00
  1.4928020e+00
  2.0705853e-01
  1.6548443e-01
 -8.3386695e-01
 -1.9246900e-02
  4.9741131e-01
 -2.0629555e-02
 -9.5666356e-02
 -2.5029047e+00
  1.1242969e+00
  1.8089296e-01
  1.3614914e+00
  2.0371768e+00
 -1.3809048e-01
  6.0787249e-01
  1.7821486e-01
  8.0241680e-01
 -2.1087275e+00
 -1.9317068e-01
 -1.0912247e-01
 -8.5877657e-02
 -3.2060120e-01
 -2.7807334e-01
 -9.3412817e-01
 -1.0404676e-01
  5.2904904e-02
 -5.6252038e-01
  3.0413324e-01
  8.4861189e-01
  5.6227636e-01
  7.1709418e-01
 -1.5001453e-01
 -1.4439748e-01
  7.4440449e-01
 -2.8272989e-01
 -4.2907768e-01
 -1.1164080e-01
  2.6265517e-02
  4.7526248e-02
 -1.4530569e-02
  6.8680599e-02
  2.4969479e-02
 -2.2158128e-01
  2.5202133e-02
 -1.7964277e-02
  2.3777571e-02
  9.8341429e-01
 -9.9159069e-02
  1.0733718e-01
 -1.8543439e-01
 -4.6186602e-01
  1.4127174e-01
 -7.7812262e-03
  1.3435680e-02
 -5.3111902e-03
 -1.9751819e-02
 -1.2264304e-01
 -1.9802664e-01
 -5.4456890e-02
 -1.0078662e-01
  9.0645783e-02
  8.1484057e-03
 -1.5311999e-02
  2.0567288e-01
 -2.6554117e-02
 -3.0475348e-02
  1.1672946e+00
 -2.3850733e-01
 -7.6829046e-02
  3.5597691e-01
 -2.1410961e+00
 -6.8741560e-01
 -7.2019711e-02
 -1.1520021e+00
  7.6248336e-01
  1.9585681e-03
  1.0199848e-01
  1.2049832e-01
 -1.4981285e+00
 -1.1104567e-01
  2.0352712e-02
  5.3295836e-02
 -1.2093376e-01
  1.0045680e-01
  4.6890718e-01
  2.1445943e-01
  1.3160212e-01
 -2.2401039e-01
 -2.7926850e-01
 -2.6292431e-01
  1.3629729e-01
 -1.6838734e-01
 -1.1987012e-01
 -1.5854208e-01
 -1.3256491e-02
 -1.1125742e-02
  7.9187745e-01
  1.0737987e-01
  4.7912353e-01
 -1.7365417e-01
 -3.3811960e-01
 -1.1170675e-01
  4.1189991e-02
  1.9856713e+00
 -2.3416116e+00
 -5.7428747e-01
  1.1522821e-02
 -8.3641595e-01
 -7.5654739e-01
 -6.9887733e-01
 -5.6827623e-02
  1.0220995e+00
 -4.7736272e-01
  1.5435842e+00
  1.4073826e+00
 -2.3359313e+00
  4.6917295e-01
 -3.0648345e-01
  1.3005327e-01
  2.9984355e-02
 -2.5107956e+00
 -2.5212273e-01
 -4.4543591e-01
  3.0979605e+00
  7.7887821e-01
  3.0513076e-02
  1.3450915e+00
  1.1258297e-01
  6.5558665e-02
  3.0972490e-01
 -8.4943324e-01
  4.3943191e-01
  1.1377562e+00
 -2.8692687e+00
  6.6483724e-01
 -5.3356647e-01
 -1.4833134e-01
 -7.6079768e-01
  1.0319353e-01
 -1.1971599e-01
 -6.3150901e-01
  6.9156706e-01
 -1.0246639e+00
 -1.3519988e+00
  5.4441971e-01
 -1.4326793e+00
 -1.0370061e-02
 -6.9583416e-01
  6.7000553e-02
 -9.0551066e-01
  1.5406833e+00
  1.2138737e+00
 -4.2513516e-03
  1.0543932e+00
  8.6903304e-01
  1.0020692e-02
  9.4490111e-01
 -1.0887827e-01
 -3.2444003e-01
  6.8439674e-01
  9.1769062e-02
  5.2353297e-03
  1.2800820e+00
  2.8689813e-02
 -1.7816514e-01
  9.0617109e-03
 -2.1064258e-01
  8.3438702e-02
 -2.5707924e-01
 -4.4942956e-02
  4.6775430e-02
  1.1431569e-01
  9.1983140e-02
 -1.5058277e+00
  2.4978346e-01
 -6.9239020e-02
 -1.1251084e-01
  7.2125363e-01
  1.4946862e-01
 -1.0756016e+00
 -1.5048006e-02
 -9.8388501e-02
  7.0797391e-02
  2.4240394e-03
 -2.9940245e-01
 -3.6891066e-02
 -2.7370605e-01
  5.6648329e-02
 -8.9334533e-02
 -1.9880658e-01
 -1.5213145e-01
  3.4811880e-02
 -6.6323465e-01
 -4.8389673e-01
  4.1733664e-01
 -3.2347675e-02
 -1.0328228e-01
 -8.2929289e-01
  6.4220913e-02
 -1.5302749e-01
 -9.2641063e-02
  4.0640980e-03
 -4.7857944e-02
 -1.6032910e-02
 -2.2350167e-01
 -8.1121981e-01
 -6.7480475e-02
  8.4132269e-02
 -4.4766039e-01
 -4.6653220e-01
 -1.6067319e-01
  1.4013775e-01
 -4.9168405e-01
  4.5720276e-01
 -2.7540091e-01
  3.2127213e-01
  4.2461320e-03
 -1.5761828e-01
 -1.4722366e+00
 -5.6019545e-01
 -1.2477449e+00
 -5.5114800e-01
  7.9237081e-02
  9.7801822e-01
  2.1654632e+00
  1.1300290e+00
  8.6092791e-03
  3.9985141e-01
  1.8579093e-01
  4.6641728e-01
  1.6750364e-01
 -1.6650635e-01
 -8.1855804e-03
  6.4004570e-02
  1.1947126e+00
  7.4070863e-06
 -1.0079112e+00
 -2.7117127e-01
  5.0689059e-01
  1.7607005e-01
  2.4263643e-01
 -8.4709547e-02
 -6.1433202e-01
 -4.3267768e-02
  3.4082159e-01
  9.8116525e-02
  8.2409352e-02
 -1.8910116e-03
 -6.4157404e-02
  5.5091321e-02
 -6.3207752e-01
  2.0202871e-01
  4.1517954e-02
  3.3810392e-01
 -6.8918455e-01
 -1.1408384e-02
 -7.9074176e-04
  4.5966038e-01
  4.6251234e-02
  1.9511011e-01
  4.2206995e-02
 -1.8346176e-01
  1.3286492e-03
  1.6921538e-01
  2.0284979e-01
  4.3439481e-02
  1.5840122e-01
 -1.4277779e-02
 -1.5638159e-01
  5.2721251e-02
 -1.6133832e-04
 -1.7656624e-02
 -8.6724900e-02
 -1.9128624e-02
 -3.5706028e-01
 -8.3559833e-02
  3.6701124e-02
  6.2720887e-02
  1.4596961e-02
  2.6947703e-02
  1.2384931e+00
 -1.8792342e-01
 -2.9152736e-01
  9.7772670e-01
 -7.2478198e-02
 -6.1431680e-02
 -1.2332050e-01
  4.5330222e-03
  4.0345463e-01
 -1.6039813e-02
  3.4941509e-02
  6.7193806e-01
  5.6065865e-02
 -3.0281983e-02
 -3.1765800e-02
 -2.2348513e-01
 -3.5266613e-04
  8.8891804e-02
  7.0621032e-01
  1.5010134e-02
 -6.7834862e-02
 -3.1835884e-03
  2.1882907e-01
  4.1844368e-02
 -2.1856699e-02
 -5.4488170e-01
  1.2389302e-01
  4.8944395e-02
 -1.7427450e-01
 -1.2337490e+00
 -6.6070527e-01
  1.2144059e-01
  8.1820369e-02
 -5.5270326e-01
 -3.1593367e-01
 -5.7333225e-01
  1.7317061e+00
 -6.2301302e-01
  1.3198920e-01
 -2.6202214e-01
 -8.4539503e-01
  1.4711051e+00
 -1.3649440e+00
 -4.0820010e-02
  1.5821112e+00
 -4.9548474e-01
  8.3386652e-02
 -7.7727246e-01
 -2.7264753e-02
  1.0347836e+00
  9.1415429e-01
  3.5154983e-01
 -2.1649270e-01
  8.3448701e-03
  1.4677913e-01
 -2.7472885e-02
  2.5618958e-01
  7.8009583e-02
 -8.9619869e-01
 -1.4890450e-03
  2.6288563e-02
 -6.0614649e-02
  7.8982534e-03
 -9.2735037e-02
  4.2138625e-02
  1.5038239e-02
  7.8345060e-02
 -2.9365972e-03
  1.1333660e-01
 -8.3217956e-03
  3.1911474e-02
  1.4978328e-02
 -3.4408364e-02
 -3.9280288e-02
 -9.7649850e-02
  4.2167649e-02
  4.2158894e-02
 -1.0801096e-02
 -6.3407277e-03
  4.2913649e-02
  6.6049159e-02
  9.3044899e-03
  1.4069951e-01
  2.7497184e-02
 -1.3264933e-02
 -7.3462516e-02
  4.7228966e-02
  4.6382375e-02
  1.5680510e-01
 -2.0233598e-01
 -6.0856346e-02
  5.7931226e-01
  1.0597631e+00
 -3.1150082e-01
  9.3091965e-01
 -4.4924233e-02
  3.7757432e-04
  3.7841406e-01
 -1.5092245e+00
  4.9837774e-01
 -9.3065761e-02
  4.1886564e-02
  4.7116470e-01
 -8.4143889e-01
 -6.7532873e-01
  2.1807495e-01
 -3.5129450e-02
 -5.4238237e-02
  1.6157487e-01
 -1.3284875e+00
  8.1534468e-02
 -1.5621836e-02
 -2.6972017e-01
 -1.1397632e-01
  2.0350887e-01
  5.5265065e-02
 -5.9465732e-02
  3.5341732e-02
 -6.9303803e-02
  3.2966990e-02
  2.1543324e-01
  3.0789252e-02
  5.0333317e-02
  1.1318813e-01
  4.5761839e-02
  8.0080880e-03
  2.7468922e-02
  2.3008246e-02
  1.0016155e-01
  9.0893969e-02
 -9.8372092e-03
 -1.3901357e-01
  9.0150818e-02
  2.7677022e-02
  5.7626519e-02
  1.1154538e-02
  2.9615505e-02
 -1.2864139e-02
 -9.6120350e-02
 -1.0105447e-01
 -1.3137733e-03
  5.5977423e-02
  8.6513400e-02
 -8.9205913e-02
  7.1510226e-03
 -3.8419824e-02
  1.4402820e-02
  2.7748570e-02
  4.2299238e-01
 -7.3422180e-03
  7.3706014e-03
 -1.4588763e+00
 -3.6953542e-02
  1.5400363e-02
 -1.3975367e-01
 -7.9687044e-02
 -5.0426483e-02
  7.9780452e-02
  8.6951643e-02
 -4.8074848e-04
 -9.6736066e-03
  1.1196640e-01
 -1.3046874e-01
  2.2778952e-01
 -8.7521680e-02
 -1.1975536e-01
  1.8595843e-02
  5.2110619e-05
  9.4421301e-03
 -1.4400581e-01
  1.8263122e-02
  2.2893414e-02
  3.3707678e-02
  8.0121852e-02
 -7.8991698e-03
 -9.8677082e-03
  5.3258609e-02
 -4.8165265e-03
  4.2502545e-02
 -1.5118538e-03
  6.5167598e-02
 -1.3471280e-03
  3.4809306e-03
  2.9665052e-03
 -3.7400171e-02
  3.5908753e-03
  4.1233902e-03
 -2.3695394e-02
  1.7755965e-03
  7.8586945e-03
  5.3300153e-02
 -2.9892970e-02
  3.2913595e-02
 -1.9397875e-02
 -8.4358472e-03
  9.8066390e-02
 -2.5361836e-02
 -3.7493903e-02
 -2.8036974e-02
  8.4169202e-02
  1.7689744e-02
  1.7985394e-02
  1.6736504e-02
  1.2440114e-01
 -5.9005037e-02
 -8.0712205e-03
  5.9328139e-02
 -3.5256479e-02
  1.8694801e-02
  3.4071326e-01
  1.1327640e+00
 -7.5505036e-03
 -6.5196633e-01
 -3.5625693e-01
 -4.1944228e-02
  3.7696064e-01
 -1.1718245e-01
  4.1850384e-02
 -1.8439934e-01
  3.2916901e-01
  1.1077422e-01
  2.7754690e-02
 -4.0724687e-02
  1.5601487e-01
  9.1761190e-01
  2.2044545e-01
  6.6521712e-02
  1.6046691e-01
  3.7389892e-01
  2.5984353e-01
  4.0994936e-01
  2.2074530e-01
  2.8715787e-02
 -1.4918704e-01
 -8.6331137e-02
 -2.0339236e-01
 -3.8835686e-01
 -7.3819774e-01
  6.5953934e-01
  1.1638210e+00
  5.2060653e-02
  2.1857505e-01
  3.0977267e-01
 -1.6357160e-01
  4.8160505e-01
  6.4616829e-02
  6.5014824e-02
  1.3954864e-01
 -4.2970091e-01
 -1.0270898e+00
  1.2596552e-02
 -4.8641175e-02
 -2.2953378e-01
 -6.2121701e-01
 -2.9059920e-01
 -3.1651559e-01
  2.3023706e-02
  5.7152875e-02
  8.4859487e-03
  1.2117792e+00
  6.6032946e-02
  1.2411764e+00
  2.2872752e-02
  3.8192742e-02
 -1.7947893e-01
  8.4028684e-02
 -9.9978754e-03
  9.5928706e-02
 -4.2392555e-01
 -3.4342855e-02
 -5.0861323e-01
 -9.0415955e-02
  5.2806312e-01
  3.2621056e-01
  2.1418090e-01
 -1.5620032e-03
 -2.8509912e-03
 -8.1540868e-02
  1.6176850e-01
 -1.1063184e+00
 -8.1670992e-02
 -2.7385584e-01
 -5.8938837e-01
 -9.6968979e-01
  5.0350976e-01
  2.1855958e-01
 -1.6838406e+00
  1.8737631e+00
  9.0715504e-01
  4.0187615e-01
 -9.1101289e-02
  5.1808547e-02
 -1.3677716e-01
 -1.1052300e-01
  6.0872418e-01
  4.2233700e-03
 -7.0036358e-01
 -1.1346365e-01
 -9.7711198e-02
  1.3632594e-01
 -3.9240431e-02
  2.8976575e-02
  9.9525407e-02
  4.0898617e-02
 -6.3508883e-02
  2.4548341e-02
 -8.8499270e-02
 -4.6391968e-04
  1.5110937e-01
 -1.7026115e-02
  1.0185497e-01
  2.6272474e-02
 -1.2893389e-02
 -3.2496020e-01
 -1.5016900e-01
  6.8012156e-02
 -1.1420715e-01
 -1.1439920e-01
 -5.0335016e-02
 -1.6885852e-02
  3.6785144e-01
  2.0993376e-02
  1.2203500e-01
  2.6476791e-02
 -7.7863531e-03
  8.5625529e-02
 -2.0744844e-01
 -3.6388002e-02
 -2.7631465e-02
  8.0237401e-01
 -4.0708903e-02
 -8.8338383e-02
  5.9046574e-02
 -6.5056950e-02
  3.2801371e-02
 -9.0692803e-04
  3.3316869e-02
  1.2687330e-02
 -4.7364438e-01
 -1.1564659e-01
 -1.1672942e-01
 -5.1467214e-02
  9.6281860e-03
  3.2287287e-03
 -6.7070797e-02
 -1.8618807e-02
 -3.5982732e-02
  1.9654721e-02
 -3.7148204e-02
 -9.1014087e-02
 -2.5655024e-02
 -1.2831749e-01
 -1.0490718e-02
  6.4397030e-02
 -4.8061201e-04
 -2.7787529e-02
  3.1812854e-02
  4.3132607e-02
  1.6039513e-01
  1.0214346e-05
  2.5753820e-01
  2.5274307e-01
 -1.4188798e-01
 -7.8744061e-02
 -2.6802501e-01
 -1.6053148e-02
  3.0792097e-02
 -7.1262710e-02
 -4.7083318e-02
  6.6942319e-02
 -1.5203282e-01
  8.7711699e-02
 -2.8998615e-02
 -2.7303091e-01
  3.9545409e-02
 -1.5223655e-01
  4.5634203e-02
  1.7247692e-01
  1.4342839e-01
 -1.0723144e+00
  1.1895807e-01
  3.6988992e-02
 -3.7854528e-01
 -3.7120949e-02
  1.4551176e-02
 -3.6922771e-02
 -2.1475716e-03
 -2.2166599e-02
  2.1475910e-01
  5.1015995e-02
 -5.2017394e-02
  1.3538866e-01
 -5.6890711e-02
  7.2011165e-02
 -1.1041950e-01
  8.5636852e-03
 -6.1026555e-02
 -1.4355579e-01
 -3.6706587e-03
 -6.7114480e-02
 -9.0859905e-02
  2.4409832e-02
 -7.1330727e-03
 -1.1103588e-01
 -1.8334863e-01
  1.0961469e-01
 -1.0525400e-01
 -2.6317995e-02
  2.8901574e-01
  1.4777061e-01
  9.1593906e-02
  6.7851387e-02
  4.6110466e-02
  9.3806766e-02
  1.3489616e-01
  2.3263939e-02
  1.1360583e-01
 -4.6654981e-02
 -5.1083503e-04
 -9.1778956e-02
 -1.9802113e-01
 -4.1888308e-02
 -2.5803348e-02
 -3.5660263e-02
  4.0217742e-02
 -1.5194589e-02
 -1.4936237e-02
  3.4898694e-03
  4.4999540e-02
 -1.5684259e-01
  8.1481757e-03
  1.9507600e-01
 -1.8799037e-01
 -1.1181339e+00
  5.3033266e-02
 -1.0858443e-02
  2.4918832e-03
 -4.3274079e-02
  1.5466148e-02
  8.3607221e-01
 -3.1753340e-01
 -1.0378215e-02
  9.6961796e-02
  6.2729053e-02
 -5.7773490e-02
 -4.2769752e-02
 -6.5217406e-02
 -9.2123173e-02
 -1.1122065e+00
  3.4370181e-01
  2.0778913e+00
  4.8334181e-02
 -7.1931136e-01
 -3.9858362e-01
 -1.9370494e+00
 -1.1016009e+00
 -1.1152410e-01
 -9.0895540e-01
 -1.0015123e-01
 -1.7121331e-01
 -4.1837698e-01
 -9.8398887e-02
 -7.2335396e-03
 -9.8063231e-02
 -2.3286951e+00
 -7.9103231e-02
 -1.9007328e-01
 -9.7662264e-01
 -4.0077141e-01
 -1.3233268e-01
 -3.3283266e-01
 -1.3375357e+00
 -7.2433811e-01
 -2.4995850e-02
  3.8381872e-01
 -1.8236881e-02
 -9.0091765e-02
  5.3372588e-02
 -2.7245887e-02
  4.4250112e-02
  2.2037344e-02
  5.8109723e-02
  7.2169095e-01
 -4.7293901e-01
 -3.8423393e-02
 -8.6750843e-02
 -1.6137272e-02
 -8.5689751e-03
 -1.6653174e-01
 -1.8957518e-02
 -2.7226922e-03
  5.0430331e-02
 -4.7275603e-02
 -7.1125828e-02
  1.2710869e-02
  2.0815528e-03
  1.6790662e-02
  2.9925268e-02
  1.1143984e-01
 -7.8898584e-03
 -1.2993874e-01
  4.1254278e-02
  4.8321143e-02
 -9.8703511e-02
 -1.6002567e-02
 -6.8554834e-02
  1.6053151e-02
 -2.0004215e-03
 -2.5030288e-01
  5.4974619e-02
  8.2842305e-02
 -3.2896551e-01
  2.8358355e-02
 -1.3339927e+00
 -1.4689441e-01
 -4.4451624e-02
  6.8134218e-02
  5.1633500e-02
  4.4489618e-02
 -6.8023719e-02
  6.1907474e-02
 -2.4623642e-02
  2.6380998e-01
  3.4761474e-02
 -5.4656398e-03
  6.0921885e-02
  3.8537212e-02
  1.0121859e-02
 -6.8409181e-01
 -3.2431155e-01
 -5.6089357e-02
 -2.6959464e-02
  4.7688436e-02
  1.9110543e+00
 -1.0285937e-01
  4.5750137e-02
  1.8773466e-02
  1.2819655e-02
 -1.1032850e-01
  8.2129344e-02
 -2.2704406e-02
  1.2519436e-03
 -6.3191243e-02
  6.6274919e-02
  1.3293895e-01
  2.4462486e-02
  1.7426291e-01
  8.6625516e-02
  2.9907996e-02
 -4.2115860e-02
 -1.3615544e-01
  2.0289018e+00
 -2.1121594e-01
 -2.3360217e-02
  6.5210504e-03
 -8.4224418e-03
 -3.8201291e-02
  1.0329936e-01
  3.1330612e-01
 -2.4191570e-01
 -2.8672498e-02
 -1.3450313e-01
  3.4970897e-01
 -3.0532373e-02
 -6.1261591e-02
  5.1937878e-02
  3.3002120e-02
 -1.4199834e-02
  2.1762510e-04
 -1.1857574e-01
 -1.1189103e+00
 -7.7102613e-01
 -6.8513393e-02
  1.0594335e-01
 -8.5046189e-03
 -3.4137417e-02
 -1.6001606e-01
 -1.3879202e-01
  3.0838346e-01
 -2.7580982e-01
  1.1062192e-01
  8.8709198e-02
  4.1310683e-01
  8.8574603e-02
 -4.2001301e-01
 -1.7444605e-01
  1.2502970e-01
 -2.4553910e-01
  3.2651219e-01
  8.3327866e-01
  2.0820606e-02
 -6.4113148e-02
  1.0282067e-01
  4.5172155e-02
  3.1022575e-02
  7.9170661e-03
  4.2952355e-02
 -3.2247704e-02
 -1.3482098e-01
 -7.6993831e-02
  1.1931591e-01
  3.7052572e-02
  1.3851877e-02
 -1.3043929e-02
 -4.4742052e-02
 -5.2271519e-02
 -8.9458358e-03
 -1.5971732e-01
 -1.9022798e-02
  4.7778226e-03
  5.5427019e-02
 -2.8603682e-01
  1.0760590e+00
 -1.3123617e-01
  4.9025513e-02
  9.5264897e-02
 -8.9900326e-03
 -2.0349142e-03
 -4.3749985e-01
  8.1524301e-01
 -1.2503994e-02
  4.4915933e-02
  1.2940044e+00
 -1.8965103e-01
 -6.4893328e-02
  6.3018113e-02
  1.4785033e-02
  4.2771935e-02
 -4.4756569e-02
 -7.4804127e-01
 -8.1895912e-01
 -2.6678127e-01
 -7.3851836e-01
 -2.5628686e-01
 -1.1532420e+00
 -3.7965447e-01
  1.8618706e-01
  1.0857308e-01
  2.7343255e-01
  2.4651012e+00
  3.7764173e-03
 -1.1254328e-01
  3.9237490e-01
  6.8133146e-01
  3.0641949e-01
  2.7354065e-01
 -8.3907604e-02
 -1.0989203e+00
  2.9949123e-01
  1.9693214e-02
 -2.6120010e-01
 -1.0322919e+00
 -1.3757739e+00
 -1.9104362e-01
 -2.7733746e-01
  1.2588127e-01
  6.3903585e-02
 -3.2926638e-02
 -2.6466683e-03
  9.3396986e-01
  4.3436834e-01
 -1.6763496e-01
 -8.4527165e-01
 -5.9013134e-01
  5.1358390e-01
 -2.8735193e-04
 -5.5218926e-03
  1.4326373e+00
  2.1000619e-01
 -8.3530724e-01
  1.0028394e-02
 -1.5462131e-03
 -4.3693846e-04
  1.1864607e+00
  1.2968273e+00
 -1.0984104e+00
  6.6505708e-02
 -1.0274462e-02
 -6.8890834e-01
  4.1348748e-02
 -9.5960192e-02
 -1.3093834e+00
  1.3485251e-02
  2.3421359e-01
 -1.6274834e-03
  2.0904566e-01
  4.0936898e-02
  6.7299461e-01
 -4.1075689e-01
  6.3699788e-01
 -1.6051821e+00
 -1.0720488e+00
  3.6085010e-01
 -9.6471041e-01
 -1.0876527e+00
  5.1066256e-01
 -2.1486402e-01
 -6.5315521e-01
  6.6957891e-02
  4.9528813e-01
 -2.4191309e-02
 -2.5217012e-01
  6.4140141e-02
  9.9348110e-01
 -1.1596205e+00
  2.0851157e+00
  7.0171662e-02
  1.3982446e-02
 -2.8101605e-01
 -1.2135138e-01
 -1.5735874e-01
  2.0653491e+00
 -4.8353029e-03
  9.8288015e-02
 -2.0250410e-01
 -5.5524707e-01
  1.3864551e-01
  8.3574587e-01
  2.1128091e-01
 -1.4937220e+00
  1.5824431e-01
  5.5184759e-02
 -1.4658546e-01
 -5.2993149e-02
  1.9311544e-01
  9.6962787e-02
 -6.1728603e-01
  6.0454130e-02
 -1.7451284e-02
  1.6906783e-01
 -2.7722504e-02
  3.5741791e-01
 -9.5938966e-02
 -2.1724967e-02
 -5.1544536e-02
 -2.4066912e-02
  2.1585299e-02
 -5.9261043e-02
 -1.2471732e-01
  1.1711724e-02
  2.0769398e-01
  1.1279858e-01
  7.7433847e-02
 -3.4413278e-02
  1.3994072e-01
 -2.6842274e-02
  6.5959692e-02
  4.1344505e-02
 -5.5713296e-02
  3.7254732e-02
 -1.5123469e-02
 -1.4484988e-01
 -2.7389126e-02
  1.3166712e-01
 -3.8915586e-02
 -6.2066317e-03
  2.2627071e-01
  5.5713598e-02
 -1.3664871e-02
  2.0339552e-02
  6.4534090e-02
 -2.7298748e-01
  2.4740918e-01
  1.7990464e-02
 -1.4030473e-01
 -1.2744507e-02
  1.1051418e-01
  2.3802681e-02
 -6.5279915e-03
 -3.1039247e-02
  3.1573545e-02
 -6.7088723e-02
 -3.6428224e-02
  1.3617045e-02
 -1.6573114e-02
  1.0945221e-01
 -4.4365663e-02
  3.3465493e-02
 -1.0712038e-01
  5.1063031e-01
 -7.6315425e-02
  9.5145861e-03
 -1.2032941e-02
 -2.0407932e-02
  3.8976581e-03
 -4.2120889e-02
  1.3468335e-03
  7.3350999e-03
 -1.9729550e-03
 -5.7292026e-02
 -1.1731467e-01
 -1.5010969e-02
  9.4061166e-01
  3.0413157e-01
 -4.7530293e-02
  2.6811864e-02
 -1.2663817e-01
 -9.1601007e-02
  2.1975572e-01
 -2.6669826e-02
 -1.5717957e-02
  1.2389169e-02
  3.5003670e-02
  1.8531916e+00
 -1.3390231e-01
 -9.4562896e-02
  4.1844729e-02
 -3.6529041e-04
 -1.5755667e-01
  7.4602103e-01
  5.6633008e-01
 -7.4351245e-01
  1.5486290e-01
 -5.8991009e-01
  1.0174941e-01
  2.3247878e-01
 -1.4305714e+00
 -7.1180511e-01
 -1.0364264e-01
  3.6007911e-01
 -1.2796804e-01
  4.3711293e-01
  2.9732850e-03
  7.6085418e-02
  4.3693647e-02
  8.1200473e-02
  1.7310250e+00
 -7.4136078e-02
 -3.5666976e-02
  4.1179684e-01
  2.8276634e-01
  3.7265205e-01
 -1.7325811e-01
 -1.4117798e-01
 -6.5812417e-03
 -2.4792483e-02
 -6.6258833e-03
 -3.5797354e-02
  4.3443483e-03
 -3.8480288e-01
 -6.8640280e-01
 -7.6835924e-01
  9.3618944e-02
 -4.0990144e-01
  3.0592179e-02
 -2.4400363e-02
 -7.1707077e-02
 -1.3671354e+00
 -5.4757301e-02
 -1.0488747e-01
  2.0999157e-01
 -9.1681039e-01
 -1.5938863e-02
 -8.3048302e-01
  1.4052318e-01
  4.1024402e-02
 -2.8716534e-02
 -4.9822768e-03
 -8.4281333e-02
 -6.3898063e-01
  7.6501235e-02
  2.0215144e+00
 -8.5235119e-01
 -5.4755360e-03
 -4.7976434e-02
 -1.2122129e-02
  2.0360673e-02
 -2.0475086e-04
 -6.0446548e-01
  6.5466499e-01
  7.0291623e-02
  2.6332471e-01
  1.7300197e-01
  1.3407103e+00
 -1.7605766e+00
  2.1589701e+00
 -8.9327805e-02
  4.7787821e-01
  1.8123386e+00
  9.5419651e-01
 -1.1958431e-01
  3.1339201e-01
  7.7834636e-01
  1.1769731e-01
  5.6178410e-02
  7.8653830e-01
 -1.1671265e-01
  3.1642303e-01
  9.2008197e-01
 -4.9965149e-01
 -1.2477865e-01
 -3.0300966e-01
  3.2341003e-01
  5.4895139e-01
  7.6177604e-03
  4.7127563e-03
  3.1825271e-01
 -1.1406212e-01
  2.0962778e-02
  1.5101801e+00
  3.9594207e-02
 -2.7797198e-02
 -1.6491110e-02
 -1.0060187e-01
  1.7634640e-02
  1.1600908e-03
  1.0653227e-02
  4.9309710e-01
  2.0812480e-01
 -6.5533869e-02
  1.6334224e-01
  5.6764565e-02
 -1.3824867e-01
  1.1701553e+00
 -1.0619619e-01
 -1.2632270e-02
 -1.4760037e-01
 -9.0043180e-02
  7.5386018e-02
  7.3495032e-03
  6.8012001e-03
  6.6018835e-02
  1.0734835e-01
 -3.6489852e-02
  1.2801746e-02
 -2.9309518e-03
  1.7466249e-02
 -4.4662353e-02
  4.0454373e-02
 -5.3968631e-02
 -6.1293107e-02
 -1.5015171e-01
 -5.7969179e-02
  9.6127763e-02
  2.3797045e-03
 -8.5383296e-01
 -6.6784024e-02
 -2.4060541e-01
  4.0145110e-02
 -6.7556977e-02
  6.1916754e-02
 -4.0263195e-02
  6.4273834e-02
 -9.2527270e-03
  8.5164689e-02
 -9.8985983e-03
 -3.2812260e-02
  3.5885435e-02
  1.2361817e-01
  2.8346542e-02
  3.4313425e-02
  1.1711609e-01
 -8.9399926e-02
  7.4959718e-02
 -1.4884448e-02
  1.1114135e-01
 -1.5260936e-01
  8.6141564e-02
  1.0968309e-01
 -3.1194380e-01
 -1.3016465e+00
 -3.8239993e-02
 -8.8864781e-02
  2.0560199e-01
  7.7003831e-01
 -1.5932006e+00
 -4.1389358e-03
 -3.4261358e-01
  5.4385960e-01
 -5.6751166e-03
  6.1807460e-01
 -1.8565413e-01
 -7.6191530e-02
  5.6712707e-03
 -2.7936228e-02
  2.5800208e-02
  6.2739497e-01
  5.5495054e-02
 -1.2155792e-01
 -1.8513004e-01
  1.8413140e-01
 -4.7908749e-02
  5.1117253e-02
 -1.7740270e-02
 -1.1236931e-01
 -2.4078923e-01
 -3.4151845e-02
  1.2027244e-01
 -1.0967188e+00
 -9.1434300e-02
  9.3250992e-03
 -3.1640008e-02
  1.4311925e-01
 -2.2328776e-01
 -3.4547936e-02
  3.9628330e-01
 -2.0633721e-01
  1.4603442e-01
  7.0769422e-02
 -1.9895227e-01
  1.0093120e-01
 -2.5718793e-01
 -3.2888070e-02
 -2.5877021e-02
  1.1768088e-01
  9.2124864e-02
 -2.9799063e-02
 -1.1331895e-02
 -1.5365120e-03
  2.2650605e-02
  9.7992733e-02
  4.7622658e-02
 -6.6196606e-03
 -2.7877614e-01
  4.9997862e-02
 -4.5571338e-02
 -1.2972805e-01
 -8.2292847e-02
  2.6372170e-02
  8.5073061e-02
  2.7927360e-01
  5.1089817e-01
  2.7454009e-02
  1.9083949e-02
 -3.8749382e-02
  1.6838633e-01
  4.0866521e-01
  5.0496750e-02
 -5.0477754e-02
  2.8769756e-02
 -6.2863804e-02
  4.0647462e-01
  1.2362744e-01
 -2.6141984e-02
 -5.2041132e-02
 -3.8142744e-02
 -1.8283039e-02
 -9.5326141e-02
  9.2512208e-01
  2.0328589e-02
 -9.8892394e-03
 -6.1360090e-03
 -1.4751557e-01
  2.4874400e-02
  2.7040085e-02
  5.4216165e-02
  2.0275168e+00
 -1.8277808e-01
  3.1942973e-01
 -3.4707189e-01
  4.0563726e-01
 -1.6834792e-01
  5.0268132e-02
 -2.8114307e-01
  6.7673236e-01
 -1.4023405e-02
 -4.5425320e-01
 -2.5699478e-02
 -1.1521636e+00
  4.4341969e-01
 -6.5481804e-02
  6.4316624e-01
 -6.7321368e-02
 -4.6217734e-01
 -7.2721422e-01
  5.0822741e-01
  6.9902140e-01
 -3.8590321e-01
 -8.4979886e-01
 -2.9845143e-02
  5.3168547e-01
  2.4755573e-01
 -3.2062450e-01
  1.1513857e+00
  5.2114528e-02
 -4.1453835e-02
 -7.8015310e-01
  6.1501497e-01
  2.5043854e-02
 -3.9800158e-01
  9.5555842e-02
  5.6573325e-01
 -1.3601910e-01
 -8.8922419e-02
 -6.0822123e-01
 -2.3008708e-02
 -1.0558550e+00
 -4.7777641e-01
  1.0520025e-01
 -9.9014908e-01
  2.6037643e-02
 -1.1262833e-01
 -1.1931890e-01
  3.3275604e-01
 -1.1938152e-01
 -4.8900127e-02
 -1.6556345e+00
 -1.5304887e+00
 -4.3080680e-02
 -1.7201057e-01
 -6.4863048e-02
 -1.0053419e-01
 -2.0796452e+00
  2.4121633e-02
  6.7132660e-03
 -1.3907527e-02
  1.9886614e-01
 -4.2150103e-02
 -6.9653422e-02
  3.0399263e-01
 -3.8996914e-01
 -1.0978631e-01
 -1.0307767e+00
 -8.1368011e-01
  9.9280041e-01
 -1.4850415e-02
 -3.5727403e-01
 -8.4955555e-01
 -1.9115744e+00
  1.2397544e-01
  6.1750200e-02
  1.0874535e+00
 -7.9091631e-02
 -2.0888042e+00
  1.3667374e-02
  3.8567580e-02
  4.7478744e-01
  2.5869241e-01
  1.0347500e-01
  1.8801384e-02
 -4.3169338e-02
  3.5588068e-01
 -7.6260470e-02
  1.9455774e-02
 -1.4500883e-02
 -1.8918419e+00
  2.2941211e-01
  1.9395337e-02
  1.7190004e-02
 -3.2765299e-02
 -4.5990262e-02
 -1.7566645e-03
  2.6305461e-01
  9.0629384e-02
  1.3586570e-01
 -1.6028807e-01
 -3.5145361e-02
 -1.3182111e-02
  4.2627614e-02
 -4.1221227e-02
 -7.7817701e-02
 -1.1146726e-01
  7.7553689e-02
 -6.4628549e-02
 -2.3383275e-03
  5.4762848e-02
  8.4097400e-02
  4.2446577e-03
  3.0814527e-02
 -8.6185217e-02
  4.6762258e-02
 -2.8664321e-02
 -4.0784024e-02
  1.3277078e-01
 -1.5895873e-01
  5.4710809e-02
 -1.0323953e-01
  1.7737815e-02
  9.1519535e-01
  4.5947645e-02
 -1.2831279e+00
 -7.1459854e-01
 -1.8865938e-01
  1.7603500e-02
 -5.7247281e-02
  5.1986474e-01
 -1.4519918e+00
  1.4587052e+00
  1.6959488e-01
 -2.8752154e-02
 -4.2757997e-01
  5.1773256e-01
 -3.7659992e-02
 -4.5596898e-01
 -5.5234447e-02
 -3.2955157e-03
  7.1167815e-01
  9.8917782e-02
  1.0532977e-01
 -2.0439375e-02
 -1.5677749e-01
 -4.0070957e-01
  1.2299477e-01
  1.3340443e-02
  6.3516032e-03
 -1.9713250e-01
 -1.4441777e+00
 -2.9126818e-03
 -8.9497358e-01
  7.1435457e-01
 -4.1886792e-01
  8.5918471e-02
 -5.7231277e-02
  1.3592768e-02
  2.3468006e-01
 -7.0908383e-02
 -8.3125830e-01
 -1.0454955e-02
 -3.4264629e-03
 -7.7402395e-01
 -5.9091204e-01
 -1.8945174e+00
 -1.8610623e-02
  6.7704111e-01
 -4.2463049e-02
 -1.3116963e-01
 -5.8279043e-01
 -1.4352287e-01
  1.1480484e+00
  8.9612447e-02
 -3.3506472e-02
  6.7552671e-02
 -1.9382365e-01
  9.8833568e-02
 -1.8803872e-02
  7.6034643e-02
  1.3869037e-01
  5.8862413e-03
  2.8130466e-03
 -3.0829428e-02
  1.6693580e-03
 -5.5367015e-03
  4.0540755e-02
 -6.8254963e-02
 -3.7541565e-02
  6.6030748e-02
 -3.4322779e-04
 -3.9152298e-03
 -7.7130616e-02
  3.0500308e-02
  1.4745289e-02
 -4.1490525e-02
  1.7874430e-04
  1.0281709e-02
  2.2396210e-01
 -7.9995987e-04
 -8.3736062e-02
 -1.8024575e-02
 -1.1725336e-01
  1.6622061e-02
 -1.6407451e-02
  9.2703879e-02
 -1.4355539e-01
  1.2432905e-02
  1.3246284e-01
 -4.8364319e-02
  8.0987871e-02
 -1.1178158e-02
 -1.5938917e-02
 -5.5723262e-01
 -1.1818826e-02
  2.4809756e+00
 -4.3415580e-02
 -3.1333569e-01
  2.3189744e-01
 -2.4882595e-01
  2.7131441e-01
 -6.3639276e-02
  3.4467299e-02
  2.8604829e-01
 -6.4157508e-02
 -2.4165677e-02
 -1.7345976e-02
 -2.1509234e-02
  3.0650410e-01
  8.8619879e-03
  8.7810628e-02
 -2.4826450e-02
  1.1281475e+00
  1.8156227e-01
 -1.0020806e-02
 -4.8041767e-03
 -6.7371251e-03
  6.8090007e-02
  2.1364693e-02
  6.0477693e-02
 -3.8958851e-01
  1.0084568e-01
  8.7910734e-02
  6.5250299e-04
  7.0649378e-02
  3.1769447e-02
 -5.4427600e-01
  4.6036150e-02
  2.8845711e-02
 -8.6243562e-02
 -3.8696200e-04
 -1.7545468e-01
 -3.5321382e-01
  1.7574753e-01
 -4.7908165e-02
 -2.0059536e+00
  4.4753504e-04
  2.7683005e-01
  3.7815109e-02
 -8.5476810e-01
 -8.1354582e-01
 -3.8660714e-01
  1.1077230e+00
 -7.0721172e-02
  1.9035062e-02
  2.5133674e+00
  6.6598028e-02
 -6.4428486e-02
 -5.1867968e-01
  8.3072044e-02
  4.0221702e-02
  5.0012317e-02
  4.2660663e-01
  2.8893173e-01
  8.9040065e-01
 -7.1713859e-01
 -1.0452051e+00
  3.7826296e-02
  1.9076006e-01
  1.0059172e-01
 -1.5559585e+00
 -8.1155276e-01
 -1.7498548e-01
 -3.3845175e-02
 -8.8520246e-03
  5.0020808e-01
 -2.2956729e-02
  5.1778835e-01
  3.6262367e-02
  4.3917733e-01
  1.2805265e+00
 -1.3549987e+00
  1.2367208e+00
 -1.3066212e+00
  1.1205293e-01
 -1.2548350e+00
  1.6754764e-01
 -5.8477474e-03
 -9.1102533e-03
  3.8852262e-01
 -8.8305640e-01
  6.9135884e-03
 -1.5849234e+00
 -8.9717478e-01
 -1.7142655e-02
 -6.0424130e-02
  4.2881905e-03
 -2.4441309e-02
 -3.9317518e-02
 -1.4642338e-01
  8.1890351e-01
 -4.8398837e-03
 -6.8589604e-01
  9.8709604e-03
  4.4169955e-02
 -1.0467119e-01
 -8.6442329e-02
 -4.4110280e-02
  2.1272646e-02
 -3.2386750e-02
  7.8944704e-03
 -2.6438350e-03
  2.0202737e-02
 -1.1398999e-02
 -2.7737312e+00
 -1.3047040e-01
 -1.0171111e+00
  1.4964012e-02
  6.8021819e-02
  1.0233609e-02
 -2.5929434e-03
  8.6685224e-03
 -1.3508554e+00
 -3.0260158e-01
 -1.0271093e+00
  5.2517977e-02
  1.0856587e+00
  1.6084521e+00
  2.2608666e-01
 -7.0717806e-01
 -3.3606174e+00
 -1.7953373e-02
  2.8776756e-01
  1.8470271e-01
 -6.9475776e-01
 -1.6660212e+00
  9.1820367e-04
  8.9600801e-01
  4.5290936e-02
 -8.1777401e-02
 -1.7230297e+00
 -1.1624610e-02
  1.0635747e+00
  6.6132657e-03
 -2.8811669e-01
 -1.4289441e+00
 -8.9728326e-02
 -2.2060440e+00
 -1.4312217e-02
 -8.5521434e-03
  1.3737100e+00
 -1.2182139e-01
  1.3009292e-01
  9.0118033e-01
 -5.5113498e-02
 -1.5096771e-02
  8.4572442e-02
 -1.7628983e-02
  1.3863173e-03
 -5.6430623e-03
 -5.3472631e-03
 -2.6980201e-02
 -3.4240905e-02
 -7.5181839e-03
 -5.2677985e-02
  4.0131456e-01
  2.2557510e-01
  2.1889999e-03
 -1.8656977e-02
  1.5141888e-02
 -1.4358105e-01
 -1.1903261e-01
 -2.0562904e-02
  1.8096469e-01
  1.5983904e-02
  6.2771216e-02
  1.0862184e-01
  3.6931238e-03
 -6.0862195e-01
 -1.1715482e-02
 -3.7681229e-02
 -5.0705958e-02
 -1.1357459e-01
 -3.0517641e-01
  8.1895304e-01
  9.0083027e-01
  2.5721386e-02
 -2.7228203e-01
 -1.4866608e-01
 -1.6147000e-01
  1.5349369e-01
 -9.4414458e-02
 -2.7684286e-02
  1.3622770e-01
  5.4733809e-02
  1.4834338e-01
  1.7619861e-03
 -3.3976853e-02
 -1.0574532e-01
  9.8303366e-01
  2.0708416e-01
 -1.9980717e-02
 -3.0467349e-01
  5.4533118e-01
  2.0129541e-01
 -1.0844482e-02
 -7.8654047e-03
  1.7888917e-02
 -6.6609055e-02
  2.9799322e-02
  1.9057916e-02
  1.0413504e-03
  6.6506937e-02
 -2.6380841e-02
  1.6677444e-01
 -9.0902410e-03
 -3.2093443e-02
  4.6718266e-02
 -3.4697156e-02
  1.0855240e-01
  7.0290184e-01
 -8.7835938e-02
  6.9449707e-03
  5.3151883e-02
 -5.9615582e-01
  2.6029938e-01
 -1.1935919e-01
 -9.7142700e-03
  2.0283679e-03
 -1.4542784e-01
 -3.5729092e-02
 -1.8865848e-01
 -5.3879861e-02
  6.4641526e-03
 -2.5109369e-01
  8.0724685e-03
 -1.0341425e-01
  4.7661290e-03
  1.8968865e-02
 -5.6027398e-03
  4.5499846e-02
  8.3346302e-03
  5.1227474e-04
  1.6073863e-01
  5.9280279e-03
  1.0769021e-01
  1.5033694e-02
 -1.7747272e-02
  1.0947164e-02
  2.2931965e-01
 -7.4014425e-02
  1.0361874e-01
  1.6904455e-02
 -1.0658560e-02
  7.0460555e-03
  1.9717899e-01
 -1.4515680e-01
  3.6853559e-02
  5.1766532e-03
 -3.7442252e-02
  3.0473752e-02
 -2.0198179e-02
  1.5371487e-01
  6.7341052e-02
  3.0389495e-02
  1.1144826e+00
  1.7732916e-02
  8.4073752e-02
  1.5040100e-02
 -2.4957702e-02
  1.8280548e-01
 -1.0569778e-01
 -1.1071357e+00
  2.7303057e-02
 -1.8441468e-01
 -1.1853236e-01
 -9.1721535e-01
 -4.5400628e-01
  2.1563157e-01
 -6.6930246e-01
  6.5697634e-01
  2.8832030e-01
  1.0836294e-01
  3.1381085e+00
  4.0160287e-02
 -2.7939219e-02
  2.1966715e-01
 -2.6076550e+00
  1.4298983e-03
 -9.6187747e-01
  3.0394042e-01
  1.3640996e+00
  7.3753381e-01
  6.7169905e-02
 -8.2094479e-01
 -9.4615877e-01
  1.6381768e+00
  2.2920065e+00
 -1.0429271e-02
  3.0660668e-02
 -6.4994603e-01
  1.1225622e-02
 -3.2830048e-02
  1.3001232e-01
 -9.5866658e-02
 -3.4310341e-01
 -1.0317401e-01
  2.6826721e-02
  2.5247322e-02
  1.4107396e-01
 -3.5015824e-01
 -2.3618020e-02
  3.0293405e-02
 -1.4674956e-01
 -1.3143821e-01
  3.2781252e-01
  3.9722645e-03
  1.2921426e-01
 -1.3024586e-02
 -1.9636680e-01
  8.4890269e-02
  1.4465492e-02
 -1.7983422e-02
  1.3206365e-02
 -4.4899892e-02
 -1.2559241e+00
 -6.7713909e-02
 -4.1798748e-02
 -1.0067741e-01
  2.8929895e-02
  1.3316983e-01
  6.7953211e-01
  3.6265773e-01
 -4.3741176e-01
 -1.0858846e+00
  3.6649726e-02
  4.4123679e-01
  4.5481134e-02
  4.0502477e-02
  2.5157243e-01
 -1.0967422e-01
  1.8984827e-01
 -7.4198939e-02
 -3.2460116e-02
 -5.0387200e-02
  9.1368926e-01
  1.9382371e-01
  6.2133845e-02
 -3.2075518e-03
 -2.1740330e-02
  6.8087325e-02
  3.7562269e-01
 -4.6038531e-02
 -3.1861983e-02
  1.5824549e-01
 -2.1705070e-01
  2.1633396e-01
  4.8952200e-02
 -7.4801305e-03
  1.1209209e-01
  3.5983119e-02
 -8.0436975e-02
  5.9273350e-01
  1.2293600e-02
 -2.7553588e-01
  1.8382382e+00
 -6.1534655e-01
  7.1271110e-01
  1.6535774e-01
  4.5506455e-02
  4.0221058e-02
  2.7000634e-03
  1.3531558e-01
 -1.0276333e+00
 -1.3934158e+00
 -9.6815574e-01
 -3.5559818e-02
  6.7383534e-01
  7.8213733e-01
 -2.2409174e+00
  2.2886325e-01
  6.5081215e-01
  9.0049422e-01
  3.8974890e-01
  6.6730297e-01
 -6.4063415e-02
 -1.7850052e+00
  5.5514812e-02
  4.7568981e-02
 -3.6701494e-01
  4.4606414e-02
  3.0384913e-01
  2.8709978e-01
  2.9103144e-03
  1.0523483e-01
  5.6300557e-01
 -2.1492247e-01
  4.8277235e-01
  8.8564940e-02
 -2.3104942e-01
 -3.1804883e-01
 -1.7761584e-01
  2.2165908e-01
 -1.0381356e+00
  1.8524104e-01
 -9.8656809e-01
  3.1820353e-02
  3.1083500e-01
  1.0089265e+00
 -4.5828503e-03
 -3.7193525e-01
  2.1807067e-01
  4.9337742e-01
 -5.2146893e-02
  3.2250276e+00
  2.9562509e-01
 -7.9392499e-01
  2.1682779e-01
  4.0000729e-02
 -4.5763972e-01
  1.0439987e-01
  3.8432667e-01
  3.7212823e-02
  1.3510437e-03
 -8.6397022e-02
 -3.2520318e-01
 -3.4197566e-01
 -1.6514523e-01
 -6.2973656e-02
 -5.5941440e-02
 -5.0402276e-02
  3.8169522e-02
  4.6822122e-01
 -6.7371272e-02
  4.9266228e-01
  8.3582118e-02
  2.3270434e-01
 -5.1301248e-02
  4.3822624e-04
 -1.0145024e-02
  2.9034886e-01
 -5.2018367e-02
 -2.9889757e-02
 -1.1950103e-01
  2.3234040e-02
  2.7219782e-02
 -4.2758411e-01
 -6.1318476e-04
 -5.2486122e-02
  1.6758380e-02
 -4.6787653e-02
 -2.3641368e-02
  1.0793505e+00
 -1.3233188e-01
 -3.9695516e-01
  1.8529571e-03
 -4.4236103e-01
  4.0895164e-01
 -4.2452354e-02
  7.1497180e-02
  3.1666821e-01
 -8.6316518e-02
  4.9818568e-02
  5.8694609e-02
  3.6915977e-04
  1.6280305e-01
  1.7065130e-01
 -5.6479257e-03
  1.3462347e-02
  3.1806655e-02
 -2.8631058e-02
  2.7425205e-05
 -9.3729250e-02
 -9.2959419e-02
  3.6760204e-02
  1.6807187e-01
 -2.6018992e-01
  6.1790738e-04
  4.6100836e-02
 -5.5912782e-02
 -9.8276302e-02
 -9.1224294e-03
  1.2596006e-02
  2.0724179e-01
  4.4956308e-02
  2.1615982e-02
  1.5219231e-02
 -2.8386004e-02
  4.9570065e-02
  1.0056700e-01
  4.2342269e-01
 -6.7426018e-02
 -5.3936094e-02
  2.9108621e-02
 -5.7266105e-02
  1.5557665e-01
  3.3369526e-02
  8.1378538e-03
 -8.2300761e-04
  3.5783131e-02
  7.6185882e-01
  2.2036724e-01
  8.4837034e-02
 -3.4866638e-02
 -2.4375112e-01
  1.6615408e-02
 -7.1667507e-02
 -3.0808808e-02
  3.2932911e-02
  3.6058709e-02
  1.5731266e-02
 -8.0725327e-02
  1.0965092e-02
 -1.5109317e-01
 -4.6074465e-02
  3.1623907e-02
 -6.6885171e-03
  2.9539116e-02
  1.0998184e-01
  6.3505560e-02
  8.6555600e-02
  1.1230384e-01
  3.4462951e-02
  8.7234922e-02
  1.4016420e-02
  4.1386981e-02
 -1.4032336e-01
  3.5217181e-02
  3.5766546e-02
 -4.8369132e-03
  5.3568232e-01
 -1.3205265e-02
  3.1248555e-02
  2.7564114e-02
  1.0307568e-01
  3.0704362e-02
  4.6039641e-02
 -9.9845803e-01
 -9.1847718e-02
  4.0289037e-02
  2.8144857e-02
 -7.9322290e-03
  1.6952032e-02
  9.2918128e-03
 -3.9894107e-01
  1.1913897e-02
  1.3517122e-01
  3.9800033e-02
  1.8098935e-02
 -1.4585608e-01
  5.9843842e-05
  1.9305117e-02
  1.7624555e+00
  1.8212881e-02
 -1.2098843e-01
  1.6458727e-01
 -8.0923131e-03
 -3.3677354e-02
 -3.3621360e-02
  3.1510018e-02
 -1.0852952e-01
 -4.3508772e-02
 -1.4312279e+00
  7.0601911e-03
  4.6823058e-02
  2.3183657e-02
  5.8097422e-02
  3.8118925e-02
 -5.9801731e-02
 -2.0290332e-02
 -6.0611828e-03
  1.1165091e-01
 -4.5993164e-02
 -4.0912069e-02
 -9.3569130e-01
 -3.5790276e-02
  3.2832742e-02
 -7.9974113e-03
 -4.3597341e-02
 -1.2568781e-02
  2.9247135e-02
 -3.7506476e-02
 -6.7212664e-02
  1.3517346e-02
  2.7064243e-04
 -7.6070189e-02
 -4.2443350e-02
  8.4965877e-02
  4.4545606e-02
 -1.8062335e-02
 -3.6733210e-02
 -3.1941112e-02
 -4.6079624e-03
 -2.7574107e-02
  9.7508185e-02
 -2.9176511e-03
  1.1489491e-01
  4.5823105e-02
 -1.5755394e-02
 -1.2305330e-01
  3.1492431e-02
 -1.4851382e-01
  2.0364389e-02
  1.7447611e-02
 -5.1536947e-01
  2.1172161e-01
  3.3525269e-02
  6.1103221e-02
  3.1565569e-02
  2.5094371e-02
  7.3766932e-02
  2.6612855e-02
 -5.0213326e-02
  2.0173009e-02
 -1.1492217e-02
 -1.0201483e-02
 -1.1717702e-01
 -6.0522899e-02
 -7.9098918e-02
 -4.0237624e-02
  4.2925036e-01
 -4.6597075e-02
 -4.3654683e-04
 -8.1625991e-02
  2.0650320e-02
  1.2858042e-02
 -1.4742655e-01
  6.4279407e-02
  1.4266813e-01
  2.2910548e-02
  4.9302673e-01
 -1.9367939e-03
 -7.9704240e-02
 -1.0184968e+00
 -8.1699133e-02
  3.1464547e-03
 -6.3561507e-02
  7.9843728e-03
  2.9203221e-03
  2.5645653e-02
  1.1640976e-03
  1.6068419e-02
  6.8027124e-02
 -2.8953146e-02
  2.6631800e-02
 -6.2061947e-02
 -5.3902983e-04
  3.8739391e-02
  2.0419240e-02
  1.9439505e-02
  1.7263565e-02
 -1.2000265e-01
 -3.9906815e-02
 -7.4765749e-02
  7.3141893e-03
 -4.8846658e-02
  4.6786208e-02
 -8.3046751e-03
  1.2879537e-01
 -8.9522135e-03
 -4.4858471e-02
 -7.4408665e-02
 -1.7968234e-01
  1.1761644e+00
  1.9693314e+00
  1.2201513e-01
  1.3715768e-02
 -3.9287093e-03
  2.3029808e-02
 -5.0858162e-02
  9.3597360e-03
  1.3219099e-02
  9.0698183e-02
 -4.6282314e-02
  1.8588948e+00
 -6.2135929e-01
  8.5645415e-02
 -4.1790750e-02
 -8.0414683e-02
 -3.0806541e-02
  6.7035049e-02
  1.0210671e-01
  1.3633058e-02
 -3.4975875e-02
 -1.0456563e+00
 -6.4211145e-02
  3.7173308e-02
  1.2571997e-02
 -4.3436751e-02
 -6.0646720e-03
 -3.9513085e-02
  2.8255183e-02
 -4.4778280e-02
 -2.9500538e-02
 -5.1691714e-03
 -2.7315287e-02
  5.1455267e-02
 -5.1292419e-03
 -1.1849403e+00
 -9.6301503e-02
 -1.2379205e-02
  3.4991447e-02
  6.7197353e-02
  2.5879627e-02
 -3.6602772e-03
  3.3756483e-02
 -5.5505738e-02
  2.6539547e-02
 -7.3694803e-02
  1.5401973e-01
  1.8315963e-02
 -7.2502472e-02
 -9.4069168e-02
 -1.1845462e-01
 -1.2129255e-01
  4.0611204e-02
 -7.5022243e-02
  3.4581807e-02
  5.8780741e-02
  9.7224429e-02
  1.2341820e-01
 -8.8480718e-02
 -1.0724693e-01
 -1.2466753e-02
 -1.2540186e-02
  6.5321429e-04
 -5.1553778e-02
 -6.1468154e-02
  7.3959053e-02
  4.4357829e-02
  1.7593339e-02
  5.4702275e-02
 -1.8770780e-02
  1.4217801e-01
  2.5368238e-02
 -1.4194474e-02
  1.6564447e-02
 -8.6730443e-02
  4.9509808e-02
 -4.3832847e-01
  1.0844813e-01
  5.4565661e-02
 -3.5183147e-02
 -5.2169454e-03
  1.7343113e-02
 -3.2646898e-02
  4.0921181e-02
  3.3359855e-02
  1.1758354e-01
  1.3958110e-02
  7.1970977e-02
 -1.3550844e-02
 -1.3918208e-01
  2.6137568e-02
  2.3818826e-02
 -2.6057381e-02
  5.1601571e-01
 -3.7046205e-03
 -5.2228015e-02
 -1.8128192e-01
  3.2593094e-02
 -4.8354412e-03
  1.3418146e-02
  2.2206882e-01
  3.6772106e-02
  5.7025427e-01
  2.5027990e-01
 -4.4112954e-02
  3.2568742e-02
 -9.0416454e-02
  3.6519116e-01
  3.6304697e-02
  4.6421714e-02
 -2.5048247e-01
  1.3083363e-01
  4.1494629e-01
 -5.1815844e-01
 -7.8744978e-01
  1.0904472e-01
  1.1422592e-01
 -2.2149386e-02
 -5.5801902e-02
 -1.1298092e-02
 -2.9463705e-02
  2.9729122e-02
  2.9259861e-02
  1.7310201e-01
  7.0618535e-03
  4.2431170e-01
  1.0636470e-01
  3.1615696e-03
  1.4033208e-02
  8.2647614e-02
 -1.4659506e-01
 -1.4480111e-01
 -3.8458552e-02
  1.0634284e-01
  6.7948638e-03
 -1.4651227e-01
  9.2171885e-02
 -4.3093868e-02
 -6.7496113e-04
 -2.2672685e-02
 -2.5953699e-02
  3.1539132e-03
 -5.7408429e-04
 -2.8720450e+00
 -8.2352251e-01
 -1.8544676e-02
  4.1757386e-02
 -4.9535073e-02
  7.4035928e-02
 -4.1104001e-01
 -5.2335221e-02
 -1.6096514e-01
  2.3816036e-01
 -6.3620642e-02
  5.0004395e-03
 -3.7799586e-02
  8.5397407e-02
  5.1752761e-02
  3.8399637e-02
 -5.8318884e-04
 -3.9813876e-02
  1.4243096e-02
  9.5881082e-02
 -9.3634595e-04
  5.6088553e-03
 -7.9842627e-02
 -5.7936464e-03
  1.5961087e-01
  4.3455455e-02
 -2.1898493e-02
  9.7360797e-03
 -6.3630991e-02
 -8.6909309e-02
 -1.8512004e-03
 -3.2818548e-02
 -2.2224732e-02
  4.2803403e-02
  7.4491352e-02
 -8.1488034e-03
  4.4663753e-02
 -4.1001059e-02
 -3.8268235e-02
  2.8450536e-02
  8.1298657e-02
  2.1507787e-02
  1.3783878e-02
  1.1050815e-01
 -1.0191319e-02
  1.0028628e-01
 -4.5951623e-02
 -1.6031718e+00
  2.9061619e-02
 -6.3107744e-02
 -2.4350753e-02
 -1.3331623e-02
  2.0484442e-03
 -3.9973501e-02
 -3.0351213e-01
  1.5268632e-02
 -6.0449716e-02
 -3.2446485e-03
 -3.5921573e-03
 -9.2644736e-02
 -9.2235252e-02
  6.8344660e-02
 -5.6453264e-01
 -7.9652935e-02
 -1.0390248e-02
  1.3901433e-01
  1.5614009e-02
 -1.3165614e-02
  1.3530564e+00
  2.9136796e-02
 -2.2459401e-02
  6.1891876e-02
 -1.8197927e-01
  9.6607138e-04
  5.9432436e-02
 -2.6691288e-03
  3.4771919e-02
  3.5755925e-02
 -2.9475521e-03
  5.3370617e-02
 -4.7608386e-03
  5.5768393e-02
  5.3618997e-02
  5.3483326e-02
 -1.3888106e-01
  1.3768624e-01
 -3.9931880e-03
 -8.8557340e-03
 -2.9483041e-02
 -1.7730489e-01
 -9.8097056e-02
  1.2931652e-01
  1.8480605e-02
 -1.4557165e-01
 -2.7925782e-03
 -2.8024627e-02
 -3.5810876e-01
  4.2489448e-01
  3.7199426e-01
  1.5525075e+00
  2.1228564e+00
  1.6916629e-02
 -4.0071700e-02
  4.1708514e-02
 -1.6362137e-01
  1.1473801e+00
 -1.1950129e-02
 -5.1862495e-03
  2.2210378e-02
 -8.0100113e-01
 -7.2081804e-01
 -2.6050523e-02
 -5.4189451e-02
  7.6086365e-02
  1.0441715e-01
  7.8404433e-01
  2.4521280e-02
  9.1474527e-01
  7.3395553e-03
 -6.9745731e-01
  3.2818913e-01
  1.6743239e-02
  2.5123004e-02
 -2.4360497e-01
 -4.0328383e-02
 -3.9365709e-02
  4.0403667e-01
  7.2454587e-03
 -2.9961478e-03
 -1.7777553e-02
 -5.4180548e-02
  9.6470332e-03
 -1.0491253e-01
 -2.4305217e-01
  7.9978548e-02
 -6.6577218e-02
 -3.1941134e-02
 -1.0400071e-01
  6.2346783e-02
  2.7790405e-02
  6.6099919e-02
 -1.0605690e-01
 -1.3150861e-02
  6.1597746e-02
 -3.4858111e-02
 -3.7322134e-02
 -1.3388154e-01
 -2.8502299e-02
  6.9676451e-02
  2.4985416e-01
  6.7768442e-03
  1.7793840e-02
  7.1616033e-03
  4.1474076e-03
 -1.5040674e-02
  2.4816820e-01
  1.4595445e+00
  9.1946727e-01
  5.2876991e-01
 -1.6990336e+00
 -7.3370546e-01
 -1.7190566e-02
 -1.7048514e-02
 -1.4355209e+00
 -1.8629511e-01
  2.1883394e-01
 -3.1497088e-01
 -1.9484898e-02
 -3.9740346e-02
 -1.8860734e+00
 -1.5773147e+00
  3.5433929e-02
 -5.8185637e-02
 -7.9748541e-02
 -1.4395999e+00
  1.8967567e-01
 -5.6034401e-03
  4.8966271e-01
 -1.0976141e-01
 -6.8854612e-01
  1.6333434e-01
  6.1908025e-02
 -6.3305125e-02
  2.1643725e-01
 -8.4484154e-03
  6.2996939e-02
 -2.8596180e-03
 -2.3343541e-01
 -3.7736052e-01
  2.4726136e-02
 -9.7386640e-01
  3.4233682e-02
 -7.6971561e-02
  4.8568353e-02
  1.0099854e-01
  1.7749052e-02
  6.7398384e-02
 -1.2320181e-01
 -6.3150153e-02
  1.0355896e-01
 -1.3548583e-02
  3.5198975e-02
  1.9997086e-02
 -1.2613471e-01
  8.1142031e-02
  4.9964849e-02
  6.6475041e-02
 -7.3001504e-02
 -2.8916579e-02
  7.4189238e-02
 -3.7317712e-02
  4.7312095e-03
  5.4243673e-02
 -6.6914827e-02
  1.2901029e-01
  1.0655681e-01
 -8.7576613e-02
  1.0278163e-01
  1.0910490e-02
 -1.0600659e-02
  2.2196260e-01
  3.9391834e-02
  5.4036868e-03
  1.7325446e-02
  9.8875493e-02
 -8.8075340e-01
  8.9095749e-02
 -8.1041539e-03
  5.3462569e-02
  6.2268741e-02
 -4.0453721e-02
  7.7825584e-03
  9.6088968e-02
 -3.6413781e-02
  1.0401623e-02
 -6.1957371e-01
 -4.9161881e-02
  1.2922210e-02
 -6.1376501e-02
  1.7305635e-02
 -2.6786545e-01
 -4.1318238e-03
 -7.7904522e-01
  1.2770093e-03
  6.2529467e-02
 -4.1199237e-02
 -3.1396322e-02
 -1.6471061e-01
 -1.7612318e-02
  1.4742146e-01
 -3.4497451e-02
  4.6915878e-03
  2.1854581e-02
  1.0789476e-01
 -5.7138979e-02
  1.1834842e+00
 -1.3307589e-02
 -4.4096056e-02
  1.8060578e-02
 -4.5949779e-02
  3.7423562e-02
 -2.8550565e-01
  1.0741603e-01
  2.0341789e-02
  5.7926010e-02
 -1.8360615e-01
  6.2400695e-02
 -2.3039374e-01
  7.3361886e-03
 -1.9773028e-03
 -2.3315692e-02
  2.9920885e-01
 -1.3269550e-02
  4.9412780e-02
  4.1910093e-02
  2.7723983e-02
 -4.4595387e-02
 -1.3315615e-01
 -3.2168939e-03
  1.8854018e-02
  8.2406737e-02
 -1.3071778e-01
 -1.5482089e-01
  8.9626992e-03
 -1.6551933e-01
  1.0681244e-02
  9.2170965e-03
  1.3247368e-01
  5.2296209e-01
  2.9603405e-02
 -6.1067891e-01
 -3.2512411e-02
 -2.7380196e-02
 -6.6555673e-01
 -9.0208612e-03
 -6.0643568e-03
  6.8518659e-03
  3.8811758e-02
 -1.7539643e-01
 -2.6366180e-02
  6.0549360e-02
 -1.5434518e-02
 -1.2273370e-02
  8.3816715e-02
 -6.2437084e-02
 -4.2124391e-03
  5.4702663e-01
 -7.7141382e-02
  1.7435528e-02
 -8.3876598e-01
 -9.6439856e-01
  2.5113704e-02
  6.3156739e-02
 -8.4808730e-02
  1.1783663e-02
 -1.5382214e-01
  9.1247738e-04
 -3.2709960e-02
  2.2282446e-02
  3.9035204e-01
  3.1399181e-01
 -5.2614067e-02
  1.6067639e-02
  4.7611926e-02
  9.1720987e-03
  6.1383247e-02
  4.0469173e-02
 -5.6436819e-01
 -1.2084029e-01
  1.2584512e-01
  9.8276180e-01
 -8.8054631e-03
 -6.3376515e-03
  6.2178527e-03
  9.0852305e-02
 -4.3059729e-02
 -4.1847199e-02
  5.3182948e-02
 -1.2882851e-01
 -1.5984540e-01
  1.3738734e-03
  1.4018413e-03
 -3.1876460e-02
  1.9704232e-02
  8.0209680e-02
 -8.4126569e-02
 -3.1645656e-02
  1.0211391e-02
  2.5289943e-02
  2.5524627e-02
  2.0675276e-01
 -8.9219864e-03
  8.1651539e-02
 -2.9077182e-02
 -2.5473366e-02
 -1.1933861e-02
  3.9215717e-03
  2.2980969e-02
  3.5676420e-02
  5.6098312e-02
 -6.7413367e-02
 -2.2182912e-02
  1.4551915e-01
  2.2066323e-02
  1.3810097e-01
 -2.8993355e-02
 -2.6565062e-02
  4.7221307e-02
  2.8313679e-01
  1.7826281e-02
 -2.9771647e-01
  2.8630570e-02
  3.0343942e-02
 -3.5105515e-03
 -6.4606284e-04
 -5.5742871e-02
  1.0074424e-02
  1.0616333e-02
 -2.9061861e-02
  2.4568334e-01
  4.8134150e-03
  2.0555921e-01
 -2.3022382e-02
 -5.9757121e-02
  1.3574657e+00
  8.5277900e-02
  5.0248608e-02
  3.4036457e-03
 -4.8431601e-02
  5.5460137e-01
 -6.5231100e-02
  3.5900127e-02
 -1.4067659e-01
  7.9402916e-02
  1.3279767e-01
  3.1828311e-01
  6.8851924e-01
  2.1526206e-01
  1.6874295e-01
 -1.8368334e-01
  1.4358221e+00
 -1.2152573e-02
  8.3252974e-03
  2.7677761e-02
 -1.9093144e+00
  3.7132695e-01
  1.6831966e-02
  1.0241850e-01
 -2.1844724e-02
 -1.8390490e+00
 -1.0156186e-01
  5.3765043e-03
  6.0787208e-02
 -2.8803952e-02
 -8.8623840e-01
  1.4922502e-02
 -4.4720788e-02
  1.3942662e-01
 -8.6777164e-03
 -1.2014735e+00
 -5.9210868e-03
  1.9108025e-02
 -2.7065143e-02
  7.3237168e-03
 -1.1365169e+00
  1.4017658e-02
  5.7159328e-01
  1.4506273e-01
 -6.7231786e-01
 -3.3174899e-01
 -1.4496507e-01
  1.8806983e-02
  4.8962324e-03
  2.2959046e-02
 -5.6618530e-02
  6.6297241e-02
  1.7294003e-02
 -1.6430216e-01
  1.1590909e-02
  3.2797150e-02
 -1.2992622e-01
 -7.4746214e-02
  2.4214663e-02
 -1.8346442e-02
 -1.7034549e-01
 -1.2637747e-02
  3.6526408e-02
 -8.4562913e-02
  1.9966295e-02
 -1.3033007e-01
  1.2112284e-01
 -1.3942336e-02
 -2.6789386e-04
  1.4914382e-02
  1.3662010e-03
  1.3346195e-01
 -1.3894379e-01
  7.2494462e-02
  3.7459295e-02
  8.7956175e-02
  2.0960230e-01
 -4.6647675e-03
  2.3428770e-02
 -3.2034751e-03
  3.0319405e-01
  4.1828811e-02
 -7.8650393e-02
  9.1101199e-02
 -5.7187658e-02
 -1.6197677e-01
 -5.7935517e-02
 -5.0190538e-03
 -3.9199281e-02
  1.2392227e-01
 -5.0746754e-04
 -3.7016250e-02
  3.8834322e-02
 -2.0305537e-02
 -3.5569251e-02
  1.6451200e-02
 -2.2767892e-02
  1.0391622e-01
 -1.9246483e+00
  5.6083322e-01
 -1.4493814e-01
  1.8917535e-02
  3.8420435e-02
  1.4833937e-02
  3.7616301e-02
  2.6889618e-02
 -9.2990354e-02
 -2.6181731e-01
 -7.9565691e-03
  3.8237166e-02
  4.5128256e-02
 -2.8842278e-02
  5.5940158e-04
 -9.2971539e-03
 -5.8299661e-02
 -5.0759964e-02
 -1.2117795e-01
 -5.6056261e-02
 -3.5662796e-02
  3.6508378e-02
  1.0383164e-02
  2.1613874e-02
  2.7744425e-03
  1.6063322e-01
 -2.4051365e-02
  4.2486276e-02
 -1.7352290e-02
 -1.0264626e-01
  4.4327833e-02
 -5.4005180e-02
 -4.0811233e-02
 -4.1986480e-02
  1.7903188e-02
  2.7998732e-03
 -2.7288549e-02
  6.9833905e-02
  1.1529386e+00
  5.8335750e-03
 -5.1092619e-01
 -1.8504646e+00
  2.1196194e-02
  1.0419599e+00
  5.4513413e-02
  2.0782712e-01
 -7.9718702e-02
  8.4337568e-01
  7.4672294e-01
 -4.1369959e-03
  1.2496609e-01
 -8.3514072e-02
 -3.8804334e-01
 -6.6084668e-02
 -5.7424642e-02
 -1.2239634e-01
  3.1858921e-02
  2.4957134e-01
 -4.1988533e-02
  4.4680008e-01
 -1.0376769e+00
  1.5119792e+00
 -2.9586930e-02
 -1.8782284e-02
  6.8583912e-01
  1.3259740e+00
 -2.1681090e-01
 -1.0203237e-02
 -2.8418025e-01
 -3.6841132e-02
 -9.1060303e-02
  4.8124392e-02
 -1.2722589e-01
 -1.1283311e-03
  4.1839186e-02
  1.5760341e+00
  2.5773874e-01
 -3.0637230e-03
  1.7398288e-02
  1.1826918e-03
 -2.9187179e+00
  5.0641173e-01
 -3.5455325e+00
  4.9756196e-01
  2.2853555e-01
  2.2463812e-01
 -1.8548329e-01
  9.8130399e-01
  1.6052882e-01
  1.1086080e+00
 -4.5156221e+00
 -1.0278872e+00
 -9.5012568e-02
  1.3955343e-01
  5.5698675e-01
  8.7144959e-01
  3.0676994e-01
 -2.2179568e-01
  2.0517513e-01
 -3.5359129e-01
  9.6257906e-03
  1.8794391e-01
  3.2700184e-03
 -2.2195818e-02
 -8.9352709e-01
 -3.6444385e-02
  6.5486854e-01
  3.2174453e-02
 -2.3179352e-02
 -2.3169897e-02
  1.2556511e-01
  3.0853223e-02
  8.3597563e-02
  1.6510235e-02
  4.6396172e-01
 -1.4956318e-01
 -4.0556062e-02
 -1.1178620e-01
 -5.1512111e-02
  7.0279956e-02
 -1.5139340e-01
  1.2068207e-01
 -1.3675882e-01
 -5.5820912e-02
  1.5453683e-03
  5.5448061e-01
 -4.1280416e-01
 -1.2253088e-01
 -1.6962996e-01
  1.4917918e-01
  2.4727609e-02
 -4.2424120e-02
 -1.5168855e-02
  9.7321376e-02
  2.6682695e-02
 -6.9941831e-01
 -2.0688504e-01
 -1.2304064e-02
 -7.9319164e-02
 -1.6948724e-03
 -7.0580363e-01
  7.2764471e-02
  7.7535152e-02
  1.4290289e-02
  2.5879653e-02
 -5.0838612e-02
  8.7911405e-02
  1.0561540e-02
  4.5516457e-02
  2.4211322e-01
  7.7162082e-03
 -2.9124754e-02
  6.2036980e-02
  4.9708840e-02
 -1.5717998e-01
 -3.7357935e-01
  2.6136515e-01
 -1.5001945e-02
 -8.5781841e-03
  1.8392672e-01
 -1.8081357e-01
 -4.1199401e-01
 -1.2140401e-01
 -2.4494921e-01
  7.9200543e-02
  2.9951928e-02
 -4.6462795e-01
 -5.5773374e-02
 -4.5784037e-03
 -7.8951605e-03
 -8.5323021e-02
 -1.1065688e-02
 -6.0444791e-02
 -1.8729730e-02
 -7.2134010e-02
  2.9514616e-02
 -4.1264468e-01
 -1.0459006e-01
  6.8700492e-02
 -5.1280368e-02
  1.7832762e-02
  1.7361274e-02
 -1.0888825e-01
 -5.5416111e-02
 -1.1261380e-01
  4.5980021e-02
  1.4170013e-02
 -5.6374017e-02
  5.2771896e-02
  7.4421473e-02
  3.6067329e-02
  1.7690462e-01
  1.6693139e-01
  3.5977095e-02
 -7.4591681e-02
  1.3616919e-02
  2.8875768e-01
  6.0441110e-02
 -6.4356387e-02
  3.7737344e-03
 -7.0104703e-05
 -5.3669211e-02
 -1.1435475e-01
 -3.1040752e-02
  2.0790903e-02
  4.1909326e-02
 -4.4726051e-02
  4.0678468e+00
  3.8241011e-03
  1.9580875e-02
 -5.0192142e-01
 -9.6636213e-02
 -7.3412415e-03
  5.4762755e-02
  1.8034244e-01
 -2.2086254e-01
 -1.1442546e-01
  6.1763115e-02
 -1.0397394e+00
 -6.0957268e-02
  4.7186455e-01
  2.2630803e-02
  4.6416232e-03
  1.2149715e-01
 -2.3005353e-03
  4.3329433e-02
 -8.6076126e-02
  4.5154411e-03
 -5.1030707e-02
 -2.0398716e-02
  1.5240499e-02
 -4.1081563e-02
  5.0757304e-03
  1.2531869e-01
 -2.7509652e-02
 -1.9503927e-02
 -1.3817431e-02
 -6.3522480e-02
  1.1061617e-02
 -9.0577923e-02
 -6.1839396e-01
 -6.5492012e-02
  1.1383169e-01
  2.2276074e-02
 -4.9207553e-01
 -5.1710474e-01
 -8.7022686e-01
  5.2964304e-02
  2.5546706e-01
  2.7040035e-01
 -6.6811584e-02
 -6.1418295e-02
 -2.2258314e-01
 -1.2109860e-01
  1.0352418e-02
  1.0071900e-01
 -2.2840461e-01
 -2.5081482e-02
  3.4600380e-01
 -6.4033382e-02
  1.8916406e-02
  2.0944611e-03
  4.1423641e-02
  2.0923838e-01
 -4.8962212e-03
  2.9467961e-02
  1.2323815e-02
  6.6335209e-02
 -3.1806968e-02
 -1.3014074e-01
  2.0964980e-02
 -1.4439470e-01
 -6.0328668e-01
  1.5972142e-01
  1.0155880e-01
  1.2908877e-01
 -6.2512356e-01
  2.3506926e-01
 -1.0483454e+00
  4.1475841e-01
  4.3717250e-02
 -8.2834199e-02
 -1.6486784e-03
 -1.9373387e-02
  2.2348922e-01
  8.8279381e-02
 -1.1849754e+00
 -1.0803200e-01
  1.0808951e-02
 -3.4961235e-03
  1.4652070e-02
 -5.0704837e-02
 -1.7537089e-02
  2.3202203e-02
 -5.0368243e-01
  4.1633636e-01
 -5.3111577e-01
  1.1681256e-01
  2.6735243e-01
  1.8188682e-01
 -1.1447233e-01
 -2.1518279e-02
  6.8955712e-02
 -5.9396345e-02
  2.6057534e-02
  1.4650615e-02
 -3.1274505e-02
 -1.3864125e-01
 -4.9838018e-01
  8.5796475e-01
 -1.9019481e-02
  1.3133490e-01
 -6.4632096e-03
  6.2009405e-02
 -1.0602822e-01
 -1.9855363e-02
  1.3386019e-02
  1.5431534e-01
  5.0406787e-03
  2.3684880e-02
 -1.0017241e-01
 -2.7741028e-02
 -1.2847497e-01
 -1.5395361e-03
  1.3979451e-02
  5.5428360e-02
  1.2874612e-02
 -2.5847263e-03
 -1.4708780e-01
 -2.3431355e-02
 -1.9167606e-02
  1.2090078e-01
 -4.8026033e-02
 -6.2601389e-03
 -1.3911408e-01
 -7.8640535e-02
  1.2504342e-01
 -5.8404092e-02
 -4.9971439e-02
  5.3544257e-02
 -7.9081319e-02
 -1.3202530e-01
  9.4139799e-02
  2.0282331e-01
  4.9548913e-02
 -9.0157807e-01
 -3.7724480e-02
  1.8078737e-02
  6.7252479e-02
 -2.3719398e-02
 -1.0767393e-03
 -2.3456760e-02
  5.9590708e-02
 -1.0275632e-02
  5.8659818e-02
  7.0365451e-02
 -9.1185961e-03
 -4.0694907e-02
 -6.1262995e-02
 -1.1491882e-01
 -4.4278912e-02
  3.0931255e-03
 -8.7436038e-04
  1.8184043e-02
  1.5014869e-01
  1.3314665e-03
 -7.6974533e-02
  2.4292210e-02
  4.7490196e-03
 -7.4985638e-02
 -1.0569280e-03
 -2.7814571e-02
 -4.9460949e-03
 -2.1646883e-02
  9.3432643e-02
  1.7261669e-02
  2.8956253e-02
 -3.6171056e-02
 -3.7041727e-02
 -1.1379144e+00
  5.7922181e-02
  4.1555725e-02
  1.4319640e-01
 -6.9166146e-02
 -1.1968768e-01
 -2.5683156e-01
  5.4809865e-02
  2.5363194e-02
  5.8073603e-02
 -1.5207931e-01
  3.2138881e-01
  2.3967391e-02
  1.5471863e-02
  3.2826044e-02
  1.1672541e-02
  2.7058235e-01
  6.6042887e-03
  1.7703405e-01
 -8.2848510e-03
  2.1237493e-03
  8.3114043e-02
  3.6459912e-02
  6.0681388e-02
 -1.9194596e-01
 -7.0856415e-02
  9.3409255e-02
  2.5560100e-02
  3.0519897e-01
 -1.2747665e-01
 -1.4487928e-01
  8.2203686e-01
 -1.9544784e-02
  5.6421630e-02
  6.0182955e-02
  9.8820247e-02
 -4.6547431e-02
 -4.6472687e-01
 -1.0893930e-01
 -8.2234651e-02
 -7.9748981e-02
  5.4586407e-02
  1.0509744e+00
 -3.1520505e-02
 -5.2381337e-02
 -6.4556949e-02
 -1.3247131e-01
 -5.1330799e-01
  1.5400538e-01
 -1.3631368e-01
 -1.2824141e-02
 -7.9300426e-02
  9.1459969e-04
 -3.2855786e-02
 -5.1772319e-02
 -7.0329443e-02
 -2.6681134e-01
  2.2527400e-01
 -1.8636303e-01
 -7.6481588e-02
  1.1515800e-02
  1.6588970e-03
  2.6222570e-02
  5.4198850e-02
 -1.4640009e-02
 -4.1899126e-02
 -1.9135829e-02
  2.3765594e-01
 -6.5248311e-02
 -9.7890347e-02
  3.7486117e-02
  8.9832276e-02
 -2.5616352e-02
  2.4199085e-02
 -1.2295385e-02
  6.0995393e-02
 -2.7528745e-01
 -6.7944072e-02
  9.3391739e-02
 -7.7968717e-01
 -9.3351573e-02
  1.0073959e+00
 -5.9484016e-02
 -3.4032099e-02
 -1.5818160e-02
 -5.8796652e-02
  7.1315113e-03
 -4.2313829e-02
  7.3967054e-02
  7.2300315e-02
  1.8979704e-01
  1.8031535e-01
  4.2858534e-03
 -4.3340202e-02
  6.7248024e-02
  4.9981486e-02
 -3.0642527e-03
  1.0935099e+00
 -3.8724530e-02
  3.3830956e-02
  3.3558749e-02
 -1.7282857e-02
 -1.0579953e-02
  2.2935720e-02
  1.9556993e-01
 -2.2463748e-02
 -1.7022680e-01
 -3.7623867e-02
  9.0989480e-03
 -7.0639037e-02
  1.1584391e-01
 -2.2833555e+00
 -2.7289946e-02
  2.7252683e-02
 -2.7315591e-02
  2.1755472e-02
  1.1141354e-02
  5.4621715e-02
 -2.6306776e-02
  3.3040754e-02
  6.0812622e-02
  3.4899015e-02
  6.5323763e-02
  1.8315156e-01
  3.9682262e-02
  9.3008868e-02
  6.6235013e-02
 -1.0046762e-02
  8.0370113e-02
  2.4924062e-02
 -3.8291678e-01
  6.2464974e-03
 -7.0547745e-02
 -2.3309333e-02
  9.8365963e-02
 -4.7450734e-04
 -8.5474402e-02
  1.3084611e+00
  5.1455144e-02
  6.4943187e-02
 -1.9694593e-02
  9.9450313e-02
  5.6983296e-02
  5.2293405e-02
  5.9764262e-02
  2.1563882e-02
 -3.7163284e-02
 -3.2486431e-02
 -9.1799507e-03
 -9.1985047e-02
 -6.4107910e-02
 -9.1998195e-03
 -3.2745540e-02
 -6.6346824e-02
 -9.0993578e-03
 -5.9716016e-02
 -6.2900588e-02
 -4.9280938e-02
 -1.4379600e-01
 -5.0680254e-02
  7.3381148e-02
 -1.1040247e-01
 -5.4624984e-03
 -6.0515244e-02
 -5.0921984e-02
  5.5281490e-02
  8.7289624e-02
  8.5801303e-01
 -2.3454565e-03
 -1.7950935e-02
 -1.7279860e-01
  2.8641358e-01
 -2.4782108e-02
 -7.4289784e-02
 -3.8151860e-02
 -3.5283679e-01
  1.1511450e+00
 -5.7999451e-02
  4.7068685e-02
  1.6185064e-02
  2.1426516e-02
  1.5086754e-02
 -2.0741139e-02
 -6.6959806e-02
  1.2934369e-01
  4.2251308e-02
  9.0827513e-03
  1.9422330e-01
 -2.8022574e-02
 -9.7365156e-03
 -6.2540285e-02
 -1.0566950e-02
 -5.1700499e-02
 -1.0693063e-02
  8.5485876e-03
 -6.3329943e-02
  3.7140492e-01
 -2.3124060e-01
 -4.5134961e-03
  3.6890194e-02
 -2.3436341e-02
  1.8178679e+00
  2.6299667e-01
  3.2673918e-02
 -3.9800230e-04
  2.5965949e-03
  2.9291192e-02
 -1.7965318e+00
 -6.1022270e-01
  1.1526541e-01
  3.4559015e-02
 -7.1236245e-02
 -4.2794790e-02
  3.0302644e-01
  6.6252895e-02
 -2.0275314e-01
  1.6345255e-02
 -1.4106493e-01
  8.0156706e-02
 -4.1458968e-02
  3.0771170e-02
 -9.2640342e-03
  7.0050411e-02
  2.4807751e-03
 -2.7858647e-02
  8.8982701e-02
 -1.4750547e-02
 -4.2412702e-02
 -1.7365755e-03
 -2.7692581e-02
  2.3247501e-02
 -3.3937473e-02
  4.1778080e-02
 -3.4552717e-03
  1.1065692e-01
 -2.0725582e-02
 -5.7783086e-02
  2.9859537e-01
 -1.6994368e-03
 -9.2365239e-03
  6.7780837e-02
 -5.9071075e-02
 -7.2914399e-03
 -5.8990497e-02
 -2.3857424e-02
  6.1775353e-02
  5.5731498e-02
 -1.0663436e-01
  2.4701150e-03
  4.1559781e-03
 -2.0031605e-02
  5.5463009e-02
 -4.6285135e-03
 -2.4721051e-02
  5.2174558e-03
 -1.1633618e-01
 -1.7465511e-01
 -6.0557522e-02
 -4.4930689e-02
  1.3884184e-01
  3.0469367e-02
  4.3130852e-02
  2.0237768e-01
  2.9475695e-01
 -9.0212077e-02
  2.3452841e-02
  8.3185619e-01
 -5.1488185e-01
 -1.2252675e-02
  9.4536044e-02
 -1.0262179e-02
  3.3166062e-02
  1.2761540e-02
  4.4716585e-02
 -1.0994428e-02
 -2.0509812e-01
 -1.0883543e-02
 -5.0425503e-02
  2.4344774e-02
  1.4158929e-02
 -2.0070923e-02
 -6.0125384e-03
  2.6514158e-02
 -1.8884501e-03
 -7.8148060e-02
 -6.3483888e-01
 -7.0282418e-01
 -3.4845385e-01
  1.7680067e-01
 -1.7832727e+00
 -7.8944415e-02
  3.1902749e-02
  4.4163707e-01
 -4.9753901e-02
 -5.5728119e-02
 -3.5634246e-01
 -1.7791116e-01
  2.5733009e-01
 -2.8196594e-02
 -7.0566744e-02
 -2.0181868e+00
 -6.6221394e-03
  4.6587277e-02
  1.4707725e-02
  5.0239146e-02
 -4.7198124e-02
 -3.7644532e-01
  1.1606167e-01
  3.5250080e-01
 -5.7304371e-02
  1.2119762e-01
  4.5258861e-02
 -1.3887900e-02
  1.6453379e-03
 -8.0645401e-03
  3.7266575e-03
  4.3068990e-02
 -9.7183511e-03
  5.4742824e-02
  6.8673186e-02
 -8.8102417e-03
  8.0190855e-01
  1.7963478e-02
  2.6747437e-02
  1.2017073e-01
  7.5924501e-02
 -3.3682857e-02
  4.5205569e-01
 -1.7068784e-01
  1.8297968e-02
  1.2113230e-02
  5.3288783e-03
  1.8774342e-03
  5.5253632e-02
  2.3970434e-02
 -3.9755233e-02
  1.6478129e-02
  4.1115239e-02
  5.9958398e-03
  7.0835441e-02
 -2.4475913e-02
  1.8109994e-01
  9.0503439e-02
  9.6063562e-02
  8.9886375e-02
 -7.2658353e-02
 -2.0291615e-01
  5.8630250e-02
  2.5343305e-01
 -2.9411614e-01
 -5.2501012e-02
  1.9479234e-02
  1.5565510e-01
 -3.5911763e+00
 -2.9970406e-02
 -9.4047837e-02
 -3.5318859e-02
  1.1463867e-02
 -3.2021577e+00
 -1.4110591e-01
  2.0008799e-01
  5.6749206e-02
 -1.1471917e-03
  5.2659535e-01
  8.1020826e-03
 -2.1460572e-02
  8.1329057e-03
  2.3006247e-02
  3.0189025e-01
 -4.6364614e-04
 -1.1869879e-01
 -4.6170708e-03
  7.2859963e-03
 -4.3668788e-02
 -1.9442887e-03
  8.4320211e-01
 -9.2363209e-03
  1.0497221e-02
 -1.1916353e-02
 -1.1740522e-02
 -1.2637393e-01
  4.2652350e-02
  8.7083124e-02
  1.2367047e-01
 -4.1116588e-02
  5.0706800e-02
 -9.9027477e-02
  5.1891934e-02
  5.5546422e-02
 -9.7459778e-03
 -1.4412700e-01
  3.0155282e-02
  1.9889122e-02
 -1.0680061e-01
  2.9143175e-01
 -3.9542221e-02
  5.6991423e-03
  6.4730190e-02
  1.6303796e-02
 -1.1362718e-02
  9.3523385e-03
 -2.8737172e-02
  2.2652386e-02
  1.2834394e-01
  1.0435553e-02
 -5.5566199e-02
 -2.5172201e-01
 -7.4458532e-02
 -6.7593431e-01
  1.9593991e-01
  3.4495033e-02
  1.6867682e-01
  1.7779672e-01
  1.5605171e-01
  4.3357015e-02
 -1.6371628e-02
  5.0735828e-02
  9.8940499e-02
 -1.9589837e-01
  1.0305737e+00
  2.5447933e-02
  4.3236103e-02
  9.7631402e-03
 -3.0460762e-02
 -2.2499872e-02
  9.5546711e-03
  3.5013836e-02
 -6.1684083e-03
  4.3147866e-02
  6.4614362e-01
 -9.9417306e-02
 -2.8926440e-02
 -7.8298347e-03
  3.2279722e-02
  5.3927936e-03
  7.9187274e-01
 -3.3570716e-01
 -7.2527744e-02
  1.4184637e-01
 -8.3623689e-01
  7.3306926e-02
  5.7654073e-03
  2.0979197e-01
 -1.4419021e-01
  2.1800367e-02
 -2.9218954e-01
  6.8855472e-02
 -1.5359028e-03
 -7.0703086e-03
  3.0701371e-02
 -1.0525060e-01
  3.3356484e-02
 -3.6863924e-03
  1.2311175e-01
 -5.7221685e-02
  5.3293481e-02
  2.0838123e-02
  2.6285446e-01
 -9.3623854e-02
  1.9906190e-01
  2.5597166e-02
  7.2435096e-02
 -4.1977391e-02
  2.1401990e-02
 -4.9241725e-03
 -9.1173190e-01
  7.4519330e-01
 -1.7715025e+00
  1.4485611e+00
 -7.8653508e-01
 -2.0391579e+00
  6.6058941e-02
  1.6313475e+00
  5.2232731e-02
  1.4252727e-01
 -9.4075310e-01
 -7.8335576e-02
  1.2169218e+00
  2.1625979e+00
  1.0134740e-01
 -7.8915935e-03
  7.3245496e-02
  4.0572889e-02
  1.9774598e-01
  1.1752430e+00
  5.5751290e-02
  6.1351177e-03
  1.1385145e+00
 -1.1848994e-01
 -1.1397992e-01
  4.6124518e-02
  5.4303031e-02
  1.4337653e-01
 -5.0604404e-03
  2.7644384e-05
 -5.9824139e-01
 -8.9770967e-01
  9.1829407e-01
 -1.5655337e-01
 -4.3344840e-01
  1.1670218e-01
 -1.3846338e+00
 -3.0699515e-01
 -5.4698540e-03
 -5.5457268e-02
  1.4444193e-01
  4.8043657e-02
 -4.3838891e-01
  3.5565302e-02
  4.5183875e-02
  2.7305134e-02
 -1.1577403e-01
 -1.3119133e-01
 -2.1671224e-01
 -1.3143247e-01
  2.5337991e-01
 -4.6467792e-02
 -3.5799069e-03
  1.6602904e-04
  8.5446738e-02
 -4.1291859e-02
 -1.6406823e-02
 -1.0258019e-01
 -5.0096381e-02
  3.3318076e-02
 -8.8564605e-02
 -3.0587688e-02
 -1.1565730e-01
  7.7915251e-02
 -8.9339365e-04
 -2.5074688e-01
  5.2526705e-02
 -1.9536595e-01
 -7.7502266e-02
  1.5065855e-01
 -1.5079574e-01
  3.9082993e-02
  9.1908932e-01
 -5.3996495e-03
  4.6735850e-01
  3.0365849e-02
 -2.4520919e-02
  4.8381578e-02
 -6.0855284e-02
 -6.9417007e-02
 -2.0200808e-03
 -3.3555377e-02
  3.3553460e-01
 -1.5281792e-02
 -2.0301175e-01
 -2.8056122e-02
  2.8778967e-02
  7.5835802e-02
  1.4863868e-01
  3.5629597e-02
  8.8844057e-03
  8.3630019e-01
 -6.0852975e-02
  5.9493437e-02
  4.7020957e-02
 -8.2603134e-02
  1.0761813e-01
  5.9150681e-02
 -1.7287182e-02
  4.0137414e-02
 -2.3017123e-02
 -2.1777733e-03
  1.2455591e-01
 -6.1337298e-01
 -4.9519092e-02
  8.7629855e-02
 -1.6326640e-02
  1.1458778e-01
 -3.8991980e-02
 -3.1702511e-02
  4.2126935e-02
 -1.2838918e-01
 -1.3723990e-02
  4.1688297e-02
 -2.8162543e-02
  8.8569641e-02
  4.7576413e-03
  7.1826379e-04
  1.2018327e-02
 -2.8389724e-02
 -1.4549553e-01
  3.2024492e-02
  1.1758519e-02
  1.8648582e-02
 -1.4493570e-02
 -5.6577018e-03
  3.4474675e-02
  1.3795921e-01
 -1.4621396e-02
 -3.2609913e-02
 -1.8175890e+00
  1.0910616e-01
 -5.1337589e-02
  8.3867721e-02
  1.1555111e-02
 -5.3020112e-02
  2.0333767e-02
 -6.3664943e-02
  2.7043018e-02
  2.0843067e-03
  5.5919886e-01
 -5.5248231e-02
 -5.9103496e-02
 -6.8229668e-02
  4.0153917e-02
  1.2267240e-01
 -4.7093205e-02
  1.9063515e-03
 -3.5058670e-02
 -5.2724583e-03
  1.8297539e+00
 -1.1712968e-01
  1.8972609e-02
 -2.5038654e-03
 -2.0344436e-02
 -1.0060046e+00
 -4.5242265e-01
  1.8625505e-02
  2.7753690e-03
  2.9284047e-02
 -3.7039623e-01
 -3.2553956e-01
  1.5555040e-02
 -2.8712931e-01
 -1.1722270e-02
 -1.0073562e-01
  4.4268101e-02
 -1.5972123e-01
 -6.7953372e-01
  2.8710476e-01
  1.5063359e-01
  6.5511219e-02
 -1.3538709e-01
 -8.5166514e-02
 -4.3478870e-01
 -1.7462885e-01
  3.1555057e-01
 -1.7911082e-02
  1.7068349e-02
  7.6177903e-02
  9.3297529e-01
 -6.6601944e-01
 -1.1888083e+00
  1.4438558e-01
  6.8924293e-02
 -5.4896849e-01
 -1.3608999e+00
  1.1646135e-01
 -3.0951910e-02
 -1.7758260e-02
  1.3818783e-01
  5.5964381e-01
  6.3009202e-02
 -1.8083209e-02
 -1.5513796e-01
 -3.9318226e-02
 -4.6626347e-01
  8.1298374e-02
 -9.1260292e-02
  1.1111814e+00
 -2.2797231e-02
  9.4850764e-02
  1.9127262e-01
  1.6997410e-01
  3.9266628e-01
  2.1805942e+00
 -8.7374341e-01
  1.0112276e+00
  4.7505993e-01
  2.3106183e-01
 -4.0676674e-01
 -4.8386071e-02
  9.8814720e-01
 -1.1818781e+00
  3.6546122e-03
 -5.9054404e-01
  5.5816956e-04
  6.4836490e-01
 -2.4411426e-01
  3.2005128e-02
 -7.7126509e-01
  2.3228213e-02
 -3.0958775e-01
  1.5884254e+00
  6.0158387e-02
 -1.7487344e-01
  5.0854340e-02
  4.2397246e-02
 -4.6446490e-01
  4.3780634e-01
 -9.6017587e-01
 -2.4873344e-03
  3.2131851e-02
 -8.9714044e-01
  4.0215451e-02
  5.7729457e-02
 -2.2845216e-01
 -6.2661606e-01
 -8.1193709e-01
 -2.8488198e-01
  1.1416806e+00
 -5.0274659e-02
  1.4959375e-03
 -1.3659256e+00
  2.5193384e-02
  2.4514042e-01
  1.2894456e-01
  3.3441606e-01
  3.2271934e-01
  5.6092426e-02
  1.0207714e+00
  9.3543574e-02
  1.3966910e+00
  2.0732621e-02
 -1.0298686e-01
 -2.6928234e-01
  1.8635766e-01
  5.5211712e-02
 -1.2004183e-01
  1.2380477e+00
  4.5720689e-02
 -1.0217173e-01
 -7.9676673e-02
  2.4451077e+00
  3.2238699e-02
  8.3533451e-02
 -1.4014229e-01
  3.8694419e-02
  7.7244622e-01
 -1.1205576e-01
  2.4147734e-01
  1.2106526e-03
 -1.1647792e-02
 -5.1083660e-01
 -1.6548065e-02
  5.5064189e-01
  1.0229725e-01
 -1.8134849e-02
  9.9812644e-03
  5.8837169e-01
  9.0997368e-02
 -6.9715373e-02
 -1.4277790e-01
 -2.1669737e-01
 -2.7478393e-02
  4.3651171e-02
 -1.5116754e-01
 -5.8765002e-03
 -3.0818301e-01
 -7.2768942e-02
 -1.0933200e-01
 -3.7234772e-03
  3.3330286e-01
  6.2719756e-01
 -3.3614594e-01
  2.2941816e-01
  1.2706126e-01
 -4.6889629e-02
 -7.1061951e-01
  1.3453199e-01
  7.9397619e-01
  3.2706544e-02
  4.5383504e-01
  1.1501154e+00
  7.4128225e-02
  1.3969597e-01
  6.9117703e-02
 -1.2204359e-01
 -1.2370024e-01
  3.6100540e-02
 -3.5171818e-02
 -3.2275494e-02
 -2.2660941e-01
  4.3854922e-01
  6.0362581e-02
 -1.0238505e-01
  3.7306511e-01
  3.7310053e-02
  3.0937963e-03
 -8.9157753e-02
  6.8274182e-01
  8.3820648e-02
 -8.0485916e-01
 -1.6732328e+00
  1.9373058e-01
  1.3004214e+00
  3.5269044e-02
  2.7829560e-02
 -2.2589596e-01
 -6.5429151e-02
  1.5343638e-01
 -2.4136366e-02
 -6.0268223e-02
 -1.1992973e-01
 -4.1261829e-02
 -1.5648066e-01
  2.8886626e-02
 -6.8656081e-01
 -7.5530964e-01
  6.0073849e-02
 -4.2095795e-02
  1.3750681e-01
  2.4937171e-01
 -4.2747784e-01
 -1.9097207e-02
  1.0359491e+00
 -9.0124764e-02
  3.0647466e-01
 -8.2567751e-01
  1.6931030e-01
  1.6534546e-01
  7.7391015e-03
  1.1495138e+00
  5.6214941e-01
  8.8625270e-01
  4.8377592e-02
 -1.5540823e-01
 -1.2935391e-01
 -6.4029688e-01
  3.2197049e-01
  1.9740840e-02
 -7.0804521e-02
  2.6887923e-02
  2.1990285e+00
  9.0275537e-03
 -7.5333977e-01
  4.3558907e-02
 -2.8531156e-02
 -1.8068382e-01
 -1.9372653e-02
  1.0857862e+00
  5.5553641e-02
  9.2949128e-01
 -6.1466604e-01
 -1.0759349e-02
  3.7819698e-01
 -9.6625099e-03
 -1.5339755e-02
  5.2087617e-01
 -7.4810134e-03
  1.0073251e+00
 -3.6719367e-02
  2.6000543e-02
 -1.0038761e+00
 -6.2466379e-02
 -7.8512885e-02
  1.0486890e-01
 -9.9181175e-02
  1.3404729e+00
  1.1581650e-01
 -6.5263182e-01
 -6.2842089e-01
  1.3833259e-01
 -2.0278648e-01
  2.5129423e-01
  1.6389557e+00
  3.7079823e-01
  1.9221871e-01
  2.4254598e-01
 -2.7661817e+00
 -7.5894803e-01
  2.2381932e-02
 -6.8060833e-04
 -3.4968561e-01
  7.4419808e-01
 -1.6915140e+00
  6.2999845e-02
 -2.5058566e-02
  1.2776728e-01
  5.3719795e-01
  8.6955106e-01
 -8.5343709e-03
  4.4673178e-03
  5.8315599e-01
  5.8932253e-03
 -5.9026551e-01
 -5.7605747e-02
  1.3568626e-01
 -3.1143627e-01
  2.8565270e-01
 -5.0186360e-01
 -5.8314854e-01
 -1.5188537e+00
 -3.1626377e-01
 -5.7097769e-01
 -4.1503918e-01
 -2.9726040e-02
 -3.3679494e-01
 -2.6063314e-01
 -7.8910284e-02
 -7.8055334e-01
 -4.8287284e-02
  1.7790729e-02
  3.1472538e-02
  9.5470130e-02
 -9.1325000e-02
 -3.8269133e-04
 -9.3704229e-03
  1.6270517e+00
  6.7187816e-02
  3.0549002e-01
  5.6925133e-02
  9.3952172e-02
  1.4828445e+00
  5.4363098e-02
  6.3162416e-01
 -6.3861161e-02
 -3.0129321e-02
  3.3462289e-01
  1.3605001e+00
 -1.9123757e-02
 -3.1104585e-02
  5.6080569e-02
 -2.2883371e-01
 -6.3070614e-04
 -1.1302030e-01
 -2.3241296e-02
  1.8021048e+00
  1.6087204e+00
  8.1049424e-01
  9.4978487e-01
 -5.8664518e-05
 -3.7647795e-02
 -2.4477261e-01
 -6.5652914e-02
 -1.0158524e-01
 -1.3455315e-01
 -4.5213211e-02
 -3.2822967e-01
  2.6509229e-02
  2.4253707e-01
  7.7281944e-03
  1.3369633e+00
  3.4150672e-01
  8.7677337e-02
 -5.0860859e-02
  4.7205266e-02
  6.3451976e-02
 -9.1083042e-02
 -3.4105656e-01
 -1.5766914e-01
  2.0934327e-02
 -4.3207064e-02
  5.6871611e-01
 -5.6614798e-02
 -2.1371564e-02
 -5.9780395e-01
  7.0946857e-02
 -5.9264916e-01
 -4.6374336e-01
 -1.1915891e-01
  3.0327830e-02
 -1.0664648e-02
 -4.4614735e-01
 -6.5700430e-03
 -1.2486401e-01
 -6.1895221e-02
  9.8314449e-02
 -2.4259846e-01
  4.4412240e-02
 -1.1522046e+00
  8.7662540e-02
  2.8577790e-02
 -7.8112924e-01
  3.3322400e-01
 -1.0075370e-01
 -9.3832292e-02
 -3.9709595e-01
  6.9635326e-01
  1.5584803e-03
 -2.1897161e-01
 -6.7294770e-01
 -1.5132695e-02
  5.3053867e-02
  1.3388330e+00
  4.4858590e-01
  9.9054858e-02
 -5.8699667e-01
  2.0075491e-01
 -1.2297030e-01
 -1.5004213e-01
  7.0664924e-01
 -8.0914485e-01
 -5.0119126e-01
  3.1954217e-01
  7.5159609e-02
  2.5649287e-02
 -9.2618114e-01
  1.0522471e-01
 -4.8288929e-01
  1.8701571e+00
  2.4463782e-01
  1.4464239e+00
  9.9702716e-01
  7.0660882e-02
 -8.7490529e-01
 -1.0934547e-02
  2.5512755e-01
  6.0806334e-01
 -4.2935621e-02
 -1.6401002e-01
  6.7197925e-01
  2.1624045e-01
 -3.3955362e-02
  2.0472994e+00
 -9.3470467e-03
  1.1124448e-01
  9.3849224e-01
 -1.3600732e-01
 -1.3531034e-02
  1.2537926e-01
  2.2828851e-02
 -5.3153343e-02
 -1.0744955e-01
  1.2379576e-01
  1.6498548e-01
 -4.2730579e-04
  3.2042289e-01
 -4.6887749e-01
 -6.9136075e-03
  7.8632617e-01
 -1.0768639e-02
 -4.5206803e-01
 -2.0946027e-01
 -9.3256003e-01
 -8.8346392e-01
 -7.3322989e-02
  5.8339602e-01
 -4.2680246e-01
 -3.1877124e-01
  1.3666724e+00
 -3.4853435e-01
 -1.7117095e-01
 -2.7176762e-01
  2.5751814e-01
  3.8317081e-02
  2.2635972e-01
  2.1537790e-02
 -4.7629960e-03
  4.5075488e-01
 -1.0908386e+00
  8.9456171e-02
  2.8386170e-01
  1.3252246e+00
  2.9745853e-01
 -1.4829221e-03
 -8.1322096e-02
  2.4602316e-02
  3.3363098e-01
  4.8470229e-02
 -1.3667591e-01
  7.0394106e-02
  2.1403043e-01
 -1.9932910e+00
  4.0144943e-02
  7.8200227e-01
 -1.2460304e-01
  3.3163473e-01
  7.0347786e-01
 -3.8379248e-02
 -4.5024377e-01
 -2.5295120e-02
  3.4391129e-01
 -6.8315488e-01
  3.4019858e-02
  8.5655278e-01
  3.7034157e-01
 -8.2155442e-01
  1.0148601e-01
  1.5055814e-02
  1.4143476e-01
 -1.6008539e-02
 -9.0060584e-02
  4.6159375e-02
  1.6637489e+00
 -7.5120258e-01
 -8.5239649e-01
 -1.3640596e+00
 -8.1020445e-01
  3.0772043e-03
  1.4759777e-01
  1.4769801e-01
  6.7979586e-01
  9.8852026e-01
 -4.4853747e-02
 -1.2484810e+00
  1.0037026e-02
  3.8057871e-02
  5.6362778e-01
  8.7357968e-01
  8.2721919e-01
 -3.8705269e-01
 -1.5834153e-01
 -1.0268879e-01
 -6.1234865e-02
 -3.0238074e-01
  1.5400662e-02
 -8.4038097e-01
 -1.5112448e+00
  4.3674901e-02
 -5.1320888e-02
  8.6384453e-02
  1.4541494e-03
  3.2549571e-02
 -2.2345806e-02
  3.2336728e-03
  2.4703126e+00
  1.2010877e-02
  6.0715932e-01
 -2.1682745e-02
 -2.9120189e-01
 -1.5857266e-02
  4.1429174e-01
  7.2620416e-01
 -5.4799134e-01
 -1.0379267e+00
  6.0691255e-01
  7.2270209e-01
 -2.9376498e-01
 -5.0083671e-02
  1.2248117e+00
 -3.3336479e-02
  3.4351430e+00
 -2.8647929e-01
  7.7187553e-02
 -3.4152940e-01
  3.3072358e-01
  4.3623364e-01
 -7.4709070e-01
 -2.6365620e-01
  4.8150036e-02
  1.5005533e-01
 -1.0018457e-01
  1.3906213e+00
  1.8158285e-01
  2.4079058e-02
  5.3221323e-03
 -5.3678650e-02
 -5.6511647e-01
  2.9573211e-01
 -5.6428205e-02
  1.2264236e+00
  2.3397247e-01
  1.5383090e+00
  7.2577976e-02
  3.0840215e-01
 -4.7883108e-02
  2.6505383e-02
 -7.9725128e-01
  3.4119034e-01
  4.5815811e-01
  3.9509614e-03
  6.0439837e-01
 -1.4816939e+00
  1.4247764e-02
  1.0546107e-01
 -3.8157113e-02
  6.4526081e-02
 -1.9339590e+00
  1.5110108e-01
  6.1900411e-02
  1.0541281e-01
  4.6193253e-02
 -3.3833265e-02
  8.0126142e-03
 -4.2365944e-01
 -7.6997802e-02
 -2.2145966e-01
 -1.4553787e-01
  3.4187447e-02
 -5.2256030e-01
 -6.2330466e-02
 -2.5439495e-01
 -9.9445349e-03
  1.2272007e-01
  4.7254972e-02
  5.0533125e-03
 -3.9608687e-02
 -3.6981115e-01
 -1.2636920e+00
  2.9081309e-01
 -1.0541255e-01
  6.7867458e-02
 -4.7039136e-01
  2.9361572e-02
  1.7543074e-03
 -1.3306092e-02
 -7.0393011e-02
 -1.0549705e-01
  8.9295022e-02
  1.1639821e-01
 -3.4039118e-03
  5.4857906e-02
 -2.8090173e-01
 -1.5508738e-01
  1.2633617e+00
 -1.1720145e+00
 -1.4605930e-01
 -1.8445513e-01
  1.7158943e-01
  2.0704527e+00
 -7.5579412e-02
 -4.8081875e-01
  1.2952656e+00
 -1.8646500e-01
 -8.5029751e-01
  6.1559141e-02
 -7.9483604e-01
 -1.2644379e-01
  4.3515864e-01
 -1.0851426e+00
 -1.1035714e-02
  6.0289735e-01
 -2.7505311e-01
  6.2791012e-02
  2.1065032e-02
  5.6659501e-02
  5.1197588e-02
 -1.8532604e-01
 -1.4074826e-01
 -1.2696229e+00
  9.1649652e-02
  4.4525981e-01
  4.3260652e-01
 -3.8621459e-02
  3.5453830e-03
  7.5926131e-01
  2.7156824e-01
 -3.2741778e-02
 -1.4247578e-01
  2.6137886e+00
  2.8169884e-03
 -1.5807995e-01
 -1.1969642e-01
  2.1197109e-01
 -1.6569848e-01
 -1.0199786e-01
  6.5578334e-02
 -2.1489999e-01
  3.4680616e-02
 -2.3542103e-01
 -1.0074124e+00
 -6.5144205e-01
 -7.8670368e-02
 -2.0771031e+00
 -8.7433171e-01
 -4.2354503e-01
 -1.3975468e-02
  5.3052735e-01
  1.5599371e-02
 -6.8948126e-01
 -6.4187205e-01
  2.0374937e+00
 -3.5217050e-01
  5.9335840e-01
 -8.1284976e-01
  2.5418404e-02
  1.0498110e+00
  3.9447945e-01
 -4.2686041e-02
 -9.4212025e-02
 -8.8222452e-02
 -4.9739054e-01
  6.9122946e-01
 -1.4945522e-01
 -1.0382716e-01
 -1.4255282e-01
 -8.2508022e-01
 -1.3857657e-01
 -6.8358850e-01
  4.2199221e-01
 -6.6443989e-03
  7.0093155e-02
 -9.2954822e-03
 -6.6173637e-01
 -2.1003370e+00
 -9.3190920e-01
  6.3494343e-01
 -1.3087858e+00
 -9.1435456e-01
 -1.2029839e+00
  2.9953516e-01
  1.6204718e+00
 -3.7598148e-02
  7.8720869e-03
  6.1480623e-01
 -6.8332456e-02
  1.5131596e-01
 -3.4349003e-01
 -6.8494469e-02
  9.8673284e-02
  2.0655367e+00
  1.1457888e-02
 -6.0017514e-01
 -5.7811862e-01
  1.0217679e+00
  4.3182600e-02
  1.5245591e-01
  1.0378324e+00
 -5.6453589e-02
  1.6438982e-01
  1.1207075e-01
  3.3163336e-01
 -9.3734050e-01
  2.6800680e-01
  1.6501182e-01
 -4.0097695e-02
  1.0775190e-02
 -8.7324518e-01
  4.2956734e-01
  5.2150108e-02
 -6.0519218e-03
 -3.5532735e-02
 -9.8310158e-02
  9.9094413e-02
 -3.3404174e-01
  1.0573737e-01
  1.4387035e+00
  2.8557685e-01
  5.5221921e-01
 -5.5856335e-01
 -3.4690553e-01
 -2.0931166e-01
  1.2211148e+00
  2.2749119e-02
  1.8836607e-01
  5.6230229e-01
 -2.6588389e-01
 -5.6883925e-01
  2.6148221e-01
  7.5924590e-02
 -4.6838146e-01
  1.5872644e-01
  5.7030115e-02
 -2.6446091e-02
  3.0009145e-01
  5.8657187e-03
  3.5180919e-02
 -5.4478550e-01
 -2.5401679e-01
 -9.3902685e-02
  7.1503991e-01
  9.1131425e-01
  1.2625905e+00
  5.6343091e-01
  6.2036681e-01
 -3.4913957e-01
 -7.6450408e-02
  3.2061374e-01
  8.6257812e-03
 -3.1955793e-01
  9.4566621e-02
  3.1118780e-02
 -3.4881511e-01
 -2.5904441e-02
  1.5288183e-01
 -8.0179311e-02
  1.9599833e-01
 -8.1082278e-01
 -2.5397798e-01
  8.3405495e-01
  4.5062321e-01
  4.4399273e-02
 -3.9710858e-01
 -1.3315704e+00
 -1.5897659e+00
  8.8874705e-04
  5.6394685e-02
 -1.0925214e+00
  5.9500869e-02
  9.0346418e-02
 -5.3404447e-02
  9.9999472e-02
 -1.6456890e-01
 -1.8108916e-02
 -6.2812829e-01
 -1.0227864e-02
  3.5022974e-02
  7.6083094e-02
 -4.4942558e-02
  4.7948081e-02
  2.4117282e-02
 -2.2618458e-02
 -1.3784993e-01
 -3.9587028e-02
 -4.8928052e-02
  4.3316159e-02
  4.7573168e-02
  1.4514502e-02
 -2.3011900e-03
  1.5294279e-01
  7.8089595e-02
  5.3076558e-02
 -1.8717992e+00
  1.1149953e-01
  4.8601452e-02
  4.5218214e-02
 -2.1726120e-01
 -1.1287276e+00
 -3.8456142e-01
  6.6474080e-02
 -2.5167158e-02
  5.0510541e-02
 -7.6994300e-02
 -1.0148893e-03
  8.2355924e-02
  8.9511089e-03
  2.6362998e-02
 -1.5307302e-02
 -1.6209289e-02
 -2.0603442e-01
 -5.0375853e-02
 -2.0988993e-02
  8.6351466e-01
 -6.8272859e-01
 -7.1086818e-01
 -1.0580680e-01
 -1.3503408e-01
 -1.9718803e-01
  7.0343934e-02
 -6.5350688e-01
  1.2636013e-01
  4.0591169e-02
  8.4606186e-02
 -7.6504666e-01
  9.9875748e-01
 -2.0918455e-02
  4.2938955e-02
  6.9455013e-02
 -8.4631070e-03
  1.2358637e+00
  3.3910122e-02
  1.0701464e-02
  1.5194936e-01
 -7.4729823e-02
 -3.5765743e-01
 -1.8333014e-02
 -3.7296463e-02
  6.4443272e-01
 -7.1368599e-01
 -2.6145099e-02
  9.2778411e-03
  1.8946841e-01
 -7.9258043e-01
  3.2425605e-02
  7.4596182e-02
 -2.4798011e-02
  1.4481928e+00
  1.0979922e+00
  4.1712377e-02
  6.3476479e-01
 -2.9290831e-02
  1.1571439e-01
  3.9204773e-03
 -6.5479665e-03
 -4.8984982e-02
 -1.1335859e-02
  9.0150654e-02
 -1.2286231e-02
 -2.9868793e-02
 -2.6081392e-01
 -2.2764182e-02
  1.0089327e-01
 -5.0952864e-01
  1.9762633e-02
 -5.3786978e-02
  2.7012637e-01
  4.2371807e-01
  8.3204672e-02
 -2.0494661e-01
  2.2263244e-01
  4.9113980e-01
  8.9745516e-01
  2.0770900e-01
  9.7661084e-03
  1.2029965e+00
  3.7056264e-01
  2.2367315e-01
  6.7899823e-01
  1.7923595e-01
  1.8697962e-01
  8.7995781e-03
 -9.0461463e-02
 -3.2520972e-02
 -2.4426948e-02
 -2.5612453e-01
  7.8060855e-03
 -5.0518590e-01
  8.1234580e-01
 -1.6375142e+00
 -1.4113191e-01
  1.3031339e-02
  5.5742070e-02
 -4.5595521e-01
  5.2664257e-03
 -1.3742326e-01
 -1.4870820e-02
 -9.2280167e-01
 -2.3482344e-01
  2.1639986e-01
  5.0537229e-01
 -5.3205326e-02
  1.4793723e-02
  4.5584077e-01
 -1.5642965e-01
  2.5274402e-01
 -4.9319103e-02
 -4.6020803e-01
 -1.2851629e+00
 -2.0928806e-01
 -1.6010129e+00
 -1.1656477e-02
  1.3239578e-02
 -1.0923101e-01
  1.2990113e-01
 -7.5819910e-01
  3.6359707e-01
 -1.9765878e-01
 -1.2228098e+00
  2.6071554e-01
 -2.3026611e-01
 -7.4608140e-02
 -1.1653732e-02
 -1.0110335e+00
  7.6210767e-01
  8.3260012e-01
 -1.1430794e+00
 -2.8927651e-01
  1.5936916e-01
 -1.2631987e-02
 -5.4529482e-01
 -5.0229985e-02
 -1.1637098e-01
  2.6398979e-02
 -1.2976675e-01
  5.7049301e-02
 -7.8268535e-02
  1.5805264e-01
 -3.9836891e-02
 -1.6572664e+00
  9.8909044e-01
  4.1536562e-02
  1.2896760e-01
  1.0312525e+00
 -1.3784920e+00
 -3.2179873e-02
 -1.1433578e-01
  4.7128206e-01
 -6.2730730e-01
  8.0845421e-03
  4.1155833e-01
  4.0245656e-02
 -7.3792398e-02
 -1.5105927e-01
  2.3925513e-02
 -3.3682104e-02
  9.5503345e-02
  5.7344294e-01
  9.9787191e-02
  1.3284487e-01
 -3.0207701e-02
  5.5038441e-02
  2.3995027e-01
 -6.5030873e-01
  1.1464809e-02
  7.9587495e-01
  2.0116322e-01
 -1.7090751e-01
  1.3962449e+00
 -3.3514392e-01
  1.8734568e-01
 -2.5176659e-02
  7.4380763e-02
 -5.0687271e-01
 -9.5044369e-01
 -1.3945141e+00
  4.1464161e-02
  7.1511559e-02
  4.7019921e-02
  2.2303097e-01
 -7.0335048e-01
 -1.2848096e+00
 -2.8017241e-01
  1.7016424e-02
 -1.8401040e+00
  6.0591269e-01
 -1.6863109e+00
  1.7899396e+00
 -4.6594757e-01
 -7.8658439e-02
 -2.8180674e-01
  2.5293550e-02
 -5.3238511e-01
  9.2076248e-01
  2.9888609e-01
 -1.2222664e+00
  3.0265892e-02
  4.7539525e-02
  2.9071586e-02
 -1.2756516e-01
 -9.0110838e-01
  1.4498697e-01
 -1.1213828e-01
 -2.0610867e+00
 -1.8574333e-02
 -2.2441003e-01
 -6.1840820e-01
  5.2383041e-01
  5.7280833e-01
 -1.3419720e-02
  2.4031943e-02
  6.8016518e-03
 -1.7883937e-03
  1.0948750e+00
 -1.6724882e-01
  9.5320046e-02
  6.1751385e-03
 -5.9040129e-02
 -2.7323455e-01
  5.3951312e-02
 -2.3729303e-01
  4.0070578e-01
  1.0475984e-01
 -3.3606616e-01
 -1.5607712e-01
  1.3606973e+00
  3.3221856e-02
  1.5508701e-02
 -1.7890651e+00
 -2.7991237e-02
 -1.8408027e-02
  1.8528210e-03
  1.2371615e-03
 -1.8814022e-02
  1.0730692e-02
  2.9121944e-01
 -6.9023359e-01
  1.7398453e-01
 -3.7755883e-01
  2.4823527e-01
  3.3646061e+00
  1.3530037e-02
  1.1177389e-01
  2.3644519e-01
  3.5419822e-02
  2.0961566e-02
  1.5384937e-02
  2.6664075e-01
 -7.6506592e-02
  1.4569132e+00
  4.2410156e-01
 -6.7608647e-02
  2.6413062e-01
 -5.7005018e-02
  7.1581416e-02
  4.4827811e-02
 -1.6581617e-01
 -2.5633641e-02
 -3.5153857e-01
 -8.4508592e-01
 -5.8895934e-01
  1.2550865e-01
  8.2353199e-01
 -5.3316426e-01
 -1.4019407e+00
  1.1570097e+00
 -1.5389948e-01
 -2.7875343e-01
 -8.1228316e-01
 -2.0816902e-02
 -6.4281411e-02
  4.6630767e-03
 -3.0423057e-01
 -2.1310167e+00
  1.0813425e-01
 -6.3531712e-02
 -2.6221591e-01
  5.6999151e-02
 -1.9134291e+00
  2.0259792e-01
  6.1270515e-03
  7.2539411e-03
  5.6950194e-01
  4.6832064e-01
 -1.1019914e-02
  3.1283170e-01
  2.2192968e-02
 -3.2420203e-01
  7.1953428e-01
  6.7603499e-01
  3.5191737e-02
 -8.7220348e-02
 -4.3753046e-01
 -8.0803752e-02
  8.8683069e-01
 -1.1953419e-01
 -2.6517441e-02
 -4.2033869e-01
  6.9000810e-01
 -4.5928326e-02
 -6.0249400e-01
  2.6172134e-01
 -1.4823808e-01
  1.6789018e+00
 -2.3077583e-01
 -3.4533566e-01
 -1.5190127e-01
  3.9370766e-01
  3.8102609e-01
  1.5176159e-02
  1.3673489e-01
  4.4788399e-01
 -6.0259289e-01
  1.0649697e+00
 -1.8709822e+00
 -1.4804534e+00
 -1.9895385e-01
  5.6803513e-01
  4.8552865e-01
  5.1367275e-02
  5.8818477e-01
  1.2908234e-02
 -3.5661951e-02
 -2.2132187e-01
 -1.7682461e-01
  1.2343351e-01
  6.9699544e-01
  9.5979974e-02
 -4.2181849e-01
 -1.2877285e-02
 -1.0512658e+00
 -5.3400624e-01
 -5.1316291e-01
 -4.8872349e-01
  1.2770554e-01
  1.7018878e+00
  3.7865981e-01
 -4.7358868e-01
  1.1219891e-01
  2.9134980e-01
 -2.0012514e-01
 -1.3436170e-01
  1.6038792e-01
 -9.6368939e-01
 -4.9455282e-01
 -1.0063442e-01
  8.4004752e-02
  1.4456985e-02
  4.0763205e-01
  1.2373791e-01
 -2.5862443e-01
 -5.1678824e-01
  3.5188004e-02
  1.4371178e-01
 -1.4147978e+00
 -5.4149193e-01
  7.2786224e-01
 -9.4109577e-01
 -5.0900584e-01
 -3.7546584e-01
  3.2512990e-01
  2.4363533e-01
  7.2232443e-01
 -1.4674485e+00
 -5.9237087e-01
  1.3874977e+00
 -5.6930720e-03
 -1.0668572e+00
 -1.3843887e-01
  9.5234424e-01
 -3.2830462e-01
 -7.6803252e-02
  2.1557379e-01
 -1.1858906e+00
 -1.3765931e-01
 -3.9071324e-01
  2.6956084e-01
 -2.6704076e-01
 -1.3635281e+00
 -1.2116902e-01
  3.3236864e-01
  2.9992461e-01
  4.4120073e-01
 -1.8351422e-01
  1.3846184e-01
 -7.8983447e-03
  1.4253426e-01
  1.6432291e-01
 -9.0164238e-01
 -1.3086143e+00
  2.7691147e+00
  5.2711606e-02
 -5.4287165e-01
 -6.2341690e-01
  2.4079360e-01
 -7.0112085e-01
  7.6961197e-02
 -8.3830661e-01
  2.8217623e-01
 -8.4945433e-02
  5.5466600e-02
  1.1225550e+00
 -2.1636004e+00
  6.9134885e-01
  7.3144525e-02
 -1.2977072e-02
  7.4842870e-01
  4.2181942e-01
  4.9625120e-01
 -2.0961629e-01
 -3.7272793e-01
  5.4189102e-03
  7.5778872e-02
 -3.7577398e-02
 -4.6604276e-01
 -7.0458114e-01
 -4.2049088e-02
  8.5608804e-01
 -3.1196821e-01
 -1.2870506e+00
 -3.8812526e-02
  7.2373119e-03
  8.3104503e-01
  2.0149214e+00
 -2.8639425e-02
 -2.6824634e-04
  1.2667062e+00
  2.7758377e-02
  7.1549112e-01
 -1.8332936e-02
  3.7835464e-02
 -1.1003215e+00
  1.1392939e+00
 -1.8550088e-01
  8.6316392e-03
  1.6807078e-01
 -7.3614106e-02
 -5.9188291e-02
 -2.4331877e-02
 -6.3180250e-01
  3.1891122e-02
 -4.6605263e-02
  1.4899100e-01
 -3.9880764e-02
  1.1655100e-02
 -6.1304405e-02
  1.4022746e-02
 -2.6250666e-01
  3.1224060e-01
  6.7090400e-02
 -8.6570103e-03
  2.7274743e-03
  2.3147292e-02
  1.5864300e+00
 -4.9364634e-02
 -4.1228633e-02
 -9.7371101e-01
 -5.2004135e-01
 -2.2824651e-03
  7.3249497e-02
 -4.6655229e-01
 -5.0346814e-02
 -3.0455023e-02
  1.5643437e-01
 -8.8366671e-03
 -6.8795304e-03
 -5.4467660e-01
  7.5197256e-01
 -1.2990578e+00
 -8.6732650e-01
 -2.5822394e-02
  5.4751262e-03
 -8.3109863e-02
 -2.5899692e+00
 -1.0741542e-01
 -2.2017972e-01
  1.0736979e+00
 -1.7392248e+00
 -1.4086418e+00
  4.2405508e-02
 -1.3883026e-01
 -1.7595574e+00
 -1.5289048e+00
  5.7077229e-01
  8.5009560e-03
 -2.0525771e-01
 -6.1417527e-02
 -3.7370831e-02
 -1.4996742e+00
 -4.2936068e-02
  1.5868731e-02
  1.0555343e-01
  1.2496133e-01
 -6.2202108e-01
 -4.5143646e-01
 -1.2843546e-01
  6.1870437e-02
 -1.0844263e+00
 -5.0406694e-01
 -1.7866788e+00
  3.3993144e-02
  1.3013148e-01
  1.6475452e-01
 -2.0325975e+00
  3.4418009e-02
  1.5726523e-01
 -2.3690096e-01
  3.1659010e-01
 -1.5059551e+00
 -8.9717187e-02
  1.4295380e-02
  2.1937200e-01
 -5.9447441e-02
 -8.7654643e-02
 -3.7854061e-02
  1.3482467e-02
 -4.7616896e-01
  1.6498820e-01
  1.6706096e+00
  2.2810212e-01
  6.8868633e-04
 -2.0811178e-02
 -8.8050318e-01
  2.7435877e+00
 -1.8303454e-01
  1.2304334e-01
  4.0505071e+00
 -9.7993720e-01
 -2.1377764e+00
 -8.0528416e-02
  1.6781025e-01
 -1.9383669e-01
  1.8994223e+00
 -2.1453613e-01
  1.9673707e-02
  1.2771637e-03
  8.3599992e-02
 -6.5263491e-03
 -8.0036484e-02
  2.0411074e-02
  8.0136722e-03
  1.6060740e-01
  5.4897076e-01
 -4.1681650e-01
 -1.4823161e+00
 -6.9516200e-01
 -4.5151804e-02
  1.1336298e-01
  3.0209877e+00
  5.2208309e-03
  3.8911588e-02
 -1.7939621e+00
 -4.1133177e-01
  1.4600188e+00
  2.1543533e-01
  2.8574816e-03
  1.5380243e+00
  4.5187654e+00
 -2.0081498e-01
  5.7879876e-02
  1.9270083e-03
  2.6457423e-02
  1.4089178e-03
  7.6785721e-02
 -4.6512060e-02
  3.7682526e-02
 -8.2572978e-03
 -1.2408808e+00
 -6.9003516e-01
  3.1837262e-02
  3.3269435e-02
  8.6860605e-02
 -4.8481636e-02
  2.2086461e+00
 -8.3734341e-02
  3.8871076e-02
  6.4643329e-01
 -4.6950132e-03
 -2.6277265e-01
 -1.3814364e-01
 -2.0388635e-02
  9.1749138e-01
  1.0788302e+00
  2.6911682e-01
 -3.7831634e-02
 -1.6427590e-01
  7.1226105e-02
  4.5826554e-02
  1.0871855e-01
  3.8374450e-02
 -7.5291969e-02
  1.5664311e-01
  1.5852687e-01
 -6.9185412e-01
 -1.1822406e+00
  3.4650240e-02
  1.5680678e-01
 -1.4321108e-01
  1.5185651e-01
  6.3797988e-02
 -1.4624286e-01
  9.3661413e-02
 -1.1477816e+00
  7.5236934e-01
  1.0633932e-02
 -3.4202513e-01
  2.4247518e+00
 -1.4410788e+00
 -2.8792712e-01
  7.3875613e-03
  1.2100200e-01
 -7.0825121e-03
 -1.8126674e-03
  8.4295966e-02
 -1.0881908e-01
 -1.4650818e-03
  2.8079968e-02
  1.1902523e-01
 -5.6056756e-01
 -4.7261295e-01
  8.1664070e-02
  4.4606933e-03
  1.4625379e+00
  6.7561328e-01
  2.9992335e-02
  2.5416890e-01
 -2.6655126e+00
  6.5378493e-01
 -3.0841076e-01
 -3.4699917e-02
  8.3273269e-02
 -3.8925889e-01
  5.8883303e-01
 -5.8373851e-01
 -2.8741358e-02
 -1.6549994e-01
 -5.9223719e-02
 -9.3492255e-02
  3.7024301e-02
  8.0588952e-02
  2.6940904e+00
 -1.0854335e-01
 -6.0936730e-02
 -1.3038885e-02
 -1.3112235e-01
 -6.6380143e-02
  4.1523688e-02
 -8.5259646e-01
  1.0230467e+00
  1.0981559e-01
  2.3827666e-02
 -9.4572687e-01
 -1.2695369e-02
 -1.6069685e+00
 -1.2349823e-01
 -8.9486830e-02
 -1.5657555e-01
  1.7806140e+00
 -1.4035725e-02
  5.1121976e-02
  8.2528383e-02
  1.1785620e-01
 -6.3947238e-02
 -1.1473584e-02
  1.3932578e-01
 -6.8045974e-01
 -1.2016253e+00
 -1.9833291e-02
 -6.5854959e-02
  8.5033633e-02
  6.3672014e-02
 -3.4994904e-02
  6.1018495e-03
 -1.0302113e+00
  1.0140285e-02
 -2.3447980e-01
  2.8870231e-02
 -1.2565097e-01
  1.3752476e+00
 -5.3284969e-02
  1.2438700e-01
  3.1910875e-01
  3.8890867e-03
  3.0411053e-01
  5.1930990e-02
 -5.0760336e-02
  1.6076932e-02
  7.1148120e-02
  1.1401465e-01
 -5.9723914e-02
  7.1949255e-01
  1.0683072e-01
 -3.0936806e-02
 -3.8134877e-02
 -1.3734750e-01
 -4.2757384e-02
  1.4414905e-02
 -1.6214919e+00
  3.3127216e-01
 -3.8324527e-02
  1.2690912e-01
 -2.1809459e-01
  4.1761637e-02
  4.5061621e-01
  2.1182008e-02
 -2.8867344e-03
  4.2323226e-01
 -7.9850686e-01
  4.2602259e-01
 -5.0883573e-03
 -1.3074040e-01
  1.5365390e-02
 -4.4330820e-02
 -3.4813341e-03
