nep4 5 C N H Pb I 
cutoff 8 4 115 19
n_max 4 4
basis_size 8 8
l_max 4 2 0
ANN 50 0
  3.7271887e-02
 -3.5645172e-02
 -1.0009848e-02
 -8.1650048e-02
  7.3519635e-01
  9.0016544e-02
  3.0228481e-02
 -9.3838647e-02
 -6.5938056e-02
  3.2641512e-01
 -4.2260748e-01
 -5.5760834e-02
 -1.1530151e-01
 -9.1053881e-03
 -9.3937457e-02
 -7.0921130e-02
  1.8542130e-01
  2.4122879e-02
 -1.6844826e-02
  7.7329740e-02
  1.1101355e-01
  5.6805808e-02
  3.5582442e-02
  3.9980961e-03
  2.3302753e-01
  9.8980471e-02
 -2.9672423e-02
  1.8727949e-01
  3.8810071e-02
  4.3631833e-02
 -6.2975958e-02
  1.0279926e-01
  1.6235549e-02
  2.1406193e+00
  1.4110014e-01
 -8.1852153e-02
 -2.7178003e-02
  2.1255324e-02
 -4.6310943e-02
  1.4119148e-01
  2.2010239e-02
  6.6428006e-02
  5.0709885e-02
  1.6055138e-01
 -3.2392058e-01
  3.8978510e-02
 -1.0639591e-01
 -1.1350440e-01
 -4.9581691e-03
  2.4529792e-02
 -8.5014504e-01
 -1.1224448e-01
  5.4500811e-02
 -4.2455163e-02
 -1.9872552e-02
  6.4422004e-02
 -2.5741693e-03
 -4.9933072e-02
  7.3544152e-02
 -1.5662174e-01
 -1.1618392e-02
 -4.4161372e-02
 -1.7821472e-02
  5.2347109e-03
  7.9248272e-02
  3.0960115e-02
 -4.1911013e-02
 -1.0426100e-01
 -3.8190372e-02
 -8.8674881e-02
  1.4872526e-02
  6.7306147e-03
  9.2472561e-05
 -1.8904341e-02
 -6.4034522e-02
  7.3433205e-02
 -5.0016690e-02
 -3.3770379e-02
  3.2576077e-02
  4.6583075e-02
 -3.2163531e-02
 -6.4751253e-02
 -9.7508870e-02
  5.5553645e-01
 -1.1558456e-02
  1.6036274e-01
 -5.7098128e-02
  1.2319846e-02
  1.2135662e-01
  3.8590334e-02
 -1.6405931e-01
 -4.7068533e-02
  1.1787485e-01
  1.0260910e+00
 -5.3078127e-01
  1.0494837e+00
 -2.8997307e+00
  2.7954215e-01
  1.2389820e+00
  5.0693560e-01
 -8.0601156e-02
 -3.3605632e-01
  3.7550873e-01
  2.3517023e-01
  3.0804500e-01
  6.7691445e-02
  4.6453881e-01
  7.3878175e-01
  2.8156546e-01
  5.7420623e-01
  1.2361509e+00
  3.4398830e-01
 -2.6984787e-01
  6.8996683e-02
 -1.6582936e-01
  2.2101051e-01
 -3.4948356e-02
 -2.8700602e-01
  1.6866648e-01
 -4.0350622e-03
 -1.9331684e-02
  1.8051418e-02
 -4.7955081e-02
  3.5869479e-02
  2.3090564e-02
 -6.4772710e-02
 -3.6597773e-02
 -2.4334060e-03
  7.7597719e-01
  1.0226563e-01
  6.2905438e-02
  4.1758376e-03
 -1.2463034e-01
  2.3611989e-02
  1.7964955e-02
 -1.1417459e-02
 -2.6797168e-02
 -5.8715887e-02
 -1.6641310e-01
 -6.4138891e-03
  3.1001562e-01
 -1.8172614e-02
  6.6235706e-02
 -2.8923966e-02
  5.2461408e-02
 -9.3398280e-03
 -2.4794035e-02
 -1.5696177e-02
  6.4205728e-03
 -4.3918673e-02
 -5.4975584e-02
  1.6735013e-01
 -1.4691497e-02
  6.6680978e-03
  2.2099845e-02
  3.5295483e-02
 -1.3600098e-02
  1.9114280e-02
  7.1226871e-01
 -3.2165616e-03
  8.0123596e-02
  5.6992732e-02
 -1.8251842e-01
  2.4926988e-02
 -1.1124989e-01
  5.6760576e-02
  8.5033759e-02
  2.2173347e-01
 -5.9382482e-03
  2.0043295e-02
  2.3303792e-02
 -6.0625710e-02
 -1.0043376e-02
  7.0390537e-02
 -4.1015297e-02
  4.0337712e-02
  4.8490554e-02
  7.0121758e-02
 -1.1352380e-01
  4.7498334e-02
  9.4100339e-03
 -1.3949637e-02
 -1.8720513e-02
 -3.1352684e-02
  9.4595626e-02
 -3.4658689e-02
  3.1643055e-02
  5.2863568e-02
 -3.0608582e-01
 -3.0082392e-02
  5.0168902e-02
  1.5167051e-02
  7.0393756e-02
 -1.9426931e-02
  6.2184293e-02
 -4.0607713e-02
 -7.4624181e-02
  7.9792179e-02
  6.1546057e-02
  3.1053845e-02
 -6.9546354e-01
 -3.1323779e-02
  2.0187771e-01
  1.0450585e-02
  3.1296264e-02
  1.0648724e-01
  2.8961232e-01
 -4.4919766e-02
  3.6153926e-03
  4.4262059e-02
 -2.7968938e-02
  1.1051538e-01
  8.3767802e-02
  5.9061900e-02
 -1.7058888e-02
  6.2664211e-02
  1.2569921e-02
 -8.1341915e-02
  4.8182439e-02
 -1.5098172e-01
  3.9704949e-02
  5.8090176e-02
 -1.5188681e-01
 -2.8381968e-02
 -4.0513970e-02
  6.3199662e-02
  4.5896288e-02
 -9.9001825e-03
 -1.9268222e-02
 -1.8014200e-02
  4.0232010e-02
  8.5370921e-02
  4.2240031e-02
  2.7279643e-02
  9.7486682e-02
  6.1936110e-02
 -5.5185486e-02
  1.8033922e-02
 -5.1354576e-02
 -9.2705730e-03
  1.0457574e+00
 -9.0478688e-02
  1.3306164e-02
  4.5664836e-02
  7.8753673e-02
  6.0792949e-02
  3.1991598e-01
 -5.9956931e-02
 -1.1068676e-01
 -2.2531147e-01
 -4.3334510e-02
 -4.7549389e-02
 -9.9283233e-02
 -3.1854048e-02
  2.2763858e-02
  5.0506696e-02
  1.3149117e-01
 -2.9936593e-02
  2.9999250e-01
 -2.0938146e-01
  3.4474581e-01
 -3.0547759e-02
  7.2103046e-02
  5.2928943e-02
 -1.8745679e-02
  1.0044603e-01
 -8.9794040e-01
  5.7032585e-02
 -1.4968470e-01
 -4.2729650e-02
  5.8309887e-02
  1.7475118e-01
 -6.3657039e-01
  6.2278557e-01
  4.6223193e-01
  5.4468326e-03
  1.3068232e-01
  8.3979815e-02
  8.3863355e-02
  5.2383430e-02
 -7.4640073e-02
  3.0217651e-02
 -4.5655094e-02
  5.4812420e-02
 -3.4726515e-02
 -5.1738197e-01
 -3.0314915e-03
  8.5291706e-02
  1.7882518e-01
  7.0458261e-04
 -1.1031604e+00
 -8.4352881e-02
 -2.0040240e-02
  1.6918190e-01
 -1.6542055e-01
  7.7836849e-02
  6.8421617e-02
  1.3517141e-01
  2.4644122e-01
 -6.1595488e-02
  1.0204326e-01
  5.3632027e-03
 -8.4727716e-01
  9.8023564e-01
  2.1410146e-01
 -1.7609385e+00
  4.1276389e-01
  5.0644413e-02
 -5.2296662e-01
 -9.0160161e-01
 -9.4697392e-01
 -4.0165748e-02
 -6.0922563e-01
  2.0561530e-01
 -7.0633900e-01
  2.0965843e+00
  1.3228799e-01
 -1.3070227e+00
  3.3771247e-01
 -7.7178448e-01
  7.7813298e-02
  8.7150264e-01
 -4.6263584e-01
  3.7807676e-01
 -2.8564379e-01
 -3.7662897e-01
  1.0688163e+00
 -9.1719590e-02
 -9.3529809e-01
 -7.6075323e-02
 -3.7279762e-03
 -1.6824959e-01
 -1.5275018e-01
  2.7540788e-01
 -9.7663319e-03
  7.3297799e-02
 -1.1623226e-02
  7.0858277e-02
  4.7855946e-01
  4.7592979e-02
  1.4719903e-01
  1.1754602e-02
  5.3121112e-02
 -2.0734418e-02
 -8.8286504e-02
 -2.1013159e-01
 -4.5836973e-03
 -5.5120990e-02
 -5.9344340e-02
  1.3116618e-01
  3.4802845e-01
  2.0533755e-02
  6.7897946e-02
  5.8195584e-02
 -2.8423119e-02
  3.4272816e-02
  1.8238930e-02
  2.0962845e-01
  4.4237062e-02
  3.0857265e-02
  2.2056151e-02
 -4.2359870e-02
 -6.6355988e-02
  1.0632932e-01
  2.4684305e-01
 -3.8766805e-02
  8.9950643e-02
  7.2923556e-02
  1.3542295e-02
  6.0208183e-02
  1.1633013e-02
  2.9451475e-01
 -6.9168401e-03
  6.6839173e-02
 -2.3654846e-02
  1.4108866e-01
  4.0522408e-01
 -1.4189048e-01
 -3.4183341e-01
 -4.3276537e-02
 -3.4724548e-01
 -3.1081820e-02
 -2.6410762e-02
 -2.5762609e-01
  2.4192910e-01
 -1.0857637e-01
  4.9538317e-04
  4.8268315e-01
  1.1067627e-02
 -4.1987818e-02
  7.6254350e-01
  1.0830954e-01
 -1.0425056e-01
  2.6114279e-01
  4.9768069e-01
  4.1216040e-01
  2.6912346e-01
  8.2283847e-02
  9.1137893e-02
 -9.1033615e-02
 -1.1980954e-01
 -1.1094395e-02
 -8.9701846e-02
  2.6344177e-01
  5.1350001e-04
 -1.8515880e-01
  8.3768837e-02
 -6.0357124e-02
 -3.0430233e-01
 -3.3661720e-01
  2.9801693e-02
  2.9998717e-01
  5.4448187e-01
 -1.3586670e-01
  8.5152388e-03
 -1.0198540e-01
 -6.7772329e-02
  1.6415130e-01
 -1.2374763e-01
  1.0614417e-01
 -9.7583014e-01
  4.1305475e-02
  4.8975673e-02
 -2.0768569e-01
  1.7038408e-01
  2.8596742e-02
  1.0229164e-01
  1.3837636e-01
 -2.2614221e-03
 -4.7768928e-02
  3.6569938e-02
  5.3751376e-02
  8.1104480e-02
 -1.0651463e-01
 -6.8930000e-01
  3.1644892e-02
 -4.6391435e-02
 -8.1197303e-03
  1.0452269e-02
  4.4748946e-03
 -9.0697883e-03
  9.6641006e-03
 -8.7293744e-02
 -2.5815172e-02
 -1.3111345e-01
  1.0190521e-02
  8.7129608e-02
  2.2375152e-02
 -4.0998474e-02
  2.2436516e-01
 -5.1961817e-02
 -8.0422834e-03
 -7.7141789e-03
 -1.2243577e+00
 -5.0531376e-02
  1.7283270e-01
 -8.2474891e-03
 -2.8517810e-01
  5.8056775e-02
  4.8950702e-02
 -3.5466790e-02
 -3.1172815e-03
 -1.4109497e-01
 -9.1589868e-02
 -7.1954817e-02
  7.2128337e-04
  1.7360610e-01
  1.0649364e-02
 -2.3750117e-02
  8.5201901e-01
  1.9409279e-03
  7.0135812e-03
  5.3971242e-03
  1.7076679e-01
 -8.3866296e-03
  4.9103512e-03
  3.7895162e-02
 -3.6289886e-02
 -4.0301517e-02
  1.9153040e-02
  7.2191037e-02
 -1.2361716e-01
  5.1470332e-02
 -1.0599301e+00
 -1.6184360e-01
 -7.4583471e-02
 -7.4367472e-03
  2.7866360e-02
 -6.4596504e-02
 -1.0678069e-01
 -2.5012361e-02
  1.4729389e-02
 -1.5110762e-02
  9.5031038e-02
  6.9168517e-03
 -7.9677916e-01
 -4.4443548e-02
  5.7181460e-01
 -3.5630852e-01
  5.9579248e-03
  1.7909756e-02
  5.1122390e-02
 -7.5493969e-02
  6.6717796e-02
 -9.7923857e-01
 -2.1666298e-02
 -4.9629498e-01
  1.0949968e-02
  3.8113771e-03
 -7.1429819e-02
  7.8873903e-01
  8.1585631e-02
  4.0143958e-01
 -1.0801890e+00
  8.5840382e-02
 -6.2880114e-02
  2.6376264e+00
  3.2753460e-02
  6.4075559e-02
  1.9519718e-01
 -4.4015065e-01
 -9.2707866e-01
  3.7541941e-01
  1.6570406e-02
  2.7553378e-02
 -3.2480385e-02
 -7.9905055e-02
  1.9915931e-01
 -1.2399290e-02
 -1.0252708e-01
  4.3769753e-01
 -1.4107350e-01
  3.1243190e-01
  3.5007966e-01
 -3.8767934e-02
  8.0047108e-02
  4.7395308e-02
 -1.4621627e-01
  3.4885369e-02
  4.9621230e-03
 -1.6931385e-01
 -2.4773468e-01
 -6.4391947e-01
 -1.3212786e+00
 -3.8235077e-01
  4.0352920e-01
  1.3459848e+00
 -3.9679389e-02
 -3.7370309e-01
 -6.0925096e-02
 -1.5050461e+00
  1.2019526e+00
  1.2898050e-01
  1.2668173e+00
  3.3672270e-03
  8.8002533e-01
  3.3182290e-01
 -4.1190695e-02
  3.1835723e-01
 -2.4919762e-01
  5.0915676e-01
  5.6719702e-02
  5.7264000e-01
 -3.3491489e-02
  7.7223398e-02
 -1.3595637e+00
  3.8640186e-01
 -1.3937346e-02
 -6.6304368e-01
  1.2053212e-03
 -2.4704615e-02
 -5.2158129e-01
 -2.1562064e-02
  1.4728795e+00
  2.1008019e-01
  9.7893953e-02
  1.2442201e-01
 -4.0401778e-01
 -6.2298626e-02
 -3.7629545e-01
  6.6328913e-02
  1.4324085e+00
 -2.9151538e-01
 -2.4181608e-02
 -6.6090935e-01
  1.1661968e+00
  3.2459912e-01
 -4.4652198e-02
  5.6507987e-01
 -4.8353153e-01
 -9.1817886e-02
 -2.3653013e-01
 -3.0146959e-01
  3.4404576e-02
 -5.9410006e-01
  2.2535936e-03
  4.1413555e-01
  1.0195310e-02
 -3.8589382e-01
 -4.7082789e-02
  3.7109271e-02
  1.3502349e-01
  3.2584992e-01
  7.0461595e-01
  8.6787498e-01
 -4.1991317e-01
 -4.9692684e-01
 -3.2108703e-01
 -8.8862598e-01
 -7.0540917e-01
 -1.3696698e+00
  1.5528025e-01
 -9.4653612e-01
 -1.0264051e+00
 -8.0091351e-01
  2.4369067e-01
  4.2285610e-02
 -8.7107235e-01
 -4.8106056e-02
 -8.1688035e-01
 -1.1786609e-02
 -7.3486999e-02
 -7.8730500e-01
 -6.9604760e-01
 -2.6578510e-01
 -3.9404568e-01
  3.5974276e-01
  2.5990553e-02
 -5.2594012e-01
  2.2542167e-01
 -2.7753541e-02
 -1.4035098e-01
 -3.2133996e-02
  9.8708786e-02
  4.3072574e-02
 -1.7175822e-03
 -1.1322428e+00
  4.3816451e-02
  4.2821415e-02
  3.2401425e-01
  3.0682358e-01
 -3.8967788e-01
  2.5197353e-02
  3.1379022e-02
  5.2266234e-01
  1.0504115e+00
 -1.9615774e-01
  1.0162678e+00
 -2.2202866e-01
  6.4799923e-01
  3.9918134e-01
 -1.5969883e-01
  2.9550925e-02
 -7.9078525e-01
  4.1287088e-01
 -3.9304382e-01
  8.8703024e-01
 -2.7279976e-01
  3.3798149e-01
  1.7135043e-02
  1.8151362e-01
  1.7873280e-02
  2.4554355e-01
  6.4512111e-02
 -6.5796310e-03
 -7.4653894e-02
  9.6425489e-02
  1.3184497e-01
  4.2955201e-02
 -2.0979388e-02
  2.3556134e-01
 -3.4529720e-03
 -4.6362139e-02
 -8.2275048e-03
 -1.8734857e-01
  2.8843388e-02
 -3.0347848e-01
  5.0838213e-02
  7.0483886e-02
 -1.3994879e-01
  8.5015424e-02
  4.5609694e-02
  3.9827410e-04
  6.6935502e-02
 -6.3249946e-02
  9.9282309e-02
  2.2909934e-02
  6.0279664e-02
 -8.8677943e-02
  2.0323513e-02
  9.8031409e-02
  8.3060004e-03
  1.4882360e-01
  2.0505600e-02
 -5.4064810e-02
 -5.4049898e-02
 -9.2596225e-02
  9.0237990e-02
 -9.1722822e-01
 -2.8815251e-02
  6.4263918e-02
  1.0342152e-04
  1.5037717e+00
 -4.9983714e-02
 -4.5698456e-02
  8.8137593e-03
 -4.2138794e-03
 -6.8420833e-01
 -2.0588368e-02
  2.0701023e-02
 -1.5098231e-02
  1.2776837e-01
 -1.1165751e-01
 -5.6477180e-03
  2.4358949e-02
  1.7712882e-02
 -6.0334075e-02
 -4.1752212e-02
  3.1816545e-01
 -7.5624526e-01
  1.2484170e-02
  7.2950488e-03
  1.9319014e-01
  4.4695709e-02
 -6.2675057e-03
  2.1732321e-02
 -6.0434496e-01
  4.3289300e-02
 -2.5578693e-02
 -4.9107026e-02
  2.0931976e-02
 -2.6802760e-02
 -7.2725518e-03
 -9.3153024e-01
 -4.3541706e-01
  6.1180342e-02
  2.9603717e-01
 -5.6850810e-02
  2.0905268e-01
 -7.9737194e-02
  1.4600825e-01
  1.4741503e-01
 -2.0933701e-02
 -6.7506529e-02
 -8.1367537e-02
 -4.9128119e-02
  1.6594183e-03
  6.2727101e-02
 -1.4269981e-01
 -6.6385218e-03
  1.3855568e-01
 -3.6085274e-02
  2.6539311e-01
  2.4067500e-01
  1.7317347e-01
 -4.6614498e-01
  1.4873931e+00
 -2.5472161e-01
  3.9684843e-02
 -8.2444984e-01
 -3.2485703e-01
  3.7824169e-01
 -2.9852006e-01
 -1.5654029e-02
 -4.3188012e-01
 -6.1084569e-02
  1.3340294e-01
 -5.5053556e-01
 -7.2150037e-02
 -4.0842071e-01
  1.0529722e+00
  1.0047595e-01
 -3.5762980e+00
 -1.0423135e-01
 -3.3569396e-01
 -3.5297778e-01
  3.6196444e-02
  9.0024553e-02
 -3.2095799e-01
 -1.6716418e-01
 -4.6569705e-02
 -4.3749541e-02
 -6.5182120e-02
  2.9983681e-01
 -3.4750305e-02
 -2.8059341e-02
  3.1487155e-01
 -6.9201723e-02
 -9.4031781e-02
  4.5008582e-01
  2.9852353e-03
  3.3075895e-02
  4.3350896e-03
 -3.0084309e-01
 -4.0803868e-02
  7.5347602e-02
  1.5329194e-01
 -1.1359875e-02
  1.6083125e-02
 -3.5894632e-02
  6.1791487e-02
  4.2813821e-03
  1.1063349e-01
  5.4993361e-02
 -2.1030128e-02
 -1.7557541e-01
 -1.1243924e-01
  1.9711937e-01
  3.6620957e-01
 -1.2862884e-02
 -2.9808609e-02
 -4.7085080e-02
  4.8409022e-02
  1.2664327e-02
  2.0915139e-02
  5.1041166e-03
  9.7540587e-02
 -8.1765898e-02
 -4.0496409e-02
  6.6251770e-02
  6.1371442e-02
  5.0235219e-02
 -1.3597760e-02
  1.8660024e-02
  4.2046633e-02
 -5.9873261e-02
 -3.3826064e-02
 -2.9987942e-02
  3.4629710e-02
  2.7123252e-02
  3.5333630e-01
  2.3887176e-02
  7.4824825e-02
  8.9320868e-01
 -3.3465758e-02
 -1.3352742e-03
  1.5117687e-02
 -1.4865736e-02
 -1.6085532e-02
  8.5673526e-02
 -1.9394126e-02
  6.5783344e-02
 -3.0199720e-02
 -4.4290539e-02
  3.1954926e-02
 -5.9237566e-02
 -9.3894966e-02
 -1.3140032e-01
  8.1505269e-02
 -4.2754307e-02
  2.1240499e-02
  1.6799854e-01
  3.1573609e-02
 -9.1150984e-02
  2.2815999e-01
  3.3520891e-03
  1.8730193e-01
  1.1545370e-01
  7.5653099e-02
  5.0343554e-02
  1.1782197e-01
 -5.9124727e-02
  3.7066229e-02
  1.6024365e-03
  1.0321796e-02
 -2.3553789e-01
 -4.4345055e-02
 -8.3583072e-02
 -1.0353529e-02
  1.1818606e-01
  1.4119014e-01
 -2.6039463e-01
 -9.7016998e-02
 -5.0662082e-02
  7.2182107e-01
  1.8303937e-01
  1.1238306e-01
 -1.0803969e-01
  2.6256125e-02
 -3.7873022e-02
 -6.4367302e-02
  5.5843282e-02
 -1.0599592e-01
  7.9824865e-02
  7.2107110e-03
  4.6188331e-01
 -4.0618577e-03
  7.7685155e-03
  7.3574938e-02
 -2.3858773e-02
 -1.5879784e-02
  1.4699467e-01
 -4.2159565e-02
 -2.1143196e-02
  1.3249549e-01
 -1.5364782e-02
  1.0349256e-03
  1.5092561e-01
  7.6071411e-02
  2.4491644e-02
  4.3801207e-02
 -2.3377219e-02
  5.8794688e-02
  5.2426033e-02
 -8.6622640e-02
  1.5768805e-01
 -1.4529848e-01
 -6.9499232e-02
  3.1659320e-02
 -3.1530154e-01
 -3.7425414e-02
 -6.4124208e-04
  9.9488437e-02
  2.3806237e-02
  1.6117765e-01
 -2.6151415e-02
 -6.3249469e-02
  1.1614501e-02
 -4.5098629e-02
  1.9249819e-01
 -6.1565157e-02
 -2.0332450e-01
 -2.5274032e-01
 -5.1759697e-02
  1.3812108e+00
  1.8243939e-01
  1.3305963e+00
  4.2706724e-02
  3.7154359e-01
  1.4690597e-01
 -3.6191911e-01
  2.7288678e-01
 -1.4942746e-02
  1.7551970e-02
 -5.2247192e-03
  7.4195810e-02
  6.1906286e-02
 -5.1919602e-02
 -1.0105199e-01
 -6.2659815e-02
 -4.0671807e-03
 -7.7896034e-03
  7.1711768e-03
  1.9619223e-02
 -1.3158448e-01
 -9.6775731e-03
  4.2873029e-02
  2.2659678e-02
 -1.2986418e-02
  3.4033856e-01
 -2.1192035e-02
 -4.5325011e-03
  4.9741786e-02
  1.1779599e-01
 -4.4159153e-01
 -1.3325496e-01
  1.2958596e-02
 -2.8223660e-02
  4.5961600e-02
 -3.3858690e-01
  2.3707645e-02
  1.4769877e-01
  7.2233543e-02
  3.0005571e-02
 -1.2247700e-01
 -1.3257053e-02
  6.8855725e-02
  6.9083959e-02
 -4.3571781e-02
  2.0547355e-02
  1.8878077e+00
 -1.2644421e-01
 -8.8860795e-02
 -2.9445261e-01
 -5.2096833e-02
  3.1319734e-02
  1.0477914e-02
 -1.2384246e-01
 -2.6593288e-02
  1.0633552e-02
 -9.7124350e-01
  1.7105931e-01
 -7.5259201e-02
 -5.4084432e-01
 -5.0048750e-02
 -2.1715598e-01
 -3.4704832e-03
 -7.8302644e-02
 -4.0036421e-02
 -5.1864488e-03
  3.0689862e-02
  1.3744886e-01
 -6.9469072e-02
  1.3166095e-01
  6.3830830e-02
 -1.3770379e-01
  1.5183344e-02
  1.1358497e-03
 -4.2071596e-02
 -1.4245543e-01
 -2.1957357e-03
 -5.7372600e-02
  9.8714739e-02
  3.8876425e-02
 -6.5978542e-02
 -1.5896076e-01
 -1.4214573e-02
 -4.3536518e-02
 -3.3538379e-02
 -4.0791669e-01
  3.7791207e-02
  1.0235637e-01
  1.4969186e-02
 -2.8542915e-01
  2.3699826e-02
 -4.8561979e-02
 -3.0345571e-01
 -1.1381908e-02
 -3.4460105e-02
 -2.3614444e-02
  3.1616217e-01
 -1.3799664e-02
  1.8388346e-02
 -5.7457340e-01
 -3.0028500e-02
 -4.2186324e-02
 -9.0917975e-02
 -5.1258989e-02
  1.6026312e-03
 -1.9484738e+00
  1.7938985e-02
  6.2851317e-02
  1.3125765e+00
  1.7097399e-02
 -4.5649193e-02
  2.1978235e-02
 -3.7393022e-01
 -5.3435951e-03
  9.8121271e-02
  1.2709378e-01
 -4.6754324e-01
 -7.1653366e-02
 -1.1624359e-02
 -7.0044421e-02
 -7.8419633e-02
 -1.0377161e-02
 -1.1036961e-01
  7.6968543e-02
 -8.0065109e-02
  2.7424159e-02
 -3.8846392e-02
  1.0762905e-02
  4.5027318e-03
  1.1525710e-01
  5.9224673e-02
  3.2457876e-01
 -1.0636535e-01
 -2.3437063e-03
 -2.5172897e-02
 -8.7922178e-02
  7.4799180e-01
 -2.0647775e-02
 -1.6732153e-01
  5.9927940e-02
 -4.0553506e-02
  4.7903821e-02
 -1.4835226e-02
 -1.1332091e-02
  1.2822751e-02
 -4.6808980e-02
  3.0057904e-01
  1.8147393e-01
  6.1831057e-02
  6.0408283e-02
  2.0781362e-01
 -2.5825242e-03
  9.7798795e-02
  7.2766311e-02
 -1.6277535e-01
 -2.6975691e-02
 -4.3835333e-01
 -2.4096006e-01
  3.3696715e-02
 -5.8114015e-02
 -3.5851774e-01
 -1.7430333e-02
  1.8319657e-01
  4.7967702e-02
 -1.3696416e-02
  1.5580666e-01
  2.4808790e-01
  5.2942250e-02
  3.2417774e-02
  4.1987979e-01
  8.1029695e-01
 -6.1022680e-02
  7.1543306e-01
  1.3248923e-01
  2.1688612e+00
  6.3445427e-02
  3.0993521e-01
 -8.6143297e-01
 -6.7574494e-02
 -4.8835286e-01
 -4.3430388e-02
  7.2662763e-02
  4.0916628e-01
 -1.2268157e-01
 -1.8123051e-02
  4.7383092e-02
  4.2023953e-02
 -5.9953723e-02
  1.1633501e-01
 -5.4312471e-02
  1.5471523e-01
 -1.8099822e-01
 -2.7413299e-02
  6.0590740e-02
 -8.2151061e-03
  3.6088243e-02
  1.4924366e-02
  6.2312715e-02
  1.4629392e-01
 -7.0613116e-02
  3.7361562e-02
 -3.7319142e-02
  1.1137579e-02
 -5.4484896e-02
  1.4299358e-02
 -1.0191207e-01
  5.9565103e-01
  5.6789972e-02
 -4.8660982e-02
  1.4243644e-02
  3.5018951e-02
  3.1602460e-01
  8.0197603e-02
 -4.2441036e-03
 -1.9669207e-02
 -1.5867105e-01
  2.3802218e-03
  5.0667837e-02
 -7.1043186e-02
 -1.1056701e-01
  2.9006755e-02
 -5.1641051e-02
 -1.2541579e-01
 -1.3786405e-02
  7.3348500e-02
 -7.2622210e-02
 -6.7511825e-03
 -3.9466061e-02
  9.4737902e-02
  1.6155851e-01
  6.0116634e-02
 -1.3355295e-01
 -4.5554224e-02
  1.5180320e-02
 -1.1093616e-01
 -1.0122316e-02
 -2.9341741e-02
  4.3048691e-02
  4.7499094e-02
 -4.5810273e-01
 -5.7511933e-02
 -3.6003646e-02
  3.9693981e-02
 -1.9792624e-02
  4.9682348e-03
  4.6105236e-02
  8.9942299e-02
 -6.5310420e-03
  1.6158605e-02
 -1.3751746e-02
 -7.6471768e-02
 -3.0059243e-02
 -7.7819310e-02
 -5.0034177e-02
 -8.6930864e-02
 -3.3383027e-02
 -1.4054650e-02
 -2.3495543e-03
  2.6482001e-01
 -3.7270479e-02
 -5.6454819e-02
  2.6034293e-01
 -5.2864864e-02
  2.9397240e-01
  9.2103787e-02
  5.7266548e-02
 -4.4616818e-02
 -1.8649280e-01
 -1.2247642e-01
  4.1935626e-02
 -3.6206961e-01
 -7.9863751e-03
 -2.1181160e-01
  7.7666934e-03
 -7.1383178e-02
 -1.1909756e-01
  1.2249646e-01
 -2.5214655e-02
 -4.6390995e-02
 -7.4880689e-01
 -6.6585205e-02
 -1.0939330e-02
  1.3658686e-01
  6.0441915e-02
 -4.6072906e-01
 -7.8962758e-02
  1.2449698e-01
 -4.9038850e-02
 -1.6469061e-02
  4.7484044e-02
 -4.4633251e-02
  3.9091248e-02
  1.1295223e-02
 -3.5891324e-02
 -3.5961736e-02
  4.0313836e-02
  3.4356803e-01
  7.8257367e-02
  3.0570760e-02
 -2.0010006e-02
  9.7076103e-02
 -1.3752270e-01
 -1.5261574e-01
 -3.1283960e-02
  3.3199824e-02
  1.3522801e-01
 -9.0062998e-02
 -9.4910348e-03
  6.9784755e-01
  1.7994006e-04
  3.0762509e-01
  5.3445327e-01
 -5.9634037e-02
 -3.8832580e-03
 -3.7352964e-01
  2.8026756e-02
  1.2385726e+00
 -2.1305893e-01
  3.0789608e-03
 -4.6287894e-02
  3.3548132e-02
 -1.5172604e-01
 -6.2247419e-01
  3.6309901e-01
  9.2840105e-02
  1.3791941e-01
 -3.1708184e-01
  3.7501365e-01
 -1.4363737e-01
 -1.4520875e-01
  9.0962484e-02
  1.1804109e-02
  2.0477922e-01
 -3.3350304e-02
  3.6756250e-01
 -2.7797487e-02
  8.7318256e-02
  9.6126795e-02
 -7.9563791e-03
 -2.2622083e-01
  4.6057556e-02
 -1.3546728e-02
 -6.2727809e-02
  3.2370713e-02
 -2.4658303e-01
  1.2383095e-01
  2.6304953e-02
 -2.2861731e-01
 -2.2348130e-02
 -1.1505400e-02
  7.0491970e-01
 -1.1709040e-02
  4.3845829e-02
 -3.3352416e-02
  2.1631818e-03
  4.4757642e-02
  3.2788932e-02
  7.8786835e-02
 -1.0729197e-01
  4.3191519e-02
  8.1157265e-03
 -1.5744652e-01
  2.4934410e-01
  8.6424477e-02
 -5.0649814e-02
  6.0095865e-02
 -2.7995992e-02
 -1.4585228e-02
  8.0583878e-03
 -1.2681715e-01
 -6.7069724e-02
 -3.2448009e-02
  5.0313339e-02
 -8.0996208e-02
  2.9401366e-02
 -3.1994174e+00
  4.0955153e-01
 -2.9412898e-01
 -5.6796428e-02
  1.0710226e-01
  1.5103422e-01
 -1.3661538e-01
  5.7734203e-02
 -1.1954877e-01
 -1.7343327e-01
 -1.9927998e-01
  1.2317629e-01
  3.7719108e-02
 -6.5348387e-02
  1.9475845e+00
 -9.6466690e-02
  9.1279801e-03
  5.8998559e-02
 -7.1710765e-02
  2.1991087e-02
 -7.5489515e-03
  2.5891148e-02
 -8.4766574e-02
 -4.4293042e-02
  1.7886797e-02
 -4.4297155e-02
  6.4875386e-03
 -2.7241495e-02
  1.3874064e-01
 -5.8280744e-02
  1.3301841e-02
 -5.0780501e-02
 -3.6785685e-02
 -8.2554005e-02
  3.6056079e-02
  8.4348107e-03
 -1.4485124e-02
 -7.8550339e-02
  1.2962368e-02
  1.1850233e-03
  3.5360470e-02
  6.4833728e-03
  2.0692360e-01
 -9.4446175e-02
  1.4398235e-01
  1.5918899e-02
 -6.5669179e-02
  3.3659521e-02
 -6.4140514e-02
  4.8470851e-02
 -2.2322619e-02
 -1.5400593e-01
 -8.1931168e-01
  2.8957281e-01
  4.9405044e-01
  4.2515796e-01
  1.9542041e+00
 -2.1875484e+00
  5.1661663e-02
 -2.2045863e-01
  4.7925541e-01
 -1.2618499e+00
 -1.0216773e-01
  3.1758803e-01
 -2.6656749e+00
  1.7824543e-01
 -4.6611813e-01
  1.4792545e-01
  3.7164208e-02
 -1.3365299e-01
  2.8114378e-01
  5.3024691e-02
  4.1885063e-01
 -4.5244864e-01
  3.7098009e-02
 -2.8870967e-01
  9.5107949e-01
 -1.1162972e-01
 -2.4700747e-01
 -3.6020081e-02
  1.5585226e-02
  1.2642416e-02
 -3.3312380e-02
  1.4849031e-02
 -3.6016570e-03
 -8.9283265e-02
  4.5866162e-02
 -4.8000714e-01
 -9.4370984e-02
 -4.0038541e-02
  1.5673999e-02
  1.4927165e-01
 -1.0904031e-01
 -1.0072178e-02
 -8.9193061e-02
  3.2447319e-02
  3.1428281e-02
 -1.3006923e-01
  2.5636125e-02
 -2.8763383e-03
  5.4345030e-02
  7.4549759e-04
  8.6508438e-02
  6.0545206e-02
 -1.0875873e-02
  3.3844896e-02
  7.7652626e-02
 -1.2286488e-02
 -6.9301061e-02
 -5.0359502e-02
  1.5660772e-01
 -5.2180403e-01
  1.8146043e-03
 -1.7991507e-01
  1.4283782e-01
  6.0949586e-02
 -3.5557341e-02
  6.6869003e-03
 -7.9707522e-04
  2.8562825e-02
  5.6831684e-02
  2.8453037e-02
 -1.1948293e-01
 -3.0398330e-02
 -9.1540731e-02
  2.9254779e-02
 -1.0218419e-02
  1.6778728e-02
  4.7408892e-03
  1.0326985e-01
 -1.2261204e-01
  1.0012572e-02
 -1.6921170e-02
  1.1757028e-01
 -9.5697835e-02
 -7.0432663e-02
 -5.0287332e-02
 -8.2968712e-02
 -1.1374179e-01
 -5.3399117e-03
 -9.5317503e-03
 -1.9338565e-01
  1.3862541e-02
 -2.1870141e-01
 -1.9364515e-02
  2.0501873e+00
  1.9005388e-02
 -7.5673230e-02
 -5.8767991e-03
 -1.6913972e-03
 -4.1655473e-02
  1.4408228e-02
  5.1096100e-02
  8.0824040e-02
 -2.8722771e-03
 -6.0398225e-02
 -2.6098281e-02
  3.5339892e-02
 -1.5595144e-02
  8.4021218e-02
 -2.7258054e-03
  5.1404953e-02
  1.8090969e-02
 -5.1697241e-03
  1.9933730e-02
  8.7167490e-03
  7.6220298e-01
  6.3220777e-02
  7.8110443e-03
  2.6621178e-01
  3.4865920e-02
  3.4976650e-02
  2.5186563e-01
  5.8771539e-01
  1.5129310e-03
  1.9687619e-02
 -4.6394356e-03
  2.3206372e-02
  3.2247283e-02
  9.5771693e-02
  2.1720512e-01
 -1.4106487e-01
 -1.0946680e+00
  1.7085654e-01
 -2.7111956e-01
  1.2591307e-01
  4.9477437e-01
 -4.0535858e-01
  9.3718326e-01
 -3.5724860e-02
  5.8395445e-01
 -2.1924768e-01
  3.8656870e-01
 -6.4346004e-01
  2.3174238e-01
 -1.3483602e-01
  2.7878228e-01
 -6.7968383e-02
 -7.1564394e-01
  7.6568443e-01
 -1.7686594e-02
  5.1691122e-02
  5.1550764e-01
 -7.3931627e-03
  4.8058900e-01
 -8.6232480e-03
 -2.2538185e-01
  3.5757434e-02
  7.0609540e-02
 -3.8028181e-02
  1.0168558e-01
  1.5074532e+00
 -3.7459463e-03
 -3.6230043e-01
 -5.1827203e-02
 -1.8726766e-01
 -4.4358923e-04
 -1.4316421e-02
  3.7999604e-02
 -3.4798828e-01
  1.1922318e+00
 -1.3849959e-01
  3.5200042e-03
 -2.9726474e-02
  1.0386878e-01
  3.4354669e-03
 -2.5645393e-01
 -9.8202810e-02
 -4.7164463e-02
 -7.1247035e-01
  9.3607292e-02
  7.3346369e-02
  1.5197818e-01
  1.9561009e-01
 -5.8858320e-02
 -3.0078813e-02
 -9.2864586e-03
  6.7469382e-01
  1.2103686e-01
  9.9687800e-03
 -1.0128513e-02
  1.7033642e-02
  2.3832816e-01
 -2.0305453e-01
  4.2603839e-02
 -9.7568698e-02
 -9.0713149e-01
 -2.9894989e-02
 -2.5894383e-01
 -1.6733127e-03
  2.5616804e-01
 -2.0853457e-01
  2.9972556e-01
  8.5311063e-02
  1.1245315e+00
  1.1436728e-02
  3.0728115e-02
  1.1852866e-01
 -2.5041673e-01
 -4.5402676e-01
  4.9404377e-01
 -1.3173598e+00
  1.3458750e-01
 -4.8635924e-01
 -8.2604331e-01
 -6.6609986e-02
 -1.1645461e-02
 -5.5032741e-02
  5.6199974e-01
 -1.4312881e+00
 -1.1086557e+00
 -1.4768642e+00
  1.1056774e+00
 -1.5724057e-02
  1.8168344e-01
 -1.8860531e-01
 -9.9160236e-01
 -5.5076468e-01
 -6.6081337e-03
 -9.7441167e-02
 -2.4998538e-02
  4.9903136e-01
  2.1728896e-02
 -4.6385241e-01
 -3.6881518e-02
 -1.2221787e-01
 -2.5652957e-01
  5.5689561e-01
 -1.7515589e-01
  7.0924118e-02
  3.0424880e-02
 -3.8532972e-01
  6.4635712e-01
 -9.7912140e-02
 -1.2944487e-01
  7.1860410e-02
  1.4354690e+00
  2.4720833e-02
 -1.7477816e-01
 -4.9803883e-01
  1.5839807e+00
  5.5871874e-01
 -7.5295854e-01
 -6.3381010e-01
 -8.0716230e-02
  3.8129970e-01
  2.9624332e-02
  1.0545778e-01
  3.8070567e-03
 -1.3116719e+00
 -1.6627232e-02
 -5.2991796e-01
  1.0995354e-01
  1.7592384e-01
 -4.7784127e-02
 -2.2558577e-02
 -1.0581138e-02
  5.5611525e-02
  4.4494223e-02
  1.9964335e-02
  1.1680290e-02
 -2.2750711e-02
 -2.0642400e-02
  2.0658909e-01
 -4.5944455e-01
  1.7768677e-01
  1.3917084e-01
  1.1850118e-02
  8.0162156e-03
  3.9613079e-02
 -7.6754508e-03
 -9.9800542e-02
  6.8203819e-01
  3.2247066e-01
  1.3389583e-01
  1.9614110e-02
 -8.3890654e-02
  9.6297488e-02
  3.8570859e-03
 -2.4420537e-02
 -7.9975419e-02
 -2.6255538e-04
 -1.7119592e+00
  1.3533774e-02
 -4.3034174e-02
  1.3515171e-02
  2.4049449e-01
 -9.6560162e-01
  4.7597043e-02
  1.3409811e-01
  3.1682000e-02
 -2.9357034e-01
  4.7922038e-02
  7.2705718e-03
 -1.3510737e-01
 -5.8138378e-02
 -1.0093463e-02
  2.0356497e-02
  8.3327398e-02
 -1.1117945e-01
  3.2676298e-02
  3.4502570e-02
 -1.0748402e-03
  5.3296167e-02
  3.6597496e-01
  1.0374208e-02
 -2.9479766e-02
  1.1293725e-02
  2.8550217e-01
 -4.7737006e-02
  9.6226215e-02
  2.2336146e-02
  3.3141732e-01
  3.8026991e-01
 -2.2783142e-03
  4.7901928e-02
  1.1069320e-02
 -2.1029963e-01
 -4.4049706e-02
  3.7288412e-02
 -7.7454853e-03
 -5.9710290e-02
 -5.8079544e-03
  1.2882483e-01
 -1.9052532e-01
 -2.8642034e-02
 -1.0551333e-01
 -2.4788669e-01
 -3.3449117e-02
  8.0851242e-02
  1.0419278e-01
  2.5079864e-01
 -6.3346967e-02
 -1.0097257e+00
 -1.4912610e-01
 -5.7464864e-02
  1.3986545e+00
 -3.5284477e-01
  7.8791559e-02
 -4.0764141e-01
  1.3140734e+00
  6.2430984e-01
  2.0478454e-01
  1.2003694e+00
 -5.9124708e-01
  1.8449489e+00
 -2.4528507e-02
 -2.3122834e-02
 -4.2564997e-01
 -9.4597936e-02
  1.1896427e+00
  5.6254667e-01
  3.8431314e-01
  4.8491089e-03
 -7.3164779e-01
  1.0223023e+00
  2.7690547e-02
 -3.3678260e-02
  5.9957623e-01
  1.0493740e-02
  5.7251632e-01
 -2.0584767e-01
 -1.1765541e-02
 -1.2006408e-02
 -3.9797327e-01
  2.5625627e-02
  2.8084284e-02
  1.0276107e-02
  1.3922690e-01
  4.9577873e-02
 -1.1725764e-01
  1.4294092e-01
  1.0018513e-01
  2.4248319e-02
  6.8442174e-03
  1.8872883e-02
  1.1238854e-01
 -3.6474541e-02
 -1.5011133e-01
 -1.5914290e-01
  2.8375665e-02
 -6.5842986e-02
 -8.4144190e-02
  9.1039516e-02
 -2.4317995e-01
  4.3033273e-03
  3.9716493e-02
 -1.1050240e-01
  1.8148755e-03
  1.8168431e-02
 -1.7877083e-02
 -3.1433049e-01
  3.9374541e-02
 -1.7738947e-01
  8.9759851e-01
  2.3743461e-01
 -1.5530364e-02
 -6.0148656e-01
  3.1980344e-03
 -3.9827538e-01
 -6.2336111e-01
  5.2722013e-01
  8.6932158e-01
  6.6858679e-02
 -4.7238487e-01
 -9.8132133e-02
 -7.1998951e-03
  8.2743549e-01
  4.1518626e-01
  1.3613780e-01
  4.8278090e-02
 -1.8396529e+00
 -1.2637974e+00
  5.5532551e-01
 -2.0162018e-01
  9.6924400e-01
 -1.8390170e-01
  7.5097728e-01
  3.8555816e-02
 -1.1078373e+00
 -8.6341649e-03
  3.6933995e-03
 -5.7870161e-02
 -1.7226122e-01
  1.2274425e-02
 -3.4998156e-02
 -4.7502268e-02
 -5.8435008e-02
  2.7575733e-02
  4.8217054e-02
  1.8344680e-02
  1.2976355e-02
  4.3354321e-02
 -1.7816130e-02
 -1.3350460e-02
  1.5541941e+00
  4.0174354e-02
 -6.7149378e-02
  1.1570721e-01
  4.4255942e-02
 -1.9804975e-02
  1.5083424e-04
  7.7654535e-01
  1.0682934e-02
 -1.2797681e-02
  3.4385718e-02
 -2.3493893e-03
  3.0276526e-02
  9.0101138e-03
  1.8021122e-01
 -4.6555892e-02
  2.9257154e-02
  9.4453424e-02
 -4.4615757e-01
  3.7396427e-03
 -4.0987700e-02
  1.5989475e-02
 -5.4007214e-03
 -5.6208100e-02
 -1.4270788e-01
 -2.1414836e-01
  2.6655227e-03
  8.2297102e-03
  4.2223208e-02
 -6.2816888e-02
 -9.0409213e-01
  1.8268432e-02
 -3.5241317e-02
 -4.6072283e-01
  4.8141733e-02
 -1.3751273e-01
 -9.9002561e-03
 -6.7381866e-02
  1.7104285e-02
 -1.8172128e-01
 -5.1364058e-01
  7.1118912e-03
  2.5116265e-02
 -3.7543699e-02
 -1.4976506e-02
 -1.1347011e-03
  1.6934238e-03
  6.3250028e-02
  8.0528148e-02
  2.9558495e-01
 -1.8792696e-02
 -1.0416070e-01
 -1.0092385e-01
  1.5313379e-02
  3.3215187e-02
 -2.1762019e-03
  7.6094810e-03
  4.8621453e-02
 -1.2588201e-01
  1.0705294e-01
  1.0305413e-01
  4.4799470e-03
  5.8193978e-02
  4.8177578e-02
  3.8200565e-02
  1.3677111e-01
 -1.7024104e-01
 -4.7684699e-02
  5.6877531e-02
 -4.9203310e-02
  6.2875234e-02
 -1.6918002e-01
 -8.1259541e-02
 -1.0348877e-01
 -6.6110723e-02
  2.8195567e-02
 -1.1544897e-01
  2.4050257e-01
  5.4318684e-01
  6.9615674e-01
  3.3547947e-01
  7.5113136e-01
  4.7360118e-02
  1.4336387e+00
 -3.4209743e-01
 -2.2161204e-01
  5.9568447e-01
  3.2386445e-02
  2.8025472e-01
 -4.3496585e-01
  2.9951018e-01
  6.6559869e-01
 -3.0387535e+00
  3.4526289e-01
 -1.1331561e+00
  1.2613079e-02
 -4.4573662e-01
 -3.3180680e-02
  1.3361059e+00
 -3.4407014e-01
  9.5091486e-01
 -4.1442044e-02
  7.8312004e-01
  1.8106213e-01
  2.7485006e-02
  2.4659015e-01
 -1.4056476e-02
  1.7602512e-01
  5.8826590e-01
 -1.9016659e-02
 -7.2122586e-01
 -1.2507653e-01
  3.8849406e-02
  7.8066282e-02
  1.6575607e-02
 -1.9561250e-03
  2.3068337e-01
 -6.7353877e-03
 -8.4389508e-02
 -2.7335063e-03
  3.8036782e-02
  5.5464220e-01
 -2.0764897e-02
  1.1508402e-01
  4.9364630e-02
  4.3222696e-02
  1.9764192e-02
  2.7527006e-02
 -6.3909031e-02
  1.0400979e-02
 -1.9902375e-03
 -3.3629268e-02
  1.1338259e-01
 -1.4386499e-02
 -4.7170095e-02
 -9.5288813e-02
  4.6454582e-02
  2.1646861e-02
  1.3107532e-01
  4.5465328e-02
 -2.0092879e-01
  2.2950436e-01
  7.0288867e-01
  4.9391527e-02
  3.0267060e-02
  1.1045142e-01
 -6.3727600e-03
 -4.7287005e-03
  8.8759325e-02
 -2.8307116e-01
 -1.3350499e-01
  3.0703402e-01
  1.5026101e-02
  1.8956007e+00
  3.5415474e-01
 -1.1143352e-02
 -3.5701409e-02
  3.2234451e-01
  2.6226044e-02
  7.3203989e-03
  1.1689452e-01
 -5.1481847e-02
  2.0212506e-01
 -1.3394365e-02
 -1.1481888e-01
  4.8625261e-02
  3.3687716e-03
 -3.7220810e-02
 -1.1917707e-02
 -3.6953896e-02
 -1.7742634e-02
  2.0799182e-01
 -1.0524906e-01
  4.3584287e-02
  7.5385541e-02
  1.0304312e-01
  3.6502298e-02
 -9.1678768e-02
 -2.7489454e-02
 -5.3336535e-02
 -1.8337781e-02
 -2.7602948e-03
  2.9094808e-02
 -3.9153390e-02
  3.3212635e-01
 -1.6581818e-02
 -2.0812601e-02
  1.8274779e-03
  7.8863405e-02
 -2.3718446e-02
  9.2917737e-03
  7.2358377e-02
  4.5518903e-03
 -2.1585329e-03
  1.4334107e-02
 -1.1833929e-01
  1.0666816e-01
  7.4796952e-02
 -3.7016816e-02
 -2.4855886e-02
 -3.0819839e-02
  4.3956172e-02
  3.4081768e-02
  5.9430432e-02
 -4.4349289e-01
 -2.2329291e-02
  2.6265198e-02
  1.5423997e-01
 -2.2928356e-03
  8.9429729e-02
 -2.5968978e-02
 -8.2332343e-02
 -3.5738894e-03
  1.9549228e-01
  6.7952235e-04
 -3.1301642e-03
 -4.6461038e-02
 -3.6343917e-02
 -6.1140493e-03
 -6.9494277e-02
  7.3439367e-02
 -2.6024763e-02
  3.7025742e-03
 -3.7519119e-03
 -8.3756372e-02
 -7.3611522e-03
 -5.8016542e-02
 -9.0918612e-01
  5.7075483e-01
 -4.2164883e-01
  1.8385776e-03
  4.4333376e-02
 -7.8592310e-03
 -8.3912894e-02
  2.9095046e-02
  9.1406524e-02
 -4.2748813e-02
 -1.6088884e-02
  9.0992548e-02
  1.2388931e-02
  1.8695785e-02
  2.0710435e-02
 -2.7246762e-02
  2.3460759e-02
 -1.3964079e-01
  2.4026389e-01
 -1.6155763e-01
 -3.0216778e-02
 -7.9991765e-02
 -1.8020196e-02
  3.9538153e-02
 -6.7738183e-02
  1.0490149e-01
 -1.7468786e-01
  1.6990140e-01
  9.4237536e-02
 -1.0695250e-03
 -2.6750088e-01
 -2.1175951e-01
  1.8284265e-02
  3.4606166e-02
  4.5783959e-02
  9.1364026e-02
 -7.8369081e-02
  3.5644703e-02
 -8.4929764e-02
  6.2099971e-02
  3.0758610e-01
  1.3379012e-01
 -2.3412513e-02
 -4.9964199e-03
  7.4887015e-02
 -2.4030030e-02
  2.5480825e-03
  6.1174802e-02
  1.2963812e-02
 -3.3202916e-01
 -5.0203573e-02
 -8.2646325e-02
 -7.8829929e-02
  1.8824292e-02
 -1.5737083e-02
  8.4816009e-02
  1.5698729e-02
  3.1087231e-05
 -1.4312172e-01
  1.9764197e-01
  9.1756451e-01
  7.5038396e-02
 -3.5226038e-01
 -1.3575783e-01
 -3.0221019e-02
  1.7664091e-01
 -6.4467989e-02
 -7.9523481e-02
  1.6478918e-01
  4.0477645e-02
 -3.5617035e-02
  1.7006461e-02
 -2.3594625e-01
 -5.8107588e-02
 -1.6026968e-01
 -5.3934921e-02
  4.9821632e-03
  1.4532040e-01
 -3.9210964e-02
  8.0262184e-02
  3.2660864e-02
 -2.4734018e-02
 -5.0920764e-05
  2.5870455e-02
  1.0848794e-02
  6.0320203e-03
  7.2424516e-02
 -1.1270428e-01
  2.8668536e-02
 -9.3613499e-01
 -3.9370984e-01
 -1.3025600e+00
 -9.9493802e-02
  2.3055643e-01
 -5.3642625e-03
 -1.7009088e-01
  6.6254109e-01
 -9.0727639e-01
  1.2393395e+00
  8.2166398e-01
 -9.1332257e-01
  3.5141775e-01
 -1.3986391e-01
  5.7382154e-01
  5.9608497e-02
  4.2785260e-01
  1.0246459e+00
  6.6247952e-01
  6.8852061e-01
 -1.3704664e-01
 -2.5546038e-01
 -6.8687849e-02
  6.0618764e-01
  2.2122288e-01
  1.8687862e-01
  1.2547287e-01
  4.6162388e-01
 -5.3778309e-01
  8.5114539e-02
 -4.3144673e-02
 -1.9621299e-01
 -5.5820948e-01
  1.3095783e-01
  3.3349442e-01
  1.5501401e-02
  1.5863058e-01
 -1.8223824e-02
 -6.2480043e-03
 -5.1208772e-02
  3.5185821e-02
  7.5933538e-02
  9.2497328e-03
  5.7294266e-03
  6.5099254e-02
 -1.6930118e-02
  1.6536736e-01
 -2.9029429e-02
  1.9113483e-01
 -1.8364060e-01
  4.8561178e-02
  1.5252002e-02
  1.9856060e-02
  3.8990977e-01
  3.3867797e-01
  9.1264956e-02
 -2.1082681e-02
  2.5063228e-02
  1.1037833e-01
  5.3399551e-01
 -3.0963296e-02
  2.4518780e-02
 -3.5007137e-03
  6.2812909e-02
 -7.7932081e-03
  8.0711864e-02
 -8.5096449e-02
 -1.0715950e-02
  1.2693838e+00
 -6.9384952e-03
 -2.9872334e-01
 -3.8260572e-02
  9.8566916e-03
 -1.6774163e-01
  2.0480376e-01
  1.1175665e-01
  1.3296430e-01
 -2.2890393e-03
 -5.3017005e-02
 -2.5405802e-02
 -2.6619551e-03
  6.4282589e-02
  1.7401236e-01
 -5.0168648e-02
  7.2229840e-02
  8.9116812e-01
 -4.9197346e-02
 -2.2735987e-02
  2.9177925e-02
 -3.8953394e-02
 -2.2528891e-01
 -1.7498323e-01
  1.3939276e+00
  9.2200220e-02
 -1.4676667e-02
  6.8052836e-02
  6.8585105e-02
 -1.8070969e-01
  6.0028667e-03
  9.2400260e-02
 -2.9259961e-02
 -1.3168017e-02
  1.3171844e-01
  2.3675337e-02
 -7.0185311e-02
 -7.9071634e-02
  3.6127672e-02
  5.0872892e-02
 -1.4346828e-01
 -1.4495908e-01
 -7.3713221e-02
 -1.9181167e+00
 -2.7479663e-01
 -3.6080429e-01
  1.3740554e-01
 -9.5539270e-03
  6.9133133e-02
  1.4709031e-02
  7.0066899e-02
 -8.6194903e-02
 -8.1456617e-02
 -9.4906919e-02
  2.4486749e-01
 -3.1598210e-01
 -4.2051036e-02
 -4.2557448e-02
  1.3432790e+00
  2.6623784e-02
  9.7208843e-04
  9.7848229e-02
 -2.7008984e-02
 -5.0658554e-02
  9.9535368e-02
  1.8616988e-01
  3.0401805e-02
 -1.2136967e-01
  2.4557574e-01
  2.6123911e-01
 -1.3682821e-01
 -7.4551843e-02
  6.7376904e-02
  6.9858089e-02
  6.8556532e-02
  5.3897530e-02
  1.6272180e-01
  3.2982208e-02
 -7.0032775e-02
  2.2352088e-02
 -1.4637089e-03
  8.1384048e-02
  4.8683354e-01
  5.3046799e-01
  5.0261047e-02
 -3.1894464e-02
 -2.0277984e-01
 -2.6986893e-02
  1.7174944e-01
  1.3552020e+00
 -9.1119778e-01
 -1.9378388e-01
 -1.8625373e-01
  5.7179000e-02
  2.5585620e-02
 -6.8795606e-02
  2.8040844e-03
  2.0112929e-01
 -1.4379066e-01
  2.6372850e-01
 -5.8355302e-02
  2.1454693e-01
 -1.7810235e-02
 -1.3414952e-01
  2.5607526e-01
  3.5505030e-01
 -3.9171943e-01
  3.7882950e-02
  2.7352601e-02
  1.8184844e-02
 -1.1109382e-01
  3.3531077e-02
  1.8953497e+00
 -1.9842872e-01
 -3.8471881e-01
 -1.0302246e+00
 -2.2136065e-01
  3.1811357e-01
  3.3897404e-02
  1.9354965e-01
  5.6324029e-01
  1.3435009e+00
  3.5389596e-01
  1.1305617e+00
  1.3452151e+00
  1.3661848e+00
  1.0116991e+00
  4.7425438e-02
  4.0076160e-01
  2.2742732e-01
  1.2049630e+00
  1.0575471e-01
  4.5118131e-02
  1.2442524e-01
  7.2628302e-03
  9.6854173e-02
  9.5724359e-02
 -2.4389976e-01
  1.1033063e-01
  4.6447524e-01
 -3.6968184e-01
  2.1555410e-01
  2.0444404e-02
  1.8177576e-02
  4.3391010e-01
 -3.9108146e-02
 -3.9575376e-02
  4.1619439e-02
  8.5823305e-02
  1.7424613e-01
 -4.8864437e-03
 -1.4228146e-01
  2.1324663e-01
  7.4236304e-02
 -4.9490076e-02
 -1.7919183e-01
 -1.6716403e-01
 -3.6871366e-02
  1.5986967e-01
  9.8736361e-02
  3.5857290e-03
 -9.0017073e-02
  1.7112490e-02
  6.1924953e-02
  3.9961990e-02
  1.5756603e-01
  4.1729450e-02
 -2.1940401e-02
  1.7477732e-02
  5.2139848e-02
 -1.5470980e-01
  9.4431251e-02
 -8.8330753e-02
  1.6897801e-01
 -2.9866037e-01
 -2.6307894e-02
 -1.4956062e-02
 -4.3757834e-02
 -2.1615528e-02
  8.0515817e-03
 -1.2836391e-02
 -3.4296490e-02
  3.1738840e-02
 -3.1707648e-02
  6.2915117e-02
 -4.0713873e-02
 -5.9766170e-02
  1.5008192e-01
 -1.6121117e-02
  1.8792181e-01
 -2.9248574e-01
 -1.2806723e-02
  1.1120099e-02
  7.8241318e-02
  1.1117128e-01
  3.6258921e-02
  2.3228977e-02
 -2.0364394e-02
 -6.7185089e-02
  6.5626115e-02
  1.9991317e-01
  4.7164157e-02
  5.1730961e-01
 -6.7782466e-04
 -9.7933316e-01
 -2.2659144e+00
  6.6594504e-02
 -5.2541036e-02
  1.1205828e-01
 -5.5428397e-02
  1.7623197e-01
 -1.8999776e-01
  1.2417283e-01
  4.0165488e-02
  1.0390238e-01
 -1.6277719e-02
 -2.3515286e+00
  1.7910190e-02
  6.8858363e-02
 -1.6479776e+00
  1.1518800e-01
  1.3106337e-01
 -1.9945448e-02
 -3.1889665e-01
 -1.5764187e-01
 -1.1835854e-02
 -1.3162138e+00
 -1.1531400e-02
  2.6850080e-01
 -6.7378990e-02
  2.8112900e-02
 -1.0702056e-01
 -1.3443017e-01
 -3.6336818e-01
 -1.7449008e-01
 -1.8330037e-03
 -1.4850521e-02
 -8.7514417e-03
  1.4620398e-01
  2.5055019e-02
  5.5890989e-02
  4.1134310e-01
 -2.9812593e-02
 -1.2499511e-02
 -6.4402141e-02
  4.5282218e-01
 -2.9880579e-03
 -6.4156917e-03
 -2.1910830e-03
  6.7559904e-01
 -3.8596980e-02
 -2.3893209e-04
 -7.6590381e-03
  1.2569398e-02
 -5.7545882e-02
 -7.3578494e-04
 -3.8219115e-01
 -5.8901343e-02
 -6.3930005e-02
 -4.4211257e-02
  4.0854208e-02
  7.3931892e-03
 -1.1518317e-01
  6.5137729e-02
 -2.1922214e-01
  4.5769104e-01
 -2.1821342e-02
  8.3774932e-02
 -1.4212729e-01
  9.5302433e-02
 -1.2681630e-02
  1.2771116e-01
  4.0697761e-02
  3.1146035e-02
  1.9023081e-02
  1.6984858e-02
  6.1061267e-02
  8.3525762e-02
 -9.0476997e-02
  1.5895814e-03
 -1.0603878e-01
 -7.1484625e-02
 -4.0383253e-02
  1.7882247e-02
  6.3800800e-01
 -1.7058024e-01
 -5.0294194e-02
 -2.2285931e-01
 -7.6921836e-02
  2.0141086e-02
 -4.0751450e-02
 -1.4689281e-02
  1.5497878e-02
  1.3118165e-02
  2.4191895e-01
  1.8139403e-01
  2.7015904e-02
  1.6549245e-02
 -1.9259721e-02
 -1.4925921e+00
 -1.6279768e-02
  1.9132271e-02
  7.7391125e-02
 -6.6536270e-02
 -4.7749519e-02
  1.8015547e+00
  1.2726589e-01
  1.1038986e-02
 -1.0734385e-01
 -2.7598822e-01
 -6.6838926e-03
 -7.2777793e-02
 -6.6854460e-03
 -8.1106767e-02
  2.5558304e-02
 -1.2264738e-01
  7.6730244e-02
  2.0529816e-02
 -6.3307382e-02
 -1.3166182e-01
  2.0664450e-02
 -1.9749736e-02
 -2.2715118e-02
  6.9321534e-03
  8.4023368e-01
  1.9381107e-01
  1.1593390e-01
 -2.9344684e-02
  2.9834604e-02
 -1.9196371e-02
 -1.9685693e-02
  1.2192923e-01
 -3.7701424e-02
  7.7413127e-02
  1.7705681e-02
 -6.0673583e-01
 -2.5016773e-02
 -3.7943471e-02
  9.2464144e-04
 -5.9958976e-02
  9.8396093e-02
  1.6596340e-02
  1.1465527e-01
  1.9740202e-02
  3.0183394e-02
  7.2944783e-02
  3.1154191e-02
  1.9894628e-02
 -8.9069597e-02
 -3.0579798e-02
 -1.1130331e-01
  3.6540896e-02
 -9.5935486e-02
  9.4168773e-03
 -4.4181693e-02
 -1.3682516e-01
 -1.1908438e-01
  5.3883719e-01
  1.5621997e-02
  1.8165682e-01
  1.4401254e-01
  5.8479037e-02
 -1.5638160e-02
  8.6620666e-02
  1.9646449e-02
 -1.2927467e-01
  3.0012351e-01
  3.3119041e-01
 -9.6778914e-02
 -2.6252216e-01
  8.8816173e-03
  2.0929267e+00
 -5.0806869e-02
 -4.6707377e-01
 -9.8960632e-03
 -2.3075794e-01
  1.0514882e-01
 -7.1996666e-02
  2.4192156e-01
  4.1642826e-02
 -1.1705948e-02
  5.8773786e-02
  1.8247254e-02
  5.1889348e-01
  1.4309360e-01
  1.0610060e-01
 -3.8046908e-01
 -1.7229214e-01
  1.0809435e-01
  3.8520481e-02
  1.9485579e-01
  1.1836298e-01
  6.2991738e-02
  3.5512991e-02
  2.6554162e-02
 -6.6118300e-02
 -3.2120256e-03
  2.2347334e-01
 -5.1838940e-01
 -7.0459407e-04
 -8.5424498e-02
  4.1228574e-02
 -6.7722782e-02
 -7.6601350e-01
  5.4532781e-02
 -4.3327215e-01
 -1.9362794e-01
 -3.5203211e-02
  1.4476214e-01
  1.0862938e-03
 -1.2434956e-01
  2.2919466e+00
  5.1453751e-02
  5.8836557e-02
 -2.5344532e-02
 -1.8101269e-02
  1.5168073e-02
 -4.2792587e-03
 -1.9367022e-02
 -7.3276794e-01
 -5.6773733e-02
 -8.3704141e-04
 -5.6668226e-02
 -2.8313866e-03
  3.4042457e-01
 -2.4134891e-01
  6.6965511e-03
 -1.1836381e-02
 -1.4499991e-01
  1.1753289e-01
 -9.5866993e-02
 -8.0729418e-02
 -8.8014537e-03
 -1.1203509e-01
  8.0118626e-02
  9.0686664e-02
 -1.2544635e-01
 -2.6789509e-02
  1.1785262e-02
 -3.2743275e-02
  4.5931302e-03
 -5.8514051e-02
 -3.2862723e-01
  2.0496809e-01
 -7.6018345e-01
  2.3919905e-02
  8.0359206e-03
 -2.3797564e-02
  3.5676468e-02
 -4.8883069e-02
 -2.7555278e-02
 -4.5424931e-02
  6.8683214e-03
 -5.8624069e-03
  3.9336003e-02
  1.0445476e-01
  3.7600126e-02
  2.9694891e-02
  4.1551506e-03
  1.8860529e-01
  1.8009919e-01
  4.3668225e-02
  3.9377976e-03
 -2.2524381e-02
 -4.7046788e-02
 -1.0148933e-01
  1.7654832e-01
  1.8281323e-01
 -7.4891604e-02
 -6.8369373e-03
  7.9575010e-02
  1.1140823e-01
 -4.8739616e-02
 -2.5924480e-01
 -4.2779693e-01
 -1.1355510e-02
  2.0911147e-01
  7.0115164e-02
  7.4145710e-01
 -8.1587747e-02
  5.8627576e-02
 -1.5626872e-01
  1.9055482e-02
  8.7388167e-03
  4.2951498e-02
  1.1744779e-01
  2.4144077e-03
  9.1969982e-02
 -1.2561443e-01
  6.4158919e-03
 -9.2550382e-02
 -1.2146243e-02
  2.1758823e-01
 -4.1352101e-03
  3.7904248e-02
 -3.6168650e-02
  7.3826015e-02
 -1.0520425e-01
 -7.7480422e-03
 -3.1864040e-02
 -3.8255882e-02
  5.9539046e-02
  7.3065899e-02
  1.4045639e-01
  4.5340545e-02
 -5.2891333e-02
 -4.8504719e-03
 -2.2383848e-01
 -1.8311007e-02
 -1.6942684e-01
  1.2884215e-01
  4.9535848e-02
 -1.5448080e-02
 -2.0533636e-02
  1.4701571e-01
  4.8257839e-02
 -6.4071752e-02
 -5.8467377e-02
  1.9494701e-02
 -5.8992123e-03
  1.4896171e-01
 -1.2804279e-02
  4.5261934e-02
  1.2831701e-02
 -2.1433210e-01
  6.3163884e-02
  2.7981127e-02
  1.2739618e-01
 -4.9325503e-02
 -2.1687217e-02
  1.0886838e-01
 -1.6373897e-02
  4.5739236e-01
 -5.3777510e-01
  1.1283649e+00
  1.3728867e-01
 -6.3290216e-02
 -2.4445198e-02
 -1.8737614e-03
  1.2091305e+00
 -2.0706107e-01
  5.5604089e-02
 -1.3830998e-02
  2.3681857e-01
 -6.0737180e-03
 -1.3435753e-01
  6.2426031e-02
 -1.4299952e-02
  1.2084672e-02
  1.9563136e-01
 -1.2797463e-01
  2.1002883e-02
 -4.1117117e-01
  1.4566065e-01
  6.6615470e-02
 -6.8983555e-02
 -2.3892553e-01
 -1.0569595e-01
  1.2948717e-01
 -2.8949250e-02
  8.2211178e-03
 -7.8468949e-02
 -5.9315145e-02
 -1.0154360e-03
 -6.0596734e-02
  5.9727296e-02
 -2.1150544e-02
  9.2433214e-02
  7.2135843e-02
  2.2533974e-02
  4.3352369e-02
  4.0921010e-03
 -2.8027777e-02
  4.4836319e-04
 -7.0373781e-02
  2.7524177e-02
 -1.1016913e-01
 -4.4445741e-01
 -8.0996186e-02
  4.4092622e-02
 -2.5413190e-03
 -9.1181196e-02
 -6.5236516e-02
 -9.4157405e-02
 -3.7613422e-02
 -9.1641650e-02
  5.8300629e-02
 -1.1188872e-02
  1.0272776e-02
  1.5920429e-01
 -5.8201484e-02
  2.3150638e-02
  1.3147194e+00
  3.5550788e-01
  8.9988285e-01
  1.6503395e+00
  2.9237422e-01
 -1.0032002e+00
 -2.4750027e-01
 -1.3485153e+00
  1.4664999e-01
  1.1002736e-01
 -9.1276842e-01
  1.1116477e+00
  1.5362461e-01
  7.4786149e-02
 -2.0572510e-02
 -2.1056552e+00
  8.9042205e-01
 -2.4515417e-01
  1.2182087e-01
  4.4025909e-02
  3.2411147e-02
 -1.8072997e+00
 -8.0481696e-01
 -5.2344251e-01
  5.4754877e-01
  2.7582888e-02
 -1.2154388e-01
 -8.1088141e-02
 -7.4751817e-02
 -1.0493281e-01
  2.3715268e-01
  4.3963518e-02
  2.4494189e-01
 -2.7440483e-04
  2.9521018e-01
  5.6360465e-02
  1.8760106e-03
 -1.4405335e-01
  3.0888332e-02
 -1.2152887e-01
  1.0402096e-01
  5.9371870e-02
  3.8150712e-03
  8.4096961e-02
 -3.9609987e-01
 -1.3139914e-01
  6.6225094e-01
  8.2355016e-01
  1.5685074e-02
 -2.1639261e-02
 -6.4902216e-01
 -3.4299737e-01
 -2.1146522e-01
  1.4149110e-01
  7.3180243e-02
 -1.4214663e-02
 -4.8279416e-02
 -8.7754801e-03
  1.4537033e-02
 -2.4878997e-01
 -1.0479808e-02
  4.5775503e-01
 -1.1994465e-03
 -1.1811443e-02
 -4.7422666e-03
  1.3668492e-01
  2.8789198e-02
 -7.1588427e-02
  1.8223722e-01
 -6.2097028e-02
 -3.2887332e-02
 -9.3794498e-04
 -4.1721035e-02
 -2.6971694e-02
  8.3702905e-03
  3.0247439e-03
  4.0130652e-02
 -4.0080376e-02
 -4.5794737e-02
 -8.6722255e-02
 -4.5376938e-02
 -1.2881270e-01
 -3.9541548e-01
  2.8172912e-02
 -1.9196486e-02
  5.8955338e-02
  1.5851834e-01
 -6.6262078e-03
 -4.4387184e-02
 -2.8470981e-01
  2.1294810e-01
  6.8976068e-01
 -1.8966000e-01
  1.3486505e-01
  2.8704053e-02
  8.4816493e-02
  2.7057225e-01
  1.3643862e-01
 -1.8154843e-01
  1.7037557e-02
  6.3981220e-02
 -7.0322603e-02
 -2.7627268e-01
 -1.7093746e-02
 -5.1311821e-02
  1.3908614e-01
 -4.5299134e-01
  3.5008281e-02
 -3.1148102e-02
 -6.9385767e-03
  1.9798614e-03
 -1.0135752e-02
  1.1000420e-01
  2.6263407e-01
  1.0814317e-01
 -7.4667379e-02
  2.8965376e-02
 -2.9439973e-02
 -7.5393245e-02
  3.7079658e-02
  7.1614653e-02
  6.4994179e-02
  7.1041912e-02
 -5.2324723e-02
 -4.4449553e-02
  1.7996645e-01
 -1.4929447e-01
 -3.8783468e-02
 -3.2639150e-02
  1.1130012e-01
 -9.2748784e-02
 -7.2419904e-02
 -4.2706309e-03
  1.1037522e-02
 -1.5906934e-01
  3.8835060e-02
  6.8358786e-02
  1.6652754e-01
  2.9673766e-02
 -1.9533139e-02
  2.1109316e-02
 -8.2478277e-02
  3.9690942e-02
 -5.0292970e-03
  5.0874390e-02
  3.0989736e-01
 -5.0816257e-03
  3.8733445e-02
 -5.6996241e-02
  2.5822094e-02
  1.5565837e-02
  3.1319197e-02
 -9.4708389e-01
 -6.1854780e-02
  2.0820644e-02
  2.1056322e-02
 -7.9669558e-02
 -1.1814302e-01
  2.3776963e+00
 -1.4144707e-01
 -1.1310112e-03
 -2.4820151e-02
 -3.8097173e-03
 -4.7561836e-01
  3.0891743e-02
  3.5166625e-02
 -8.8385247e-02
  5.5359188e-02
  1.8936021e-02
  7.8796253e-02
  3.6338884e-01
  8.4355190e-02
 -3.0362421e-01
  1.3487066e-01
  5.9580497e-02
  5.2093305e-03
 -1.9405855e-01
  2.1993199e-02
  1.3936815e-02
  7.1136050e-02
 -4.1718152e-01
 -8.4668458e-02
 -5.0492277e-03
  1.5850595e+00
  3.4744583e-02
  5.5282759e-03
  2.2828387e-02
 -4.1633227e-01
 -6.1709136e-01
  8.7172590e-02
 -9.0376538e-01
 -4.9855821e-02
 -7.7709907e-01
 -6.0435019e-02
 -4.7728544e-01
 -3.5203835e-01
  1.0228393e+00
 -3.9494732e-01
  5.5718940e-01
 -9.5787084e-01
 -5.1911390e-01
  1.8846138e+00
 -1.1492489e-01
 -1.7221816e-01
  3.1686726e-01
  2.0134184e-01
  4.4028416e-02
 -6.9315173e-02
  7.6449633e-01
 -6.7607947e-02
 -7.0273918e-01
 -2.1154189e-02
 -2.7499201e-02
  1.4387101e+00
 -1.3416652e-01
  8.3252257e-01
  1.9397612e-01
 -8.6801626e-02
 -1.7280485e-02
  1.2544425e-01
  2.9707480e-02
 -1.0016870e-02
  4.7950260e-03
 -8.6077288e-02
 -6.7994431e-02
  1.2558320e-02
 -3.0867152e-02
 -7.4076200e-01
 -6.8520874e-02
  9.9510774e-02
 -2.8831938e-02
 -5.6360143e-01
 -2.2511024e-02
 -5.1570479e-02
 -2.7650195e-01
 -1.6232021e+00
  9.5632365e-03
  4.6058960e-02
  6.9788861e-01
 -4.7582984e-01
 -1.5104527e+00
  1.8489760e-01
 -1.4809582e+00
 -1.5124712e+00
 -1.5521680e+00
  3.5544224e-02
 -2.6032737e-01
 -5.2716094e-01
  7.3541057e-01
 -5.3784173e-02
 -5.0980157e-01
 -5.2219433e-01
 -3.1679198e-02
  6.6715968e-01
  4.5836844e-02
 -3.3735454e-01
  1.3743168e+00
 -8.5682698e-02
  6.5322824e-02
  1.5631562e-01
  5.7721779e-02
  6.5638435e-01
  6.5869308e-01
  1.8701014e-01
 -2.2872587e-01
 -6.8477683e-02
 -4.1098669e-01
 -1.2658305e-01
  4.8993945e-01
  1.0319101e-02
 -7.7633262e-01
 -7.1546920e-03
 -2.1270828e-02
 -8.2636215e-02
 -5.7118617e-02
 -3.6595345e-02
 -3.5737894e-02
 -1.8850183e-02
 -3.8978690e-01
  3.9088458e-02
 -1.6447360e-02
 -3.1764612e-02
  1.8456489e-02
 -2.3316652e-01
  7.6312297e-03
 -3.9379174e-01
 -1.1455136e-02
  5.4092214e-02
 -3.9067723e-02
 -2.1525463e-02
 -2.5698157e-02
  2.1664100e-02
  5.1637828e-02
 -2.2746846e-02
 -7.9827063e-02
  1.0558458e-01
 -2.3719154e-02
 -4.6752836e-03
 -1.9379784e-01
 -4.6328218e-03
  1.9781757e-02
 -5.5575848e-01
 -8.8473000e-02
  1.9857002e-02
 -3.3041362e-02
 -1.1919768e-02
 -2.0236100e-01
 -2.1014282e-01
 -1.9863559e-02
 -7.7964556e-01
 -6.1064005e-02
 -2.0795678e-01
  4.4331074e-02
  1.8166652e-01
 -4.2843614e-02
 -4.7119562e-02
 -3.8527921e-02
  2.2374569e-02
  9.5450701e-03
  8.4134545e-03
 -5.0654840e-02
  9.4441667e-02
  7.2633848e-02
  5.8024786e-02
  4.0725388e-02
  9.9601135e-02
 -1.4947426e-01
 -1.0305718e-01
 -2.4170686e-02
  1.6416150e-01
 -2.3394129e-01
 -3.2160619e-01
 -6.1241787e-02
  8.3516538e-02
 -4.5235638e-02
 -1.2182308e+00
 -2.4532335e-02
  1.1243673e-01
  2.3929851e-02
  2.7600467e-01
  5.3416733e-02
 -8.8452533e-02
  1.6379668e-01
 -8.9768887e-02
 -8.8407069e-02
 -8.6408609e-01
  7.4252188e-02
  1.1819491e-01
  5.6917556e-02
 -4.6393033e-02
  3.6862543e-01
 -5.2521244e-02
 -3.4640011e-01
  5.4205948e-01
  3.5582021e-01
  2.8893709e-02
 -1.1318184e-02
 -3.3417899e-02
 -1.8968959e-01
  2.0403421e+00
 -9.6096002e-02
  8.5605139e-01
 -1.1706093e-01
 -9.7205956e-04
 -4.8372179e-02
 -6.9422923e-02
  2.5156902e-02
  2.3219016e-01
  7.9451241e-02
 -4.5555153e-01
  5.1942587e-01
 -4.5903426e-02
 -1.2685192e+00
  7.6679215e-02
 -3.1585583e-01
 -3.1090620e-01
 -9.6528931e-03
  5.2249408e-01
  5.7961531e-03
 -3.9366763e-02
 -4.8697504e-01
  1.6722525e-02
  3.7422922e-01
  2.1531649e+00
  2.1851660e-01
  1.1743798e+00
  2.0648638e-02
 -1.0344858e-01
 -3.2165494e-02
  1.3964683e+00
  1.0426854e-01
  7.0786679e-01
 -1.1184010e-01
 -1.2614320e-01
  2.4370342e-02
 -4.4131748e-02
  3.1490710e-02
  1.5912309e+00
 -3.4025076e-01
  1.6765464e-02
 -4.6374682e-01
 -2.0356554e-01
  7.0143217e-01
  1.7821428e+00
  2.5071549e-01
 -9.8205619e-02
  2.8578308e-01
 -1.8125251e-01
  4.9228501e-01
 -1.8722138e-01
 -3.1085312e-01
  1.4508079e+00
  5.2397519e-01
  1.6161552e-02
 -2.5081515e-01
 -1.4940467e-01
 -2.0403838e-01
  4.6686536e-01
  3.0371812e-01
 -1.3252718e+00
 -4.1259301e-01
  2.1901445e-01
  4.8613800e-03
 -9.8585319e-03
 -3.9260134e-01
 -1.0484802e+00
  3.4582609e-01
 -1.0081085e+00
  2.8350455e-01
 -4.4425800e-01
 -1.7849781e-01
  7.6000631e-02
 -2.5639385e-01
 -4.0089801e-02
 -3.4388775e-01
 -2.3121989e-01
  4.0228468e-01
 -4.3428265e-02
 -1.6536111e-01
  1.6562127e-01
  8.6251553e-03
  3.6716487e-02
  1.1907611e-04
 -9.6972793e-02
 -7.7250041e-02
 -8.8891394e-02
 -3.9152034e-02
 -1.5951607e-01
  4.2216253e-02
  8.5637383e-02
  1.5670633e-01
  4.7817174e-02
  1.8755360e-02
 -4.8428532e-03
 -3.2921594e-02
 -2.0336555e-01
 -2.2578038e-02
  1.0898446e-03
 -2.4766628e-02
  1.3704291e-01
  2.7398877e-02
  1.7882725e-02
  9.5015727e-02
  1.0987409e-01
 -1.2811996e-01
  2.1268245e-02
  2.7153931e+00
 -8.5762039e-02
  7.9832980e-03
 -6.5429029e-03
 -5.8119297e-03
 -6.4854771e-03
 -1.9910203e-02
  8.3901100e-02
  1.1930588e-01
  2.9480634e-02
 -8.5588150e-02
  1.0286300e-01
 -2.9908726e-01
  1.1026884e-01
  4.4714557e-03
 -2.0268401e-02
 -7.5930464e-03
  3.3115022e-02
  7.5859696e-02
 -4.1975811e-02
  9.3172953e-02
 -7.2032966e-02
  2.1379320e-02
  1.9725302e-01
 -1.3280340e-01
  1.0699310e-01
  1.0234464e-01
  3.6167566e-02
 -4.2711865e-02
  1.7158104e-02
  7.1599479e-03
 -2.5112415e-02
 -4.3491736e-01
 -1.9757222e-02
 -4.4793266e-01
 -6.4798757e-02
 -7.1827032e-02
  5.7640797e-01
  2.6799904e-02
 -4.5816448e-02
 -9.7337933e-03
  5.9182964e-02
  3.7896596e-02
 -8.6885862e-02
 -7.2773702e-02
  3.8339846e-02
  6.0053051e-01
 -3.3392660e-02
  2.7485102e-02
  2.3015995e-02
  3.7309796e-02
  1.8090457e-02
  5.9851874e-02
  7.8809718e-03
 -5.5052739e-01
 -4.2273726e-02
  3.1665344e-02
 -2.4364715e-02
 -2.7953550e-02
 -7.6855876e-02
  2.7117705e-01
 -4.5441911e-02
 -7.1125227e-01
  1.3484439e-01
  4.3834755e-04
 -6.8994939e-02
 -2.4092817e-01
 -1.8906055e-02
 -3.3321477e-02
  9.0180255e-02
 -6.3452773e-02
  2.5616544e-01
 -5.9634835e-01
 -8.7061971e-01
  5.0433483e-02
 -2.5010416e-01
  5.2935764e-02
 -1.9035591e-02
  1.4873113e-02
 -3.6896802e-02
 -2.1707437e-03
 -8.1746280e-01
  4.6722838e-01
  1.2591106e-01
  9.9185854e-01
 -7.6307622e-03
  1.1905234e-01
  1.5164728e-01
  2.1648701e-01
 -1.1426644e-01
 -1.1460388e-01
 -1.9338055e-01
 -1.0769456e-01
  2.0333143e-01
 -2.0226346e-01
  4.4140378e-01
 -1.7861260e-01
 -3.8620145e-03
 -4.2928776e-01
 -4.9816452e-02
  1.4790320e-01
  2.1519147e-02
 -1.0839611e-01
  5.3901494e-02
 -5.0052244e-02
  1.0469570e+00
  1.4537342e-02
 -3.0219940e-02
  9.5582262e-02
  2.7757680e-01
  2.1175916e-01
  1.1766292e-01
 -3.2922897e-01
 -3.3441562e-02
 -1.2021991e-01
  2.9997140e-02
 -5.0370824e-02
  5.2773513e-02
  1.5789334e-01
 -3.2723624e-02
  2.1981463e-02
  1.5577317e-03
  1.6209070e-02
 -6.9765508e-02
 -4.3592736e-02
  1.2131131e-01
  1.7572984e-01
 -5.9648179e-02
  7.0144082e-03
 -1.5945724e-01
  2.7468106e-02
 -1.0292631e-01
  5.6472402e-03
 -2.0968325e-01
 -8.7522373e-02
  1.3224896e-02
  2.7168540e-02
 -4.7166497e-04
 -9.7963639e-02
  4.8085105e-02
 -2.2419596e-02
 -2.5607688e-02
 -1.2055726e-01
  5.1939387e-02
  5.2420616e-02
  5.9294119e-02
 -1.8536830e+00
  9.2034057e-02
  1.2521924e-02
 -1.3508718e-02
  2.0512259e-02
 -1.7819583e-01
 -2.7736565e-02
 -5.1232915e-02
 -4.5016207e-02
 -5.5571616e-02
 -2.1135088e-03
  7.0294499e-01
 -1.6611075e-02
  6.0698819e-01
  1.7972643e-02
 -7.1884878e-03
 -1.3566701e-01
 -6.2776484e-02
  1.9159919e-01
 -2.8479289e-02
  3.9024127e-01
 -4.2495631e-02
  1.5343131e-01
 -8.6834937e-02
 -7.6994799e-02
 -3.9746501e-02
  1.6507490e-02
  2.9140800e-01
  2.0083386e-01
 -3.2632291e-01
  2.3190374e-02
 -2.0726116e-01
 -8.0969453e-02
 -8.5835867e-03
  3.4855198e-02
  5.7082355e-02
  4.0853221e-02
 -4.4528134e-02
  6.9887213e-02
  9.6519649e-02
  1.4422511e-01
 -1.1762149e-02
 -4.9082856e-03
 -3.5968773e-02
  1.7746847e-02
 -9.3834855e-02
 -5.3285513e-02
 -2.0725308e-02
  2.4832165e-02
 -6.2419813e-02
  1.2718029e-01
 -1.0153172e-01
  6.6976242e-02
  1.2006986e-01
 -1.8304330e-01
  2.4790759e-01
 -1.5773283e-02
  6.2481694e-02
  5.9070714e-02
 -7.6896220e-02
  8.1151731e-02
  1.0163918e-02
  4.1612986e-01
  1.9691968e-02
  5.2944306e-02
  2.0438140e-02
 -3.0488623e-02
 -1.7666260e-02
  2.1018472e-02
 -9.1834046e-02
 -4.8193570e-02
  7.2145320e-02
  6.7427725e-01
 -9.9627592e-02
 -7.2142236e-02
  4.3931052e-02
  1.4033167e-02
 -8.5986651e-02
  4.0761601e-02
 -3.0536273e-02
  2.6494686e-02
 -4.4347825e-03
  1.0394645e-01
  2.6316058e-02
  6.2533021e-02
  1.6978166e-01
 -8.2249016e-02
 -6.4720482e-02
  2.3108225e-02
  1.2916008e+00
 -1.1234093e-02
 -1.1851482e-01
  3.8400628e-02
 -1.4093213e-01
  3.7369663e-01
 -9.9217743e-02
 -2.1386684e-01
  1.7107798e-01
 -3.5485044e-02
 -2.0231442e-01
 -2.7003663e-03
 -1.4405088e-02
  5.0208324e-01
  1.0214240e-03
 -1.0321482e+00
  1.5575509e-01
 -1.7211622e-01
  1.4280534e-01
  4.0832096e-01
 -3.6526182e-01
  6.7606163e-03
 -2.1684545e-01
 -1.5026964e-01
 -1.0423020e-01
  4.7439265e-01
  1.5620019e-01
 -1.9312631e-01
  2.2709571e-02
  1.3063061e+00
 -1.5279897e-02
  6.4085416e-02
  4.7332123e-03
 -1.9930367e-01
  2.7897099e-02
  3.8214820e-03
 -2.7058627e-03
  7.9492293e-02
  2.4115968e-01
 -2.1651959e-02
  1.1544145e-01
  1.8493038e-02
  1.5288645e-01
  1.6873237e-01
  1.8968403e-02
 -7.4373603e-02
  4.0632457e-02
 -2.9444816e-03
  1.8853995e-01
 -1.8755853e-01
 -4.8818436e-02
  8.7859541e-02
  9.6938550e-02
 -2.0416265e-02
 -8.2954451e-02
 -2.4760161e-02
  8.2107596e-02
  1.4380592e-01
  2.8639421e-01
 -1.3134727e+00
  3.5014740e-01
 -7.8873920e-01
  1.4668183e-01
 -9.3129182e-01
  2.4774177e-01
 -9.3755186e-01
  3.1114159e-02
  1.6870914e-01
 -4.1910884e-01
  2.4642341e-01
 -6.2229526e-01
 -6.1245590e-02
 -1.2721611e+00
  5.9959108e-01
  9.7719014e-02
 -1.3580999e-02
 -1.8054727e-01
  9.0543026e-01
  2.7273417e-01
  3.3595788e-01
 -4.5059499e-01
  3.2259926e-02
  5.2227479e-01
  8.7385505e-02
 -5.6865957e-02
  1.8005890e-01
  6.8940169e-01
  4.4962615e-02
  2.2339839e-01
 -1.0095369e-01
 -3.1024680e-02
  3.9247077e-02
 -2.3371221e-02
  1.1007791e-01
 -3.0683231e-01
  2.6511496e-01
 -5.2834198e-02
 -1.3955259e-01
 -4.3786597e-02
 -6.2352691e-02
  2.2231944e-02
  2.8903948e-02
 -2.3581088e-02
 -2.4471837e-01
 -4.9150452e-01
  7.9276860e-02
  4.3825924e-01
  5.0166659e-02
 -4.1388026e-01
  4.0996808e-01
 -3.5595037e-02
 -3.8896568e-02
 -8.9980504e-03
 -5.3123082e-03
  1.3935313e-01
 -2.2541443e-01
 -6.9812979e-03
 -1.6165702e-02
  4.6910554e-02
 -2.8674221e-01
  2.6680820e-02
  7.1449414e-02
  3.2761306e-02
 -2.2585972e-01
  3.4098841e-02
  3.3370590e-01
  2.3108643e-02
 -7.0864372e-02
  4.3631110e-02
 -1.0262053e+00
 -2.6833829e-01
 -1.4155351e-01
 -1.1748122e-01
 -4.9047299e-02
  2.9039059e-02
  1.3860184e-01
  1.6168974e-02
 -4.6105314e-02
 -4.0003878e-01
  4.4818036e-02
  1.6447993e-01
  4.0847942e-02
 -1.1291102e-01
  3.7234273e-02
 -3.3263546e-01
 -6.8074797e-04
  3.8136277e-02
  8.5160434e-03
  2.5283275e-02
  1.2337573e-01
 -2.1510765e-02
  1.5056840e-01
  3.5611480e-02
  1.8020093e-01
  1.5545620e-01
 -8.0479465e-02
  3.0586226e-02
  1.1003780e-01
 -4.8555937e-01
  4.4005930e-01
  5.1609153e-01
  2.8475475e-01
 -8.0417059e-03
 -4.9753893e-02
 -3.6328021e-02
  5.7232704e-02
 -2.6074177e-01
 -1.5563716e-02
  1.3085207e-02
 -9.8885540e-03
  2.2879054e-01
  6.3748240e-02
  6.0507298e-02
  1.1997831e-02
 -7.1792580e-02
 -8.2839027e-02
 -7.7629965e-03
 -5.3807441e-02
  2.4886310e-02
  4.5876312e-01
 -2.2129513e-01
  7.4291609e-02
 -1.0642213e-01
 -5.6184556e-02
 -1.3081282e-01
  2.2220843e-01
 -1.7991260e-02
 -7.8916773e-02
 -3.0651143e-01
 -2.6415743e-02
 -9.7976528e-02
  4.3008395e-02
  2.5208937e-02
 -4.8988380e-02
  9.4291642e-02
  3.0112397e-03
  4.4817060e-01
  1.2101984e-01
 -9.5546544e-03
  4.9188480e-01
  3.5014190e-02
  1.1418200e-01
 -2.6945177e-01
 -1.2344734e-02
  1.3245744e-01
  2.6250282e-01
 -2.9433761e-02
 -1.1452609e-01
  2.3804991e-02
 -1.3544303e-01
  4.8514459e-02
 -2.0328183e-02
 -1.1875376e-02
  7.8947711e-01
  3.6263797e-03
  3.3860493e-01
  1.1050916e-01
  6.6599719e-02
 -5.4152694e-02
 -9.7136453e-02
  2.3612702e-02
  1.6472667e-02
  2.2563936e-01
  8.1343159e-02
 -2.5091032e-02
  1.1318580e-01
 -9.7075701e-02
 -3.8074050e-02
 -2.3670673e-02
  4.1431570e-03
 -1.4579323e-01
  8.9264542e-01
 -1.3263236e-02
  2.3234081e-01
  3.8168374e-02
  4.6174318e-01
 -1.3293306e-02
 -3.8056094e-02
 -4.5068316e-02
 -3.7022620e-01
  2.1545014e-01
  3.5063159e-01
 -1.0110587e-01
 -6.1559659e-01
 -6.1542265e-02
 -3.2953274e-01
 -1.6567783e-01
 -1.9234104e-01
  7.0135869e-02
 -1.5468043e-02
 -2.9968393e-01
 -6.2551782e-02
 -5.4783814e-02
 -1.2821587e-02
  6.5054977e-01
  2.6624009e-01
 -2.2706011e-02
 -4.8734583e-02
  1.1861764e-02
  1.9209433e-01
 -1.6561125e-01
  1.8899235e-01
 -5.2547157e-01
  4.0550202e-02
 -3.5540421e-02
  2.4108613e-01
  1.9170879e-03
  3.7283368e-02
 -4.9936056e-02
 -1.5727561e-02
  1.0599253e-01
  4.3724473e-03
  8.0822155e-02
 -1.4208724e-01
 -7.2862929e-01
 -3.3438925e-02
 -5.4120298e-02
  1.8609546e-01
 -8.6031454e-03
  1.6321145e-01
 -4.2549584e-02
 -6.1671216e-02
  2.7892637e-01
  4.1749656e-01
 -2.9855245e-03
  5.5886512e-03
  2.2964683e-01
  1.6239487e-01
 -7.7089421e-02
 -3.4287119e-01
  3.6934208e-02
 -3.0282309e-02
 -1.9854170e-01
  3.0648768e-02
 -1.0828318e-02
  2.8239184e-03
  1.3786099e-02
  1.4698564e-01
 -2.2573853e-02
 -1.1745133e-01
 -1.2110155e-02
  5.2921496e-02
  2.1770146e-02
  4.5667838e-02
  6.5651692e-02
  1.2558123e-01
  1.0536172e-01
 -3.9986558e-02
  1.3701875e-02
  2.4089677e-02
  1.1856538e-01
  3.5777591e-02
 -1.7696755e-02
 -1.2886672e-02
  6.5307379e-02
 -1.0540485e-01
  3.5594501e-02
 -1.0154803e-01
  1.1799394e-01
 -6.9675758e-02
  9.0556676e-03
  1.5633691e-02
 -3.7813750e-03
 -1.2697856e-01
  5.8907017e-02
 -8.2499094e-02
 -1.6529817e-02
 -1.1535682e-02
 -5.2740846e-02
  1.2041808e-01
 -6.9190525e-03
 -3.1817179e-02
  1.6783675e-02
  2.0695603e-03
  1.3400145e-01
 -7.1366327e-03
  1.4036047e-01
  3.5075983e-01
 -1.2074624e-02
  6.3401004e-03
 -2.4770856e-02
  1.1931481e-02
  5.4607984e-02
  8.7014921e-02
 -2.4547150e-02
  5.1308084e-02
 -5.0274763e-02
 -2.2128535e-02
  3.5504889e-02
 -1.6238149e-01
 -1.8467270e-02
 -6.3848943e-03
  6.9875154e-03
 -4.0115532e-02
  9.5464185e-02
  2.3208993e-02
 -5.5088824e-01
  3.6857620e-02
 -1.0422287e-01
 -4.5698737e-03
  1.4753675e-02
 -3.0681910e-02
 -2.2384686e-02
 -5.5856191e-02
  2.4042355e-02
 -6.0682885e-02
 -1.7239904e-02
  5.1206242e-02
 -4.8138250e-02
  4.9333226e-02
  7.4955344e-02
  4.1483834e-02
 -1.5264361e-01
 -2.4428049e-02
 -1.5066205e+00
 -2.6089947e-03
 -1.0069592e-01
  1.8299403e-02
  2.1482578e-02
  1.6770194e-01
 -6.9305837e-02
  8.7194934e-02
 -1.8308516e-01
  2.8354375e-02
  3.1875577e-02
 -5.0579574e-02
  1.9514654e-02
 -2.7532983e-03
  3.6923668e-01
  5.0710148e-01
  1.2298073e-02
  3.1833563e-02
  3.3760816e-02
  1.5758287e+00
  6.7872666e-02
 -3.8916457e-01
  1.7536660e-01
  2.8609303e-01
  8.1035489e-01
  9.6335351e-02
  2.1986321e-01
  9.2982529e-03
  4.4489232e-01
 -6.1365638e-02
 -6.8006448e-02
 -8.6707640e-01
 -2.9735193e-01
  3.2394499e-01
 -2.1248255e-02
 -6.0034353e-02
  1.1517566e-01
  2.9660580e-01
 -1.4970988e-02
 -1.1630861e-01
 -6.3571688e-03
 -2.1070207e-02
 -2.1011123e-02
 -3.4349557e-02
  1.2272382e-02
  4.8868471e-01
  2.4070658e-02
 -6.5402361e-03
 -6.1067730e-02
 -3.3334643e-02
  5.5693336e-02
  9.6310876e-02
 -2.3645543e-01
  6.4338416e-02
 -4.9871556e-02
 -1.9821651e-01
 -7.3130578e-01
 -7.6881491e-02
  9.5635548e-02
  4.9538380e-03
  2.5021777e-01
 -2.3035483e-01
  1.5253777e-02
 -8.0019142e-03
  3.0480223e-02
  2.4346005e-02
  5.8993660e-03
 -5.6022597e-03
 -2.1815030e-01
  5.8473158e-03
 -2.4349493e-01
  1.4716255e-02
 -1.5205998e+00
  7.9709731e-02
 -1.9430296e-01
  7.6014489e-01
 -1.1856585e+00
  4.0986657e-01
  2.3610815e-01
  5.3697151e-01
 -8.3621377e-01
 -1.3101559e+00
 -1.4314234e-01
 -7.6281214e-01
  1.2434620e+00
 -8.4065972e-03
 -7.0583481e-01
  7.6537468e-02
 -2.7078191e-02
  1.8316753e-01
 -2.1429081e-03
  9.7160131e-02
  9.2756778e-02
  1.1077927e-01
 -4.8641008e-01
  3.3322448e-01
 -8.4167950e-02
  1.5492031e-01
 -2.3734829e-01
  1.2994543e-01
  1.5484293e-01
  6.2875056e-01
 -2.4888542e-02
  9.7003704e-01
  1.3631348e-02
 -1.0312204e+00
  4.0731710e-01
 -3.9744180e-01
 -2.4711020e-02
  1.4985789e-01
  3.4684348e-01
  2.8277004e-01
  2.6908349e-02
  3.5538247e-01
 -7.4786626e-02
  8.1813335e-02
  4.7713513e-03
 -2.2892091e-02
 -1.5828544e-01
 -7.0528381e-02
 -7.8033321e-02
 -2.2061802e-01
 -1.1106595e-01
  1.9633292e-01
 -2.4912730e-03
 -2.0382977e-01
 -3.5181272e-01
 -7.7611202e-01
 -2.3229043e-01
 -1.6996430e-01
 -5.5825770e-02
  2.8869250e-01
  3.1437431e-02
 -1.6890512e-01
  1.4155841e-02
 -6.7639804e-01
 -4.5247361e-01
  1.9301748e-02
  3.7721229e-01
  1.8428980e-01
 -5.9416074e-01
  1.7760707e-01
 -1.2926700e-03
 -1.7452157e-01
  2.5965852e-01
 -3.0895683e-01
 -6.5025978e-02
  3.1342506e-02
 -1.3534148e-01
 -1.1712722e-02
 -4.1745242e-01
  9.0958670e-02
  1.5270260e-01
 -5.5151826e-01
 -3.3091810e-01
  3.9709398e-01
 -4.3439490e-01
 -6.0329832e-02
  1.4035870e-01
  5.0651897e-02
 -3.9284606e-03
  6.6087413e-01
  4.8583213e-02
  2.6388609e-01
 -1.5364364e-01
 -3.8511604e-03
  4.3348763e-02
  6.3932003e-03
  1.1147568e-01
  1.0353490e-01
 -5.0976891e-02
  6.1704356e-02
  2.9449295e-03
  8.3400953e-01
  3.1966235e-02
 -6.4116567e-02
 -6.8530425e-02
 -6.6864833e-02
  2.8968774e-02
 -1.2309597e-01
  4.6534855e-02
  8.1689380e-02
 -3.0910322e-03
 -1.3141225e-01
 -1.4736468e-01
 -3.3143822e-02
 -4.7992822e-03
  9.5838696e-02
  7.9256430e-02
 -4.2248876e-03
  4.5466993e-02
 -7.7317087e-03
 -2.8028237e-02
 -8.3467409e-02
  4.5220330e-02
 -6.8267383e-02
  5.4871337e-03
 -1.3867103e-02
 -7.1028233e-02
 -5.2901160e-02
  1.8459372e-02
  1.8370252e-02
 -2.6436349e-02
 -3.3737659e-02
  1.8198140e-01
 -6.9634251e-02
 -2.1527179e-01
 -2.4886811e-02
 -4.8759226e-02
 -2.1675935e-01
  1.1202472e-02
 -2.7759242e-01
 -7.2621419e-03
 -3.4568597e-02
 -2.4836452e-01
  6.7397498e-02
 -2.9014650e-01
  3.8366131e-02
  1.4052100e-02
  2.3589414e-02
  3.1615257e-02
  5.9588932e-02
  2.2448787e-01
  3.6404558e-02
  1.8755110e-02
 -1.6297187e-01
  9.1092426e-01
  4.1800115e-01
  2.6594919e-01
 -5.0959527e-01
 -4.1113064e-01
  1.5612494e+00
 -6.6859537e-01
 -5.8606845e-01
  2.9185810e+00
  5.8785778e-02
  1.9661827e+00
  9.6202895e-02
  1.1497422e+00
  9.7647005e-01
  6.0215876e-03
  1.8174375e+00
 -3.5837552e-01
  1.9887906e+00
  4.7999520e-02
  3.5574353e-01
  1.1536849e+00
 -2.1508577e-01
  1.8133237e+00
  1.8387707e-01
  3.3718902e-03
  3.6599493e-01
  2.7227398e-02
  1.2780437e-01
 -3.7443124e-02
  8.3446145e-02
  1.8876301e-02
  2.1985434e-02
  1.1219533e-01
 -4.7589996e-01
  6.0258828e-02
 -8.3703101e-02
  1.5510973e-02
  9.1330051e-02
  8.3337482e-03
 -3.9774571e-02
  2.8867466e-02
 -5.8002844e-03
 -7.2979196e-03
 -1.4976462e-02
  2.5876909e-02
  1.2611286e-01
  7.9698689e-02
 -1.0717136e-02
 -4.3832028e-01
  1.8126367e-02
  9.4255723e-02
  6.7427903e-02
  8.3028786e-02
  9.5279319e-03
 -1.2277889e-01
  3.7050417e-01
  8.6122580e-02
  1.3584571e-01
 -1.0153842e-01
 -1.5664242e-01
 -5.1360605e-03
  2.0753700e-01
  4.1480411e-02
  2.4102530e-02
 -1.0534013e-02
 -3.9321378e-02
  2.8816676e-01
  1.2902134e-02
 -1.1537590e-01
 -4.0931076e-02
  8.9296922e-02
 -7.0974226e-03
  2.1090841e-02
  7.1692824e-02
 -3.7546631e-02
 -3.9085597e-02
  1.0182390e-01
 -1.4904040e-01
 -3.4239914e-02
  2.1287628e-02
  8.8398546e-02
 -6.0858596e-02
  1.0094831e-01
  1.8677825e-01
  3.7852500e-02
 -3.5815779e-02
 -5.1317026e-04
  8.6788513e-02
 -8.7047398e-02
 -1.8341804e+00
  1.1813681e-01
  3.5661680e-01
  8.9478185e-03
 -1.7500984e-03
  3.3514827e-02
  3.7595715e-02
 -7.0747554e-02
 -1.3575305e-02
  2.1254952e-01
 -4.4767063e-02
 -5.0728675e-03
 -5.3356525e-02
 -1.6383987e-02
  1.1454253e-02
 -7.3526129e-02
  1.1995524e-02
 -6.0641870e-02
 -6.4245999e-01
  1.0706384e-01
  9.0204239e-02
  5.0318628e-03
  4.3755681e-03
  6.6746369e-02
 -5.1984411e-02
 -6.1186980e-02
  8.7916693e-03
  7.2175749e-02
 -1.0387040e-01
  2.2979628e-02
  2.4148108e-01
 -1.5663279e-02
  7.5787552e-02
 -1.3714412e-01
 -1.2578699e-01
  3.4353903e-03
  9.0669587e-02
 -3.6826380e-02
 -1.0649209e-02
  6.8564497e-02
 -9.8372869e-02
  2.4942863e-03
 -2.9262754e-05
 -1.6595015e-02
 -1.5718345e-01
 -6.7800723e-02
 -1.2093800e-01
  1.0773219e-02
 -2.6696423e-02
 -1.1561112e-01
 -1.1359716e-02
  5.1750071e-02
  5.1740803e-02
 -2.5089528e-02
  1.4327862e-02
  1.4320636e-01
 -5.4957927e-03
 -1.8162465e-01
 -4.2577311e-02
 -1.8043816e-01
 -2.1529812e-02
 -6.7323364e-02
  1.5530485e-01
 -1.2369705e+00
  2.2650672e-01
  3.5593531e-01
 -5.2260226e-01
 -8.0006152e-02
  1.3478325e-01
 -3.7687901e-01
  4.7054207e-03
 -3.6523134e-01
  1.7083110e-01
  5.6454271e-01
 -1.5332307e-01
  4.8083746e-01
  6.0854411e-01
 -1.4409442e-02
  8.0728728e-01
  7.5804673e-02
 -5.3195648e-02
 -2.0957293e-01
  1.5276246e-01
  1.3200504e-01
 -3.5675183e-01
 -1.3640812e-01
 -3.8546002e-01
 -1.2568764e-02
 -4.3128550e-02
 -5.9598144e-03
 -3.9135778e-01
  5.1676337e-02
  4.1584983e-02
  7.2803751e-02
  6.7947334e-01
 -1.0212733e-01
  1.5522305e-02
 -2.6401805e-02
 -1.7487502e-01
  3.6925131e-03
  8.5877277e-02
  7.3890395e-02
 -9.8686554e-02
  1.6796124e-01
  1.4260955e-01
  4.7447253e-02
  7.4543580e-02
 -9.3892539e-01
  6.6467966e-03
 -1.1553097e-02
  7.3818706e-02
 -3.3477664e-02
  6.8199576e-04
  2.0817183e-01
 -8.2923047e-02
  3.4985803e-02
 -5.8478758e-02
  6.3124061e-02
 -4.8803669e-01
  7.7325208e-03
  2.9709092e-01
  5.9997207e-01
  6.7187029e-01
  2.7532426e-01
  4.1280949e-01
  2.4216679e-01
 -3.1990680e-01
  3.3091727e-01
 -3.0548854e-02
 -1.5539218e+00
 -1.6407587e-02
 -2.6406151e-01
 -5.3303283e-01
 -7.2222643e-02
  8.9518383e-02
  9.1563396e-02
 -1.6774641e+00
 -1.6992313e-01
 -1.6198693e-01
  2.6770902e-01
 -7.8178547e-02
 -1.1186423e+00
 -2.3590641e-02
  1.7437406e-01
 -2.4232247e-01
  1.3151587e-02
 -1.1620931e-01
 -3.6483442e-03
 -1.3539995e-01
 -1.4969295e-01
  1.4574189e-01
  1.6875136e-01
 -4.4418886e-02
  7.4573420e-02
 -3.0276695e-02
  3.5310198e-02
 -5.4634016e-02
  4.6425540e-02
 -1.4482823e-01
  1.3847949e-01
 -7.5532757e-02
  5.7216238e-02
 -5.6239866e-02
 -5.9708759e-02
 -3.4142804e-01
  1.5306500e-02
 -1.6368753e-01
 -1.2208717e-01
  1.7337171e-02
 -9.5319167e-02
  4.4563670e-02
 -9.9916257e-02
  3.4915723e-02
 -2.5629343e-02
 -4.0230874e-02
  9.5180767e-03
 -1.0161804e-01
  3.4460522e-02
  1.0980700e-02
 -2.1491537e-02
 -6.8220370e-02
  8.4934130e-02
  1.2270959e-01
  9.0615362e-02
  6.7151658e-04
  8.3659003e-03
 -5.2264675e-02
 -1.4499587e-01
  2.9233800e-02
 -9.7228512e-02
  8.8511787e-02
  6.9289566e-03
  3.0615171e-02
 -4.1301034e-02
 -5.1091522e-01
 -3.9935946e-02
  3.6045454e-02
 -1.0152701e-01
 -2.2287184e-01
 -1.6447331e-01
 -2.9722683e-02
  3.1043854e-02
  4.5179455e-05
  6.9550984e-02
 -1.5432926e-01
 -2.4136789e-02
  3.7484672e-02
 -2.6247963e-02
 -1.6973549e-01
  2.3680443e-01
  1.0495061e+00
  2.0216671e-03
  2.2231728e-02
 -4.4356246e-02
 -7.1076229e-02
  6.9550946e-02
 -1.1449577e-02
  6.3546382e-02
  7.0145540e-02
 -3.5114914e-01
 -6.7460664e-02
  5.3834312e-02
 -2.6873994e-01
 -2.9034484e-02
  1.1404000e-03
 -6.1064433e-02
 -1.8890622e-01
 -5.5853713e-02
 -4.1009435e-01
 -1.0067459e-01
  1.4447919e-03
 -2.2567989e-01
  9.0884216e-02
  1.2698959e-01
  2.3636136e-02
 -2.8018223e-03
  2.1573517e-02
 -8.6013541e-02
  2.9073894e-02
 -9.9512888e-03
 -2.0738668e-03
  1.8221486e-02
  2.0561974e-02
  9.8858913e-03
  1.1429810e-01
 -3.6953434e-02
  3.6079954e-02
 -7.8516863e-02
  6.0379364e-02
  8.7460428e-03
  3.4893775e-01
 -4.6752565e-02
 -1.5052449e-02
 -2.2151628e-01
 -8.4264137e-02
 -1.9211546e-02
  5.3738046e-01
  7.1749371e-03
 -4.4787746e-02
 -5.8140181e-02
 -4.6375893e-02
 -2.7031360e-02
 -1.0936486e-02
 -3.4511244e-01
  5.0744005e-02
  3.7111276e-01
  3.1802145e-01
 -1.3392056e-02
  2.0403603e-02
  6.2872358e-02
 -5.6734597e-03
 -1.1749322e-02
  1.5634306e-02
  1.2243556e-02
 -8.4053539e-02
 -4.4429637e-02
  8.3296195e-02
 -6.7808041e-03
  3.6845070e-01
 -1.4600433e-01
  3.8109761e-02
 -3.7385643e-02
 -1.6940992e-02
  7.1131326e-02
  3.0640535e-02
  2.5585159e-03
 -6.8017371e-02
  6.3735157e-02
  4.8202094e-02
 -2.9188335e-02
 -1.0716146e-01
 -9.3994830e-03
  3.3355060e-01
  4.4647491e-01
  7.3412251e-01
 -6.7136385e-02
 -1.7529611e-02
  2.9158063e-02
  1.5980023e-01
 -1.1420964e-01
  5.6223493e-02
 -9.2329428e-02
  1.3609958e-02
  1.7404991e-01
 -1.1844670e-01
  4.2390756e-02
  5.5275869e-02
 -1.9132501e-02
 -2.7931511e-02
 -2.6404418e-02
 -3.9779921e-03
  6.1820527e-03
 -3.1162295e-02
  1.7802937e-02
  4.1875042e-02
 -3.2339051e-02
  5.4387104e-02
  1.5600763e-02
  1.3009243e-02
 -9.7884610e-02
  1.0223064e-01
 -2.6067395e-02
  5.1616184e-02
  5.2985631e-02
 -1.3975963e-01
 -2.6045792e-02
  2.4060965e-02
  1.4028411e-01
 -1.0128443e+00
 -3.1614266e-02
  1.1030816e-02
 -8.4047608e-02
 -1.2592669e-01
 -4.3957900e-02
 -6.3020393e-02
 -5.3111669e-02
  1.9032264e-02
 -8.5477039e-02
  4.3046769e-02
  6.8846971e-02
  4.7877241e-02
  6.4156484e-03
 -1.0599497e-01
  2.5507402e-01
 -6.7505248e-02
  4.1993409e-02
  6.6085583e-01
  6.2785380e-02
  3.1524137e-02
 -1.9855279e-01
  8.4692203e-02
 -4.6113163e-02
  7.0980795e-02
 -3.3848065e-01
  2.9661696e-02
  3.0802324e-01
 -1.6577001e-01
  1.1252331e-02
 -1.0025576e-01
  3.9344024e-02
 -1.2004711e-01
 -4.2092837e-02
  2.6458961e-01
  5.2792877e-02
  1.5544931e+00
 -8.1415614e-03
  1.1305771e-02
  4.8182006e-03
 -7.8240074e-02
  4.5128327e-02
 -3.5800867e-02
 -4.1059425e-01
  1.4119732e-02
  1.4543942e+00
  8.1654258e-02
  1.8591267e-01
  1.6401289e-01
  1.0136686e-01
 -2.1917185e-02
  1.0558060e-02
  5.2694529e-01
 -5.1699615e-01
 -1.2352837e-01
 -2.2360873e-01
  2.2937039e-02
 -4.6107512e-02
  2.0314470e-01
  6.0275691e-03
 -1.0126792e-01
 -6.8105422e-02
 -2.5917250e-01
 -2.8551632e-01
  8.7803245e-02
  1.9672687e-01
 -1.0806632e-01
  4.6048172e-02
 -6.0839888e-02
  9.5972061e-02
 -6.2125083e-02
 -2.0277800e-01
 -2.4849506e-02
 -1.2045117e-01
  8.0870733e-02
 -3.0218545e-02
 -1.4880496e-02
  6.3866973e-02
 -5.3761646e-02
  8.0778345e-02
  5.4290634e-02
 -5.0007761e-02
  7.3384494e-02
 -5.5495344e-02
  2.2532396e-01
 -2.8348103e-01
 -1.4512832e-03
 -9.0352558e-03
  2.4325831e-01
  8.9399349e-03
 -4.4301808e-02
  8.6847782e-02
  7.3803730e-02
 -4.1595999e-02
 -1.0059183e-02
  2.2788966e-02
  4.9881890e-02
 -2.6048863e-02
  4.0622973e-03
 -9.7296417e-01
 -2.4371065e-01
  8.9858763e-02
 -3.0461540e-03
 -6.9258666e-01
  1.6710739e-01
  7.4383564e-02
  1.0631330e-02
 -5.1661234e-02
 -3.1622902e-02
  1.4327261e-01
  1.2596118e-01
 -3.6166023e-02
  1.8460920e-02
 -3.8042270e-02
 -1.0074637e-01
 -1.5237148e-01
 -1.3680865e-01
  5.3159647e-02
 -4.5733902e-01
  2.6888635e-02
 -2.0110291e-01
  7.3893532e-02
  2.8595874e-01
  2.8406410e-03
 -2.1481183e-01
 -1.4020716e-01
  4.9330413e-01
  7.5587124e-02
  1.3026354e-03
 -6.8177804e-02
 -4.6000579e-01
 -6.5317802e-02
  9.1507740e-02
 -5.1542300e-01
  7.2923347e-02
  2.8242711e-02
  7.5075044e-03
 -4.5057580e-02
 -2.3558325e-01
  2.5912309e-01
  1.6416322e-01
  5.0823357e-02
 -3.4411324e-03
 -5.2114554e-02
 -1.0142148e-01
 -1.6704461e-01
  5.3577200e-03
  1.1170589e-01
  1.1430412e-03
 -4.2193211e-04
 -1.1414842e-03
  4.7531869e-02
 -3.7879039e-02
 -6.9926992e-02
 -3.3537768e-02
  1.2131807e+00
 -1.3096769e-01
  1.1914929e-01
  7.1820036e-02
 -1.0639733e-02
 -1.0301576e-02
  7.4484780e-02
  1.9792108e-02
 -2.2792959e-01
  1.8759330e-01
  1.6112426e-01
  1.9170794e-01
 -2.1039335e-02
  2.7394962e-02
  4.5570385e-02
  1.7738827e-01
 -1.3093579e-01
 -1.6468072e-02
 -1.3453820e-01
  1.0238330e-01
 -1.4981729e-01
 -4.6819471e-02
 -6.6658676e-02
 -2.4027891e-01
  9.3202733e-02
 -9.1136768e-02
  5.4356325e-02
  4.2745035e-02
 -1.3167104e-01
 -7.7914260e-04
  1.0330399e-01
  1.0933398e-01
  6.9664627e-02
 -4.0049862e-02
 -6.8360120e-02
  9.4885886e-02
 -4.9421575e-02
 -3.7401196e-02
  2.7280271e-01
 -1.1022496e-02
  2.4709659e-02
  2.2132458e-02
  3.7286121e-02
 -9.6787438e-02
  5.2576888e-02
  6.6308551e-03
 -1.1296145e-01
  3.0338306e-02
  1.6879275e-02
  4.2930886e-02
 -2.4457306e-03
  9.1627864e-03
  1.0527037e-01
  1.8070629e+00
  7.6005615e-02
 -2.6525453e-02
  3.3501618e-02
 -1.0124297e-01
  3.7149748e-01
  3.7921477e-02
  5.2325547e-02
  1.6745573e-01
 -1.1463140e-01
  3.5985559e-02
  2.4976732e-02
  3.8251451e-03
  1.5238191e-01
 -3.8724508e-02
 -4.5654762e-01
  3.0164897e-01
 -9.9532418e-02
  2.4533086e-02
 -6.8031489e-03
  1.0923404e+00
 -3.8485948e-03
 -1.4454144e-01
  2.9437361e-02
  1.0661861e-01
  1.4042105e-02
  5.0975764e-01
 -3.7676787e-01
  3.3900598e-01
  1.4663216e-01
  5.0806528e-01
  2.4272244e-02
 -2.7438214e-02
 -1.7982267e-01
  3.2515768e-02
  5.5518062e-03
  7.5527169e-02
  1.1844518e-01
 -6.2266243e-01
  1.1928682e-01
 -7.2220969e-01
  3.9333243e-02
 -7.7217065e-02
  4.0964700e-02
  6.1200950e-03
  6.2670596e-03
  1.4487201e-02
 -1.4736800e+00
 -5.0070863e-02
  5.3243812e-02
  1.1390953e-02
  3.8804856e-01
  7.7348703e-01
  2.3383875e-03
 -1.9843212e-01
 -1.0100482e-01
  4.1250311e-02
 -1.8296835e-01
 -2.9698712e-01
  4.8997432e-02
 -8.8414602e-02
 -6.9593689e-03
 -9.5905840e-02
 -5.7710892e-01
  8.6938329e-03
  4.5004815e-01
 -5.6251323e-01
 -1.3288417e-01
  2.3534147e-01
 -7.5851589e-01
  3.8689184e-01
 -2.2894996e-01
 -5.7632934e-02
  9.6583357e-03
  3.2458681e-01
 -1.8628129e-01
  4.0907538e-01
 -1.9851312e-01
 -1.2726198e+00
  1.0281776e+00
 -7.4579841e-01
  1.1781572e-01
 -1.9529597e-01
 -2.7235513e+00
 -1.0938226e-01
  2.9727485e-02
 -9.6646376e-02
 -1.3214953e-01
  4.4831756e-01
 -2.1126753e-01
  4.0488407e-01
  3.9908592e-02
 -3.0828996e-02
  4.0510130e-01
  4.2192295e-02
  6.8332702e-02
  5.8081172e-02
  8.1297476e-04
 -5.4615206e-01
 -2.4043261e-01
 -1.2133177e-01
 -4.5977783e-01
  3.8141331e-01
  1.7262055e-02
 -4.2417645e-02
 -3.8057625e-02
  1.7945070e-02
  6.7020948e-03
 -1.0058070e-02
 -1.3298295e-01
 -2.8467575e-02
  9.2845953e-01
 -1.0953387e-01
 -1.2506691e-03
  2.2756290e-02
  7.1214132e-02
 -6.5256409e-02
  1.1891842e-01
 -1.1114917e-02
 -7.6484777e-02
 -2.2560190e-02
  6.9173360e-01
 -1.3142039e-02
 -8.3597414e-02
  6.4518161e-02
 -4.5418192e-02
  3.1777047e-02
 -8.4660694e-02
  3.0243086e-02
 -4.5635995e-02
 -3.6845528e-02
  1.7336121e-01
 -1.1335621e-03
 -4.2660110e-02
 -5.8810502e-01
 -6.9173321e-02
 -3.6652736e-02
 -4.3005951e-02
 -2.5133964e-01
  2.8439060e-01
  7.2317109e-02
  3.0206870e-02
 -1.1310948e-01
  1.9100696e-02
 -4.8859671e-02
  4.1803110e-02
  1.0818586e-02
 -9.0169132e-02
 -1.0499304e-01
 -5.9122033e-02
  3.2144364e-02
  2.1337529e-03
 -2.5304183e-02
  7.5256340e-02
 -5.0952341e-02
 -4.7480874e-02
  1.4039586e-01
 -7.2383277e-02
  2.3636903e-01
 -7.4376248e-02
 -1.2073253e-01
 -2.7202630e-02
  1.1399844e-01
  1.6952816e-02
  9.2284288e-03
 -3.9907441e-02
 -7.4744321e-02
 -1.7012313e-02
 -6.4810038e-02
  6.0222644e-02
 -4.4470781e-01
 -1.9503869e-02
 -1.7779998e-01
 -4.0836126e-02
 -1.9091691e-01
 -8.2871407e-02
  3.8811043e-02
 -8.0318600e-03
  1.3084732e+00
  5.8020342e-02
  2.1638824e-01
  3.5459988e-02
 -1.8228754e-02
  1.5171633e-02
  1.0296096e-01
 -3.4096244e-01
 -7.9627953e-02
 -9.3639912e-03
  3.8353994e-02
  2.1623095e-02
  4.7953323e-02
 -1.1005725e-01
  3.3967856e-02
  1.1545401e+00
 -5.3742882e-02
 -2.3440238e-02
  3.6057803e-01
  2.2351127e-02
 -7.1969847e-03
  2.2791335e-02
  5.0445003e-03
  3.3407819e-02
 -1.1026905e+00
 -5.3283966e-01
  1.1220649e-02
  9.2219554e-02
  7.5846142e-01
 -7.0882320e-02
  3.1053445e-03
  1.3623822e-01
  3.5004523e-02
  3.3122629e-03
  9.7699232e-02
 -8.7208964e-02
  1.1625732e-01
  6.9296375e-02
  1.3841139e-02
 -7.7591702e-02
 -4.9661193e-02
  5.6478214e-03
 -3.5403930e-02
 -6.5150550e-03
  2.5898544e-02
 -1.8357176e-02
  9.1216013e-02
 -7.4977130e-02
  3.8995583e-02
  6.2995903e-02
  9.3755171e-02
 -8.5463840e-01
 -5.0965626e-02
  5.3514805e-02
  1.4283563e-01
 -2.1135878e-02
  5.9898203e-04
  6.1271144e-03
  7.2033435e-02
  6.4548314e-02
  2.1061627e-02
  1.0529752e-01
  1.9897227e-03
 -2.4694648e-02
  3.2822467e-02
 -6.1588440e-02
 -7.2609141e-02
  3.5572365e-02
  1.8142150e-01
  2.9220819e-02
 -1.8360741e-02
  5.3499296e-02
  9.2436047e-03
 -9.9535316e-02
  9.1941476e-02
  1.0346594e-01
  6.7651220e-02
 -1.9044052e-01
  2.6096258e-02
 -6.9644399e-02
 -9.0914205e-02
  2.4313456e-01
  1.7738884e-02
  2.7305286e-02
  7.5033359e-02
  2.6877293e-02
  1.9089936e-03
 -2.3305409e-02
  2.9163049e-03
  9.2671491e-04
 -3.6974132e-02
  1.5691595e-01
  1.1545465e-01
 -5.0097816e-02
 -2.2747417e-01
 -3.7849054e-01
 -5.4776061e-02
 -4.6678749e-03
  1.2818013e-01
  9.4209112e-02
 -7.2121136e-02
 -1.2728570e-02
  2.4574456e-01
 -1.5925908e-01
  7.9166450e-02
 -1.4017117e-01
  1.0959199e-02
  8.3274290e-02
 -1.4880940e-01
 -8.8832617e-02
  5.8918059e-02
  4.2097322e-03
 -4.2703584e-01
  3.1739738e-02
  1.0358234e-01
 -3.4531426e-02
 -3.7727684e-02
  9.8392241e-02
  1.5137937e-02
  1.7446838e-03
  9.9771738e-02
 -6.3252553e-02
 -3.3039990e-01
 -1.6322361e-02
 -2.9214384e-04
 -2.0670176e-01
  1.0247532e-01
  1.6010752e-01
 -1.0597482e-01
 -3.0079992e-02
 -3.6604434e-02
  6.3382275e-02
 -3.6106477e-03
  6.5473460e-02
  2.3287989e-02
  6.1668202e-02
 -7.2180241e-02
 -1.2526290e-01
 -3.9187154e-01
  1.1382554e-02
  4.3188259e-02
 -6.3137561e-02
  1.2718134e-01
 -6.6772565e-02
 -7.4464567e-02
 -1.0636287e-01
  3.0445601e-03
 -4.0393770e-03
 -7.1859784e-02
 -7.2435237e-02
 -4.9164346e-03
 -7.1132593e-02
  1.1013289e-02
 -1.1678451e-02
  1.2317058e-02
 -2.0540476e+00
 -1.1933530e-01
 -1.2350833e-02
 -1.5325421e-02
 -4.3060146e-02
  1.1681207e-01
  7.6664880e-02
 -1.2499600e-02
  1.3121934e-01
  5.8558737e-03
  4.8235287e-03
  1.3319217e-02
  7.4712139e-01
 -7.9310894e-02
  3.1270497e-02
  3.2614488e-03
  1.0515075e-01
  7.6074801e-02
 -1.0369692e-03
 -2.0492728e-01
 -8.1135156e-03
 -7.3855422e-02
  4.1971385e-02
 -6.4696270e-01
  2.7057437e-02
  1.0365663e-01
  4.5321487e-02
 -7.9429761e-02
  4.1038822e-02
 -4.8576962e-02
  1.2867798e-02
 -2.1346346e-02
  4.6004448e-03
 -2.3356479e-02
 -2.5578117e-01
 -9.3989797e-02
 -1.2183841e-01
  2.3832636e-02
 -1.8830320e-01
  1.4823200e-02
  5.0678588e-03
  1.9960316e-02
 -1.1125701e-01
 -2.7763991e-02
  2.4814686e-02
 -1.7040895e-02
 -8.1134336e-03
  4.3354049e-02
  8.8977478e-02
  9.5377125e-02
 -1.5852058e-01
 -3.0856019e-02
 -3.0565666e-02
  6.7152432e-03
 -4.5053329e-02
 -7.0388732e-04
  4.5069121e-02
  8.0264486e-02
  2.6548494e-02
 -1.5525175e-02
  6.6287704e-02
 -2.5197757e-02
 -5.6683570e-03
 -8.4748799e-03
 -2.2263080e-02
 -1.2995431e-02
 -1.3863131e-01
 -5.0885477e-03
  4.9907651e-02
  1.9468095e-02
 -1.1420540e-01
 -9.5390424e-02
  8.8438332e-02
  6.7780137e-02
 -5.4993175e-02
 -4.1682157e-03
 -5.8377143e-02
 -4.4559702e-02
 -5.4730363e-03
  8.6106965e-03
 -4.7460356e-01
 -1.5918283e-01
  7.8149952e-02
 -1.4253768e-02
  3.5818502e-02
 -9.4796680e-02
  7.2348252e-02
  1.1712953e-01
 -4.8310205e-02
  5.7762451e-02
  5.5829864e-02
 -3.5959318e-02
 -1.9055489e-02
 -2.9917207e-02
 -4.0052865e-02
 -6.9015166e-03
  7.3314935e-02
 -1.8044947e-01
  4.7696117e-02
 -4.5510452e-02
  8.3782211e-02
  1.3135710e-01
 -1.6588379e-01
  4.4130903e-02
 -1.6185628e-01
 -4.1743670e-02
 -9.5812604e-03
  1.2183415e-02
 -3.1833023e-01
  2.3580870e-01
 -7.2469279e-02
 -4.6744850e-01
 -1.6331023e-02
 -1.4310283e-02
 -2.1079635e-02
  1.2742260e-01
 -5.1567535e-04
 -1.5309669e-01
  9.8779099e-03
  7.2818801e-02
 -9.7083069e-02
 -1.1957759e-01
  9.7215712e-02
  3.9308839e-02
  6.6049539e-02
 -3.7405258e-03
  2.5180163e-02
 -7.2679697e-03
  4.0179551e-02
  5.7217129e-02
  8.7013975e-02
 -1.4408828e-01
 -2.7209562e-01
  1.1417328e-03
 -1.6724417e-02
 -1.0086060e-01
  3.9762773e-02
  1.4248196e-02
  2.9984510e-02
  7.9091620e-03
 -2.0190904e-01
 -7.4390732e-02
 -1.5361309e-01
 -1.0272578e-01
 -3.6777484e-01
 -1.8059889e-02
 -5.0783500e-02
  1.3284638e-02
 -1.2836049e-02
 -5.3910170e-02
  2.5734706e-03
 -5.4320857e-02
  1.6415628e-02
  9.4816163e-02
 -5.0820857e-01
 -4.8005667e-02
  3.7706755e-02
  2.4225697e-02
  3.1896228e-01
  1.9967798e-02
  1.2768571e-01
 -9.6739260e-03
  3.6930051e-02
  9.1908174e-03
  1.5305126e-01
  7.3272839e-02
  2.2325519e-02
  6.4755335e-02
  1.2054455e+00
  7.8730553e-02
 -3.6091340e-01
  6.1476957e-03
 -2.3161349e-01
 -1.2601839e-01
  3.2827053e-02
  8.8160550e-03
  1.8880516e-01
 -6.8978675e-02
  1.7187348e-01
 -1.5487656e-01
 -7.7861029e-01
 -6.2691742e-03
 -9.7956665e-02
 -1.2829957e-03
  6.8050429e-02
 -2.6295433e-02
 -7.6250447e-04
 -3.1997874e-02
 -1.4764344e-02
  4.9698565e-02
 -1.7218042e-02
  8.9031085e-03
 -4.9596754e-01
  3.4706050e-01
  4.0934238e-04
  8.8594830e-01
  9.4455726e-02
 -3.2686342e-02
 -6.0786054e-02
  9.9228702e-02
  7.8986436e-02
  2.3679154e-02
  2.8108083e-02
  5.7596606e-01
  2.7740753e-01
 -5.3444978e-02
 -2.2788063e-02
 -6.6125475e-02
  4.6735708e-02
  1.0203864e-01
  4.2919269e-01
 -3.8966050e-03
  6.4385146e-02
 -1.3518095e-01
  7.6321083e-01
 -4.5792568e-02
 -9.5770909e-03
  3.7447948e-02
  5.3701505e-02
 -3.4212667e-01
  3.8302552e-02
 -1.9457055e-03
 -6.6894941e-02
  3.5257764e-02
  3.8209330e-02
 -2.1329666e-02
 -3.7099753e-02
  5.6099076e-02
 -7.1828641e-02
  3.5138710e-03
 -4.4254895e-02
  6.4944457e-03
 -1.5373984e-02
 -1.4859629e-01
 -6.7145772e-02
  3.7630450e-02
 -7.0806365e-03
  2.2018617e-03
  4.5014743e-02
  2.5142275e-02
  2.1831701e-02
  3.3443585e-02
 -2.7601650e-02
 -2.4047838e-01
  4.2099047e-02
  7.9689726e-02
  1.1012148e-02
 -1.7423706e-02
 -2.4720158e-02
  1.2925042e-02
 -7.8046352e-02
  3.5343987e-01
 -1.2995306e-01
  1.4048990e+00
  1.9815640e-01
 -6.5110838e-01
 -1.3662708e-02
 -4.1541938e-02
 -8.8500077e-01
  4.6869048e-01
 -1.2617050e-01
  3.1510484e-01
 -6.2360976e-02
  2.9539913e-01
  1.3079822e+00
  3.4133572e-02
 -9.7635292e-02
 -9.6489703e-03
 -1.0609114e-02
  3.1659544e-01
 -5.9423562e-02
 -3.5611917e-03
 -1.4849263e-01
 -7.3178411e-01
  8.5050121e-02
 -9.5587313e-02
  1.2029115e-01
 -2.0840352e-02
 -6.7961097e-02
 -2.1688974e-01
 -2.4615361e-01
 -7.8571975e-02
 -7.8808561e-02
  2.5070157e-02
  7.4447371e-04
 -4.4141661e-02
 -4.0981472e-02
  1.2502152e-02
 -6.2445752e-02
  5.4481890e-02
  5.0442286e-02
 -3.8771027e-01
 -7.3358603e-02
 -7.4175909e-02
  1.4222273e-01
 -1.3970254e-02
 -8.0373153e-02
  5.9880476e-02
 -7.0404691e-01
  1.8069522e-01
  6.1584264e-02
 -2.6034774e-02
 -2.9618487e-01
 -8.6475886e-02
  8.5107973e-03
  3.0773181e-01
 -7.1024016e-02
  7.9163864e-02
 -1.5375878e-01
  1.5665282e-02
 -1.3588247e-01
 -4.5854297e-02
 -8.4335089e-02
  2.0174289e-01
 -2.1775888e-01
  5.4720540e-02
 -7.1973763e-02
 -2.9148927e-03
  6.4246468e-02
  1.4258083e-02
 -1.1509678e+00
 -3.1040121e-02
  1.2110649e-02
 -1.3350169e-02
  1.4554561e-02
 -2.1167506e-02
  1.8464107e-02
  5.3240478e-01
 -7.7236593e-02
 -3.8148466e-02
 -3.4234636e-02
  1.1521176e-01
  1.0994088e-03
  5.3935189e-02
 -1.5744579e-01
  4.1177839e-02
  1.8431578e-02
 -7.8967037e-03
  4.8786188e-03
  5.6677226e-02
 -3.3270416e-03
 -7.5509779e-02
 -1.0100511e-01
  7.2554946e-02
  3.2420091e-02
  2.8626639e-01
  1.5702648e-02
 -6.2857047e-02
  1.2095625e-01
  1.9077499e-01
 -1.0417151e-02
  1.2453559e-01
  1.0463283e-01
 -4.9173035e-02
 -7.7907421e-02
 -1.1878379e-02
  1.4329044e-02
 -1.6568506e-02
  2.6777580e-02
  7.5088374e-02
  5.0822295e-02
  2.5884193e-01
 -1.6857620e-01
 -8.3817586e-02
 -3.2228481e-02
 -2.4672741e-02
  1.7383842e-02
 -3.9352391e-02
  4.6833891e-02
 -3.2441506e-01
  1.6884756e-01
 -6.3005736e-04
  9.0676969e-01
  4.8168000e-02
 -3.5896029e-02
 -2.5161613e-02
  7.0826799e-02
 -2.7338604e-02
  4.7746133e-02
 -1.5584805e-02
 -1.3395923e-01
 -1.5515381e-02
  1.5189215e-02
 -2.3427343e-02
 -1.6394456e-01
 -1.1568732e-01
 -1.9339118e-02
  7.9516908e-03
  2.9804764e-02
  6.2641762e-02
  9.7253084e-02
  1.1340903e-01
 -1.2318376e-02
 -1.4878018e-02
 -1.6118139e-01
 -1.1525826e-01
  5.5419184e-02
 -6.8265468e-02
 -4.0508598e-02
 -7.9895340e-02
 -1.7420216e-02
  9.2945807e-03
  9.8631695e-02
  3.9156485e-02
 -8.0785099e-03
 -5.5149242e-02
  5.4110046e-02
  7.5753722e-03
  1.7783972e-02
 -2.8054107e-02
 -1.3189331e-01
  4.3972665e-01
 -3.2447655e-02
  4.9129948e-02
  6.7668028e-02
  1.6034862e-02
 -3.6742713e-02
 -3.6632095e-02
  9.7072981e-03
 -7.0247695e-02
  2.9245237e-01
 -3.1137848e-02
  3.9157972e-02
  2.2634130e-02
  2.9423170e-02
  5.8448672e-02
 -1.6506933e-02
 -7.0654288e-02
 -3.0601965e-03
  1.3508603e-03
 -4.1372520e-03
  2.3789834e-02
  7.5431220e-02
  6.5702915e-02
 -2.9556820e-02
 -1.6948424e-02
 -3.9294112e-02
 -7.8190006e-03
  1.3659364e-01
  3.6362246e-02
  6.4174376e-02
 -2.2775024e-02
  2.0629573e-01
  9.2319310e-02
 -4.0870063e-02
 -8.9615948e-02
  1.5214466e-02
  2.8291389e-02
 -1.2325837e-01
 -6.3719548e-02
 -9.2731334e-02
  3.7987150e-02
  9.9324323e-02
  1.5924057e-03
  3.3124745e-01
 -1.4173879e-01
 -3.4178741e-02
  1.4324545e-02
  3.3647258e-02
 -6.7816256e-03
  2.5530716e-03
  3.5102999e-01
 -1.2197604e-01
 -7.5842339e-01
  4.3259107e-02
 -1.2297511e-01
  8.8250905e-02
  2.3969825e-01
  1.1020678e-01
 -2.8666335e-01
  1.0932060e-01
 -1.9139720e-02
 -3.0596824e-02
  1.2715535e-02
 -6.8732339e-01
 -1.9601087e-01
  4.7492802e-02
  1.8375807e-02
  9.4819538e-02
 -3.4212846e-01
 -5.9855703e-02
  8.8290013e-02
  4.4519972e-02
  3.8232249e-01
 -7.3109967e-01
  7.6604560e-02
  2.3235192e-03
 -1.3819940e-02
 -6.4285673e-02
  1.6064510e-01
 -1.5214270e-01
  4.6111518e-01
  3.8161498e-01
 -3.0527348e-02
 -5.5743167e-03
 -6.9385074e-02
 -8.3462730e-02
  2.0600360e-02
  7.1772075e-01
 -7.1760775e-03
  8.0734640e-02
  6.0340758e-02
 -1.7896412e-02
 -9.2798464e-02
  3.8239956e-02
  8.0171049e-02
  4.9593970e-02
  7.1698911e-02
 -3.8435135e-02
 -1.7406804e-02
  4.0397063e-02
  1.8073800e-01
  2.3314595e-02
  9.7953543e-02
 -1.2253283e-02
 -1.2604498e-04
 -2.4405096e-03
 -7.8542344e-03
  1.5350266e-02
  6.3065916e-02
  1.1201645e-02
 -2.3084277e-02
 -8.5379474e-02
 -5.4493444e-03
 -1.9216714e-02
 -2.1138120e-02
  9.1340644e-03
  4.5867022e-02
  6.2294533e-03
  4.5661200e-02
  5.9569415e-02
 -6.3728727e-02
  1.9125292e-01
 -9.8473899e-02
 -1.7185407e-02
 -4.9817644e-02
  1.6001167e-02
  2.6518360e-03
  1.6239657e-01
 -5.2022350e-01
 -4.8147985e-03
  3.1839501e-02
 -5.4864876e-02
  1.8581523e-01
 -4.2354536e-01
 -2.5166772e-02
 -4.5521077e-02
  9.8368702e-03
 -2.3077363e-02
 -1.6672734e-02
  9.9359769e-03
  3.2107074e-02
  1.1324326e-01
  6.6502042e-02
  8.1720099e-02
 -8.5852258e-02
  2.7936196e-02
  4.0651277e-02
  3.2976302e-03
 -5.3295631e-02
  7.9673920e-03
  6.7006141e-02
  3.7742832e-01
  7.6091044e-02
  3.2825157e-02
  1.2108970e-01
 -1.7943170e-03
 -6.0461760e-01
  2.7931904e-02
 -5.6236505e-04
  5.6497306e-01
 -1.8616779e-02
  3.8204048e-02
  4.6618216e-04
  2.1018118e-03
  1.0180423e-01
 -6.1565038e-02
 -1.0277520e-02
  9.0933353e-02
  2.8918169e-02
  5.8182318e-02
  5.3340751e-01
 -1.8910503e-02
 -2.1701917e-01
 -1.5149654e-02
 -5.2782223e-02
 -2.1362770e-02
 -2.1793295e-01
  2.9110715e-01
 -2.2633079e-01
 -6.0827760e-03
 -8.5686386e-02
  2.0200613e-01
 -3.7805969e-01
 -1.3027664e+00
  7.7059655e-03
  1.0012905e-01
  1.0669993e-02
  5.4396436e-02
 -5.5514115e-01
  3.1970564e-02
 -6.5056221e-03
  2.0468649e-02
  3.3397526e-01
 -3.6663800e-01
 -1.6963994e-02
  1.4146931e-01
 -1.3478614e-02
 -4.2771795e-01
  3.6583181e-02
  1.6574828e-01
  7.9322523e-01
  3.8506802e-02
  1.2140120e+00
  2.7177644e-01
 -2.6183195e-02
  8.0258615e-02
 -1.6218381e-01
 -7.0319730e-01
  3.6908579e-01
  1.2286928e-01
  3.2321833e-02
  2.7689368e-02
  2.0726656e-03
  6.5823436e-01
 -7.4237287e-02
  7.8215301e-02
  5.7880409e-02
 -4.8042622e-01
  9.2934549e-02
  1.0175106e-01
  6.1999496e-02
  3.8943924e-02
 -1.1342347e-01
  6.7981511e-01
 -1.4882641e-01
 -8.1159651e-02
 -8.9960247e-03
  4.2125937e-02
 -1.0023349e-01
 -1.6692410e-03
  7.8672633e-02
 -7.3137492e-02
 -2.1390481e-02
 -9.0666547e-02
 -3.1701684e-02
  4.0372089e-02
  8.6994037e-02
 -8.7686010e-02
 -1.1121450e-01
  3.6765206e-01
 -1.3134756e-02
 -7.3197760e-02
 -5.8715485e-02
 -1.6156220e-01
 -1.3636760e-01
 -7.8750663e-02
 -1.9229960e-02
  4.5459005e-01
  5.7217162e-03
 -9.0961561e-02
  5.4484932e-03
  1.5020618e+00
 -2.2295710e-02
 -9.1842399e-04
  6.1572809e-02
  4.2947391e-03
 -1.1634128e-03
 -2.0620614e-02
 -2.4229908e-02
  1.4334393e-03
 -3.4065989e-03
  8.6171918e-02
  4.9443539e-02
 -3.9844353e-02
 -6.8672970e-02
  1.1139885e-02
 -8.1608957e-03
  2.4003878e-02
  1.1102017e-02
  5.2453261e-03
 -7.2211616e-02
 -1.2324523e-02
 -6.5179877e-02
  3.4580871e-02
  1.6890060e-02
  5.4220621e-02
  5.2512329e-02
  1.0593853e-01
 -1.5924761e-01
 -1.0327463e-02
 -5.0344463e-03
  3.4933120e-02
 -3.2249246e-02
  8.9229867e-02
 -1.3023171e-01
 -9.5928475e-02
 -2.2371775e-03
 -3.6886830e-02
 -1.1181595e-01
 -4.1521527e-02
  1.3389128e-01
  4.2290684e-02
  1.8875169e-02
  9.2212008e-03
 -6.5185349e-03
 -1.0398698e+00
  8.3135553e-02
  1.8799076e-02
 -8.3906814e-02
  2.7372275e-02
  3.0758981e-02
 -6.2409282e-02
 -9.7436018e-02
 -1.0653057e-02
  3.1028809e-03
  7.9923339e-02
  3.8264126e-02
 -1.0213803e-02
  2.7547687e-02
  1.6181019e-01
 -6.9851846e-02
  1.6745795e-02
  3.2108861e-01
  1.7799829e-01
 -5.4956307e-03
 -5.1088214e-02
  2.2782505e-01
  7.8313109e-03
  3.1053802e-02
 -5.7947513e-02
 -4.0927876e-02
 -1.7368812e-02
  5.9321623e-02
  1.1839861e-02
 -2.2820484e-02
  1.6501690e-01
  3.7296377e-02
  6.2834315e-02
  1.3143183e-01
  1.0156345e-01
 -7.1194982e-03
 -5.3614765e-02
  1.0506953e-01
  2.1263326e-02
 -5.9083335e-02
  2.7219744e-02
  2.1875517e-03
 -3.3485934e-03
  2.2599946e-01
  3.5846181e-02
 -4.1298494e-02
  6.2497787e-02
 -1.1267387e-01
 -2.7220494e-01
 -1.6250706e-01
 -2.1927787e-02
  1.3058974e-02
  2.4834014e-02
  4.8874434e-02
 -8.5255861e-02
  4.6583971e-01
  1.7184509e-02
  4.5434707e-01
 -7.3366709e-02
 -7.9092970e-03
  1.2466088e-02
  4.6595421e-01
  5.6603208e-02
 -9.0847835e-03
 -1.3588458e-02
  1.2767121e-01
  5.3377625e-02
  1.5723863e-01
  4.2562217e-01
  4.1315816e-02
 -2.1032218e-02
 -1.4953431e-02
 -5.1832903e-02
  6.5356106e-02
 -1.2369678e-01
 -1.2208533e-01
  1.1292429e-01
 -3.2747954e-02
  1.7308135e-01
  2.0540154e-02
  3.7206583e-02
  6.0598090e-02
 -1.1103596e-01
 -7.5790368e-02
 -6.5393858e-02
  1.5423658e-04
 -2.6034495e-02
  9.4658369e-01
  2.2270832e-02
  4.8670940e-02
 -3.1264059e-03
 -1.5934931e-02
 -1.2409607e-03
  4.7305312e-02
  8.1274249e-02
  5.1526144e-02
 -2.1362615e-01
 -4.4629123e-02
  3.5585295e-02
  1.2017913e-02
 -1.0874256e-02
 -5.5576559e-02
 -9.8974176e-02
 -2.7557733e-02
 -7.4216262e-02
 -5.0132014e-03
  2.9226723e-01
  1.8453052e-02
 -2.3428513e-02
 -5.7461612e-02
  1.1443680e-03
  7.0401891e-03
 -4.3961678e-02
  1.0801840e-02
 -5.8841277e-02
 -3.4430844e-01
 -1.5057425e-01
 -2.1057688e-03
  2.6544470e-01
  8.1301108e-02
  2.3031279e-02
  1.1478974e-02
 -4.0975241e-03
 -1.3612539e-01
  3.3679153e-03
 -1.3225254e-01
 -5.2334853e-02
  3.5704121e-02
  3.0578449e-01
 -6.3312247e-02
  1.1785909e-02
 -1.1219847e-01
 -2.9932878e-03
  2.0355518e-01
  1.4054464e+00
  2.9509000e-02
  2.9868577e-02
  4.4166792e-02
  4.2971380e-02
 -5.3657684e-02
 -6.0486250e-02
  4.1495938e-02
 -7.8772426e-02
 -6.6780493e-02
  1.0143580e-01
 -1.0809552e-01
 -4.0670052e-01
 -1.3533601e-02
  3.3166461e-02
 -1.2855856e+00
 -4.6493616e-03
 -4.7562351e-03
  4.9761175e-03
 -1.1382721e-01
 -1.0511210e+00
  1.1929531e-01
 -8.8892229e-02
 -1.3121905e+00
 -4.1981366e-02
  1.1563285e-01
  2.8786072e-01
  8.8477872e-02
  7.6659612e-02
 -1.6488247e-01
 -1.7579015e-02
  3.5204809e-02
 -6.7093492e-02
 -6.1824799e-01
  2.1184973e-02
  4.8890844e-01
  1.3975877e-02
  9.1513013e-03
 -2.4071952e-02
 -4.7483493e-02
  8.0581587e-03
 -3.2238852e-02
  8.4258354e-01
 -4.5392749e-01
  7.4204013e-02
 -1.2205647e-02
  2.7469696e-02
 -1.3825925e-01
  3.8451871e-01
 -7.9210520e-01
 -6.2355861e-02
 -1.2991240e-02
  9.0131618e-02
 -7.7907562e-02
 -9.8509371e-01
  4.7747016e-02
 -5.7083011e-01
  1.4355925e-03
 -3.4114741e-02
 -1.4566190e+00
 -5.8313847e-02
 -8.1656486e-02
 -6.1160110e-02
  3.3157629e-01
 -1.5283991e+00
 -5.0862782e-02
 -1.0275184e-01
  3.3687007e-02
  3.7772885e-01
  3.9575409e-02
  3.5692248e-02
 -9.7911525e-01
 -9.1446751e-01
 -6.9472754e-01
 -1.0187227e+00
  4.8088270e-01
  3.6258623e-02
 -3.0590662e-01
 -4.3889117e-01
  3.2549322e-01
  7.5534932e-02
  7.0185207e-02
 -1.3475940e-02
  2.3251589e-02
  1.4114754e+00
  9.2682010e-03
  5.8618128e-02
  6.3964181e-02
 -2.3721309e-02
  1.1035225e+00
  3.5024899e-01
 -8.3780609e-02
  8.4878076e-03
  1.4325707e-02
  1.0418469e+00
 -1.8498370e-01
 -3.4430295e-02
 -2.6817255e-02
  1.3465934e-02
 -1.0419632e-01
  5.9976246e-02
  3.3350512e-02
  4.1288558e-02
 -3.0112863e-01
  1.5162952e-02
  2.1020330e-01
  1.0709375e-01
 -8.7059274e-02
 -2.4627617e-02
 -7.7146113e-02
 -9.3673974e-02
 -6.4939745e-02
  1.9894102e-01
 -1.0591912e-01
 -1.2301710e-02
 -2.9261252e-02
 -1.7032033e-02
  9.6949048e-02
 -3.2895051e-02
  3.5996115e-01
  5.7802703e-02
  1.4552653e-02
 -8.1104357e-03
 -2.0286184e-02
 -3.9659718e-01
  1.6383568e-02
 -2.0015274e-01
 -3.2778475e-02
  2.4880564e-02
  2.7436608e-02
  7.2112560e-02
 -2.5651413e-01
  8.1550735e-01
  6.9274016e-02
  1.3542644e-02
  7.1053333e-03
 -4.2304944e-02
 -7.6186247e-02
 -2.3180091e-01
  4.3384761e-01
 -3.6353093e-02
  5.5117037e-02
 -3.1122275e-02
 -1.1470436e-01
  5.3020086e-02
  7.4393161e-02
 -4.1277032e-02
 -3.9022140e-02
 -5.8321632e-02
  9.0042070e-02
 -1.7482849e-02
  9.7758258e-03
 -2.6590511e-02
  4.3150585e-02
  1.5903100e-02
 -1.0786662e-01
  2.2145908e-03
 -4.9527232e-05
  5.9464861e-02
 -9.5811278e-02
  1.0756516e+00
  3.5286114e-01
  8.2608268e-02
  1.4004430e-01
 -2.1480070e-02
  1.6855052e-02
 -3.4236319e-02
  5.6359805e-02
  1.1686130e-01
 -1.6650373e-01
  2.0583624e-02
 -4.9726173e-02
  6.1746936e-02
 -5.2598155e-01
  5.0758108e-02
  1.6347930e+00
  1.8139414e-02
 -6.2824124e-01
 -7.5789005e-02
  2.1181948e-02
 -7.9430059e-02
  9.4048552e-02
 -8.1022978e-03
  2.1720794e-03
 -3.0142184e-02
 -9.1100834e-02
  2.9441252e-01
 -4.0031131e-02
  2.8962683e-02
 -3.0860117e-01
  9.8755263e-02
  4.3481570e-01
 -7.7420734e-02
  5.3493924e-02
  1.9376783e-02
 -8.2182787e-02
  2.1354439e-02
  1.7798941e-01
 -2.0958021e-02
  4.0869363e-02
 -1.8969979e-02
  1.2751545e-01
  5.0965462e-02
 -6.6572889e-03
  1.0761372e-01
  1.3683809e-01
 -6.0376175e-02
  4.1678768e-02
 -1.0628528e-01
  2.7471349e-02
 -4.6164557e-02
 -2.9305568e-02
  2.3235317e-02
 -1.4268704e-01
 -1.7719571e-02
 -3.4136970e-02
  1.7414706e-02
 -5.6103733e-03
 -1.4960427e-02
 -6.3236266e-02
  4.3211086e-03
 -1.2338175e-01
  2.3248684e-01
 -4.3117711e-01
  4.8706837e-02
 -3.2410124e-01
 -6.8318903e-02
 -5.8462150e-02
  3.8606524e-01
 -3.8125056e-01
 -1.8807967e-01
 -3.3678433e-01
  2.8661031e-02
 -4.2956680e-02
 -4.2225581e-01
  2.3675377e-03
 -8.8321924e-02
  1.0086704e-01
 -2.7852410e-02
 -8.1031583e-02
  6.9210187e-02
 -2.4312107e-02
  2.3300106e-02
  3.3377689e-01
 -5.7085526e-01
  7.2001897e-02
 -8.9976536e-03
 -8.4198024e-03
  7.7599756e-02
 -2.4878422e-02
  4.5384228e-02
 -1.5066873e-01
 -5.5765245e-02
  1.0991329e+00
  6.9044405e-03
 -7.2403491e-02
  1.2441187e-03
 -5.0680655e-01
 -6.1934281e-02
 -4.0545579e-02
  2.4421908e-02
  1.6393859e-02
 -1.5646283e-02
  1.4040835e-01
 -1.1127785e-01
 -7.6959953e-02
  6.3665830e-02
  2.2178335e-02
 -4.6314135e-01
  1.1993828e-01
 -1.3988720e+00
 -1.0147408e-01
  1.8205378e-02
  2.2792836e-01
  3.6018789e-02
 -2.7767307e-01
 -6.0643181e-02
  3.4111388e-02
  3.7052727e-01
  6.3629117e-04
  5.2316900e-02
  4.3103956e-02
  1.8370084e-02
  3.7367485e-02
 -1.4578572e-02
  9.0997964e-02
 -1.0355247e-01
  1.5268552e-02
 -1.9420718e-01
  8.8718599e-01
  5.1375800e-03
 -8.9174733e-02
 -5.8802869e-02
 -1.7103110e-01
  1.3363692e-02
  2.3864903e-01
 -1.3023878e-02
 -2.4863705e-02
 -7.7507510e-03
 -3.2843943e-03
  3.1579542e-03
 -4.3055385e-02
 -1.0818410e-01
 -9.6690044e-02
  1.9061762e-01
  7.1047291e-02
  1.7581129e-02
  1.0731141e-01
 -3.0114860e-03
 -1.7077515e-02
 -6.4370826e-02
 -5.2311216e-02
 -5.4295018e-02
 -1.4985917e-02
  3.8550742e-02
  6.6196215e-01
 -2.8956862e-02
 -1.5148623e-01
 -9.1794439e-02
 -5.3103990e-03
 -2.6500717e-02
  5.1081711e-01
  1.1146327e-02
  1.1829358e-02
  1.8459934e+00
  3.5057807e+00
 -3.0371366e-02
  5.0876878e-02
 -3.2405472e-01
  2.7256104e-01
 -2.0286104e-01
 -1.5093407e-01
 -3.5024360e-02
 -3.8613251e-01
  1.6245081e-01
 -3.8067818e-02
  2.4420510e-01
 -9.1285273e-02
  4.5141175e-01
 -1.2425978e-01
  3.2902014e-02
 -6.2557727e-02
  5.0867591e-02
  6.3468352e-02
  8.5412502e-02
 -9.2941105e-02
  9.8329550e-01
  3.2944120e-02
  1.7191175e-02
  6.3985991e-03
  1.0138952e-01
 -6.0820371e-02
 -1.6156015e-01
  1.6277576e-02
 -1.0633994e-01
  6.4696535e-02
  5.8919173e-03
 -2.5407929e-02
 -6.8491660e-02
 -3.6241610e-02
  2.2088931e-04
 -2.0387813e-02
  1.5604159e-02
 -1.9560838e-02
 -1.3005266e-01
 -2.5292084e-02
 -6.3233346e-02
  1.2010224e-01
 -3.5205132e-01
  2.0126231e-02
 -5.2980978e-02
 -2.5678605e-01
  3.7331663e-02
 -4.8985179e-03
  1.0789516e-02
